<?xml version="1.0"?>
<opencv_storage>
<my_svm type_id="opencv-ml-svm">
  <svm_type>C_SVC</svm_type>
  <kernel><type>RBF</type>
    <gamma>1.</gamma></kernel>
  <C>1.</C>
  <term_criteria><epsilon>1.1920928955078125e-07</epsilon>
    <iterations>1000</iterations></term_criteria>
  <var_all>1000</var_all>
  <var_count>1000</var_count>
  <class_count>2</class_count>
  <class_labels type_id="opencv-matrix">
    <rows>1</rows>
    <cols>2</cols>
    <dt>i</dt>
    <data>
      0 1</data></class_labels>
  <sv_total>11</sv_total>
  <support_vectors>
    <_>
      1.36054424e-03 0. 4.53514745e-04 2.72108847e-03 0. 4.53514745e-04
      0. 0. 4.98866197e-03 0. 9.07029491e-04 2.72108847e-03
      4.53514745e-04 0. 1.36054424e-03 9.07029491e-04 1.45124719e-02 0.
      9.07029491e-04 9.97732393e-03 9.07029491e-04 1.81405898e-03
      9.07029491e-03 0. 9.07029491e-04 0. 2.26757373e-03 2.26757373e-03
      0. 1.36054424e-03 4.53514745e-04 1.81405898e-03 1.81405898e-03
      1.45124719e-02 3.17460322e-03 1.36054424e-03 1.40589569e-02 0.
      4.53514745e-04 0. 0. 0. 0. 0. 1.36054424e-03 1.36054424e-03
      1.36054424e-03 4.53514745e-04 0. 5.44217695e-03 0. 7.70975091e-03
      0. 0. 0. 0. 0. 1.81405898e-03 7.70975091e-03 1.81405898e-03
      1.45124719e-02 4.53514745e-04 4.53514745e-04 0. 0. 0.
      4.53514745e-04 4.53514745e-04 2.72108847e-03 3.62811796e-03 0.
      4.53514745e-04 1.81405898e-03 1.36054424e-03 1.81405898e-03
      1.81405898e-03 0. 0. 0. 0. 0. 0. 4.53514745e-04 4.53514745e-04
      9.07029491e-04 1.36054424e-03 9.07029491e-04 4.53514745e-04
      3.17460322e-03 0. 2.72108847e-03 9.07029491e-04 0. 0. 0.
      9.07029491e-04 4.53514745e-04 1.81405898e-03 4.53514745e-03 0. 0.
      2.31292527e-02 2.72108847e-03 0. 1.36054424e-03 2.72108847e-03
      4.53514745e-04 1.36054424e-03 4.53514745e-04 4.53514745e-04
      4.53514745e-04 0. 4.53514745e-04 4.53514745e-04 1.36054424e-03 0.
      9.07029491e-04 9.07029491e-04 4.53514745e-03 0. 1.81405898e-03 0.
      0. 0. 0. 1.36054424e-03 4.53514745e-04 9.07029491e-04
      9.07029491e-04 0. 4.53514745e-04 2.72108847e-03 1.81405898e-03 0.
      0. 2.72108847e-03 1.81405898e-03 2.26757373e-03 0. 4.98866197e-03
      0. 0. 0. 0. 1.81405898e-03 0. 1.36054424e-03 0. 1.36054424e-03 0.
      0. 1.81405898e-03 4.53514745e-04 0. 2.26757373e-03 4.53514745e-04
      9.07029491e-04 0. 0. 3.17460322e-03 0. 0. 4.53514745e-04 0. 0.
      9.07029491e-04 0. 0. 2.26757373e-03 4.98866197e-03 9.07029491e-04
      0. 0. 2.26757373e-03 0. 9.07029491e-04 9.07029491e-04
      9.07029491e-04 0. 1.81405898e-03 2.72108847e-03 0. 9.07029491e-04
      4.53514745e-04 3.17460322e-03 4.53514745e-04 8.16326588e-03
      9.07029491e-04 3.17460322e-03 3.62811796e-03 2.72108847e-03
      1.36054424e-03 4.53514745e-04 1.36054424e-03 4.53514745e-04 0. 0.
      0. 4.53514745e-04 1.17913838e-02 9.07029491e-04 9.07029491e-04
      4.53514745e-04 0. 9.07029491e-04 9.07029491e-04 0. 2.26757373e-03
      0. 4.53514745e-04 0. 4.53514745e-03 2.72108847e-03 0.
      2.72108847e-03 4.98866197e-03 0. 0. 0. 4.53514745e-04
      2.26757373e-03 0. 4.08163294e-03 0. 4.53514745e-04 3.62811796e-03
      0. 1.81405898e-03 9.07029491e-04 1.36054424e-03 2.26757373e-03 0.
      0. 4.53514745e-04 9.07029491e-04 0. 4.53514745e-04 0. 0.
      4.53514745e-04 0. 9.07029491e-04 1.36054424e-03 4.53514745e-04
      4.53514745e-04 5.44217695e-03 0. 0. 9.07029491e-04 4.53514745e-04
      0. 4.53514745e-04 9.07029491e-04 4.53514745e-04 0. 4.53514745e-04
      0. 4.53514745e-04 0. 0. 0. 0. 4.53514745e-04 1.36054424e-03
      1.36054424e-03 4.53514745e-04 0. 1.36054424e-03 0. 3.17460322e-03
      4.53514745e-04 4.53514745e-04 9.07029491e-04 9.07029491e-04
      2.72108847e-03 9.07029491e-04 2.26757373e-03 0. 4.53514745e-04
      5.89569192e-03 2.26757373e-03 0. 1.81405898e-03 0. 4.53514745e-04
      1.81405898e-03 4.53514745e-04 4.53514745e-04 9.07029491e-04 0. 0.
      1.36054424e-03 0. 0. 0. 0. 1.36054424e-03 4.53514745e-04 0. 0.
      4.53514745e-04 2.26757373e-03 0. 0. 5.89569192e-03 0.
      4.53514745e-04 0. 0. 4.53514745e-04 4.53514745e-04 0. 0.
      4.98866197e-03 0. 0. 0. 4.53514745e-04 4.53514745e-04
      9.07029491e-04 1.36054424e-03 4.53514745e-04 0. 0. 0.
      9.07029491e-04 0. 9.07029491e-04 9.52380989e-03 9.07029491e-04
      3.62811796e-03 4.53514745e-04 0. 1.36054424e-03 1.08843539e-02
      1.36054424e-03 0. 0. 9.07029491e-04 1.36054424e-03 4.53514745e-04
      9.07029491e-04 0. 1.81405898e-03 0. 9.07029491e-04 0.
      9.07029491e-04 4.53514745e-04 0. 0. 4.53514745e-04 4.53514745e-04
      0. 3.62811796e-03 0. 4.53514745e-04 0. 4.53514745e-04
      1.36054424e-03 0. 2.26757373e-03 1.81405898e-03 0. 1.81405898e-03
      1.81405898e-03 4.53514745e-04 0. 0. 3.17460322e-03 4.53514745e-04
      0. 9.07029491e-04 1.81405898e-03 4.53514745e-04 4.53514745e-04
      4.53514745e-04 4.53514745e-04 0. 9.07029491e-04 2.26757373e-03
      4.53514745e-04 0. 0. 4.53514745e-04 3.17460322e-03 0. 0. 0.
      4.53514745e-03 0. 0. 4.08163294e-03 4.53514745e-04 0. 0.
      1.36054424e-03 4.53514745e-04 0. 1.81405898e-03 9.07029491e-04
      4.53514745e-04 0. 1.81405898e-03 4.53514745e-04 0. 0.
      4.53514745e-04 2.26757373e-03 4.53514745e-04 3.17460322e-03 0.
      2.26757373e-03 9.07029491e-04 4.53514745e-04 0. 1.81405898e-03
      4.53514745e-04 0. 0. 0. 0. 0. 4.53514745e-04 0. 9.07029491e-04
      4.53514745e-04 1.81405898e-03 0. 4.53514745e-04 0. 9.07029491e-04
      9.07029491e-04 9.07029491e-04 4.53514745e-04 0. 0. 0. 0.
      9.07029491e-04 9.07029491e-04 0. 4.53514745e-04 9.07029491e-04 0.
      0. 0. 0. 0. 0. 3.17460322e-03 4.53514745e-04 1.81405898e-03
      4.53514745e-04 0. 4.53514745e-04 0. 1.04308389e-02 4.53514745e-04
      9.07029491e-04 0. 0. 4.53514745e-04 4.53514745e-04 9.07029491e-04
      0. 1.81405898e-03 1.81405898e-03 9.07029491e-04 0. 2.26757373e-03
      1.36054424e-03 0. 4.53514745e-04 0. 1.36054424e-03 0. 0.
      4.53514745e-04 4.53514745e-03 1.36054424e-03 9.07029491e-04 0.
      4.53514745e-04 0. 0. 9.07029491e-04 4.53514745e-04 5.44217695e-03
      0. 1.81405898e-03 0. 0. 0. 0. 0. 0. 9.07029491e-04 0. 0.
      4.53514745e-04 0. 0. 4.53514745e-04 4.53514745e-04 0. 0.
      4.53514745e-04 0. 1.81405898e-03 4.53514745e-04 4.53514745e-04
      4.53514745e-04 0. 0. 4.53514745e-04 0. 4.53514745e-04 0.
      9.07029491e-04 1.81405898e-03 0. 0. 0. 4.53514745e-04
      4.53514745e-04 0. 1.81405898e-03 0. 0. 9.07029491e-04 0. 0.
      4.53514745e-04 0. 6.80272095e-03 0. 4.53514745e-04 0. 0.
      4.53514745e-04 0. 4.53514745e-04 0. 0. 0. 2.72108847e-03 0.
      4.53514745e-04 1.36054424e-03 9.07029491e-04 4.53514745e-04
      4.53514745e-04 4.53514745e-04 0. 0. 9.07029491e-04 0. 0. 0. 0.
      9.07029491e-04 4.53514745e-04 1.36054424e-03 2.26757373e-03 0.
      5.89569192e-03 1.81405898e-03 4.08163294e-03 9.07029491e-04 0. 0.
      2.26757373e-03 4.08163294e-03 4.53514745e-04 7.25623593e-03
      4.08163294e-03 4.53514745e-04 2.26757373e-03 5.44217695e-03 0. 0.
      0. 2.72108847e-03 1.36054424e-03 4.53514745e-04 0. 4.53514745e-04
      2.72108847e-03 4.53514745e-04 0. 0. 1.36054424e-03 9.07029491e-04
      2.26757373e-03 0. 0. 4.53514745e-04 1.36054424e-03 4.53514745e-04
      0. 9.07029491e-04 0. 1.36054424e-03 1.81405898e-03 0.
      1.81405898e-03 0. 0. 9.07029491e-04 0. 0. 4.98866197e-03 0. 0.
      1.36054424e-03 9.07029491e-04 4.53514745e-04 0. 0. 0.
      1.81405898e-03 0. 4.53514745e-04 0. 4.53514745e-04 0. 0. 0. 0. 0.
      0. 1.36054424e-03 0. 5.89569192e-03 0. 0. 0. 4.53514745e-04 0. 0.
      1.81405898e-03 0. 1.81405898e-03 4.53514745e-04 9.07029491e-04
      6.34920644e-03 0. 0. 0. 4.53514745e-04 4.53514745e-04 0.
      3.17460322e-03 9.07029491e-04 1.36054424e-03 0. 4.53514745e-04
      9.07029491e-04 4.53514745e-04 4.53514745e-04 8.61677993e-03
      4.53514745e-04 4.53514745e-04 0. 0. 4.53514745e-04 2.26757373e-03
      9.07029491e-04 0. 4.53514745e-04 0. 0. 0. 0. 0. 0. 2.26757373e-03
      4.98866197e-03 9.07029491e-04 0. 0. 4.53514745e-04 0.
      4.53514745e-04 0. 0. 9.07029491e-04 9.07029491e-04 2.26757373e-03
      5.44217695e-03 0. 0. 9.07029491e-04 9.07029491e-04 4.53514745e-04
      0. 1.81405898e-03 0. 0. 4.53514745e-04 4.53514745e-04
      1.36054424e-03 9.07029491e-04 0. 1.81405898e-03 0. 4.53514745e-04
      4.53514745e-04 0. 4.53514745e-04 9.07029491e-04 3.17460322e-03
      4.53514745e-04 4.53514745e-03 4.53514745e-04 6.80272095e-03 0.
      4.53514745e-04 2.26757373e-03 4.53514745e-04 4.53514745e-04
      4.53514745e-04 0. 0. 0. 4.53514745e-04 9.07029491e-04 0.
      4.53514745e-04 0. 0. 4.53514745e-04 9.07029491e-04 0.
      1.81405898e-03 0. 0. 0. 0. 1.36054424e-03 0. 0. 1.81405898e-03
      1.81405898e-03 0. 0. 0. 0. 0. 0. 0. 0. 0. 0. 0. 0. 4.53514745e-04
      0. 0. 4.53514745e-04 0. 1.36054424e-03 4.53514745e-04 0.
      4.53514745e-04 3.17460322e-03 0. 1.36054424e-03 9.07029491e-04 0.
      0. 1.81405898e-03 0. 0. 4.53514745e-04 3.62811796e-03
      9.07029491e-04 0. 4.53514745e-04 0. 1.26984129e-02 1.81405898e-03
      0. 4.53514745e-04 0. 4.53514745e-04 0. 4.53514745e-04
      6.80272095e-03 0. 0. 9.07029491e-04 4.53514745e-04 0. 0. 0.
      4.53514745e-04 3.17460322e-03 5.44217695e-03 9.07029491e-04
      9.07029491e-04 4.53514745e-04 0. 4.98866197e-03 0. 4.53514745e-04
      4.53514745e-04 9.07029491e-04 1.36054424e-03 1.36054424e-03
      9.07029491e-04 0. 0. 1.36054424e-03 4.53514745e-04 9.07029491e-04
      9.07029491e-04 4.53514745e-04 0. 0. 0. 0. 4.53514745e-04 0.
      4.53514745e-04 1.36054424e-03 0. 2.26757373e-03 9.07029491e-04
      4.53514745e-04 0. 0. 0. 1.81405898e-03 1.36054424e-03
      9.07029491e-04 0. 0. 0. 0. 2.26757373e-03 1.36054424e-03 0.
      1.40589569e-02 0. 0. 0. 9.07029491e-04 0. 4.53514745e-04 0.
      4.53514745e-04 0. 0. 0. 0. 9.07029491e-04 0. 0. 9.52380989e-03
      9.07029491e-04 0. 4.53514745e-04 4.08163294e-03 4.53514745e-04
      3.62811796e-03 4.53514745e-04 9.07029491e-04 4.53514745e-04
      4.53514745e-04 9.07029491e-04 0. 0. 0. 0. 4.53514745e-04 0. 0. 0.
      9.07029491e-04 0. 4.53514745e-04 0. 0. 0. 1.36054424e-03 0. 0. 0.
      0. 0. 0. 0. 0. 0. 0. 9.07029491e-04 0. 2.26757373e-03 0.
      4.08163294e-03 2.72108847e-03 7.25623593e-03 0. 4.53514745e-04 0.
      9.07029491e-04 0. 1.36054424e-03 0. 0. 4.53514745e-04
      2.72108847e-03 4.53514745e-04 0. 0. 0. 0. 0. 9.07029491e-04 0.
      4.53514745e-04 4.53514745e-04 0. 0. 9.07029491e-04 1.63265318e-02
      7.25623593e-03 0. 0. 0. 0. 1.36054424e-03 0. 0. 0. 0. 0.
      9.07029491e-04 0. 0. 7.25623593e-03 9.07029491e-04 0.
      4.53514745e-04 2.72108847e-03 4.53514745e-04 0. 9.07029491e-04 0.
      0. 4.53514745e-04 0. 0. 9.07029491e-04 5.89569192e-03
      4.53514745e-04 0. 1.81405898e-03 4.53514745e-04 0. 0.
      9.07029491e-04 0. 0. 4.53514745e-04 4.53514745e-04 1.81405898e-03
      0. 0. 0. 0. 9.07029491e-04 0. 9.07029491e-04 0. 0. 1.36054424e-03
      3.17460322e-03 4.53514745e-04 2.26757373e-03 4.53514745e-04
      9.07029491e-04 1.81405898e-03 1.36054424e-03 0. 0. 2.26757373e-03
      0. 0. 1.36054424e-03 1.36054424e-03 9.07029491e-04 0. 0. 0. 0.
      1.36054424e-03 4.53514745e-04</_>
    <_>
      3.37024545e-03 0. 4.81463649e-04 2.40731821e-03 0. 0. 0. 0.
      7.22195487e-03 0. 1.44439097e-03 2.88878195e-03 1.92585459e-03 0.
      4.81463649e-04 9.62927297e-04 4.81463649e-04 0. 9.62927297e-04
      2.07029376e-02 4.81463649e-04 1.92585459e-03 2.88878195e-03 0.
      1.44439097e-03 0. 1.44439097e-03 2.88878195e-03 9.62927297e-04 0.
      0. 2.40731821e-03 1.92585459e-03 3.85170919e-03 4.81463643e-03
      4.81463649e-04 1.29995188e-02 0. 9.62927297e-04 4.81463649e-04 0.
      0. 0. 4.81463649e-04 1.92585459e-03 1.92585459e-03 0.
      4.81463649e-04 0. 1.44439097e-03 4.81463649e-04 9.14780889e-03
      9.62927297e-04 0. 4.81463649e-04 9.62927297e-04 0. 1.44439097e-03
      4.81463649e-04 1.44439097e-03 1.10736638e-02 4.81463649e-04
      3.85170919e-03 0. 4.81463649e-04 0. 4.81463649e-04 1.44439097e-03
      2.40731821e-03 0. 0. 3.37024545e-03 2.88878195e-03 1.44439097e-03
      1.92585459e-03 1.92585459e-03 0. 0. 1.44439097e-03 0. 0.
      4.81463649e-04 0. 0. 4.81463649e-04 1.44439097e-03 1.92585459e-03
      2.88878195e-03 1.92585459e-03 4.81463649e-04 2.40731821e-03
      1.44439097e-03 4.81463649e-04 0. 0. 9.62927297e-04 0.
      1.44439097e-03 3.37024545e-03 4.81463649e-04 0. 2.93692835e-02 0.
      0. 2.88878195e-03 2.40731821e-03 0. 1.44439097e-03 0. 0.
      1.44439097e-03 0. 4.81463649e-04 0. 0. 0. 3.85170919e-03
      9.62927297e-04 1.01107368e-02 0. 1.92585459e-03 0. 4.81463649e-04
      0. 0. 2.40731821e-03 1.92585459e-03 0. 9.62927297e-04 0.
      9.62927297e-04 9.62927297e-04 0. 4.81463649e-04 9.62927297e-04
      2.88878195e-03 9.62927297e-04 1.92585459e-03 0. 5.29609993e-03 0.
      4.81463649e-04 0. 0. 4.81463649e-04 0. 2.40731821e-03 0.
      1.44439097e-03 0. 0. 4.81463649e-04 0. 4.81463649e-04 0. 0. 0.
      1.44439097e-03 0. 3.37024545e-03 0. 1.92585459e-03 2.40731821e-03
      9.62927297e-04 0. 9.62927297e-04 0. 0. 4.81463649e-04
      5.29609993e-03 1.92585459e-03 0. 0. 2.88878195e-03 2.40731821e-03
      0. 4.81463649e-04 0. 0. 1.44439097e-03 1.92585459e-03
      1.44439097e-03 2.88878195e-03 4.81463649e-04 2.40731821e-03
      9.62927297e-04 5.29609993e-03 0. 2.88878195e-03 2.88878195e-03
      4.33317292e-03 9.62927297e-04 1.92585459e-03 0. 1.92585459e-03 0.
      0. 0. 4.81463649e-04 1.39624458e-02 2.88878195e-03 9.62927297e-04
      4.81463649e-04 4.81463649e-04 4.81463649e-04 1.44439097e-03 0.
      2.88878195e-03 4.81463649e-04 0. 4.81463649e-04 1.20365908e-02
      9.62927297e-04 0. 3.37024545e-03 4.81463643e-03 1.92585459e-03 0.
      4.81463649e-04 4.81463649e-04 2.88878195e-03 0. 1.92585459e-03 0.
      0. 4.33317292e-03 0. 1.92585459e-03 4.81463649e-04 9.62927297e-04
      4.81463649e-04 9.62927297e-04 0. 4.81463649e-04 1.92585459e-03 0.
      4.81463649e-04 0. 0. 0. 1.44439097e-03 9.62927297e-04
      9.62927297e-04 0. 1.44439097e-03 3.85170919e-03 0. 0.
      9.62927297e-04 4.81463649e-04 0. 4.81463649e-04 1.44439097e-03 0.
      0. 4.81463649e-04 4.81463649e-04 0. 0. 0. 0. 0. 0. 3.85170919e-03
      2.40731821e-03 0. 0. 1.92585459e-03 4.81463649e-04 4.81463643e-03
      0. 0. 1.44439097e-03 4.81463649e-04 1.92585459e-03 9.62927297e-04
      4.33317292e-03 0. 0. 7.70341838e-03 1.44439097e-03 0.
      3.85170919e-03 4.81463649e-04 0. 4.81463649e-04 9.62927297e-04
      4.81463649e-04 9.62927297e-04 0. 0. 2.88878195e-03 0. 0. 0. 0.
      1.44439097e-03 0. 0. 0. 0. 1.44439097e-03 0. 0. 1.92585459e-03 0.
      0. 0. 0. 0. 0. 0. 4.81463649e-04 5.77756390e-03 0. 0. 0.
      4.81463649e-04 9.62927297e-04 3.85170919e-03 4.81463649e-04
      4.81463649e-04 0. 0. 4.81463649e-04 4.81463649e-04 0.
      4.81463649e-04 5.29609993e-03 0. 2.88878195e-03 1.92585459e-03 0.
      0. 8.18488188e-03 4.81463649e-04 4.81463649e-04 9.62927297e-04
      9.62927297e-04 2.40731821e-03 9.62927297e-04 9.62927297e-04 0.
      1.92585459e-03 4.81463649e-04 0. 0. 9.62927297e-04 0. 0. 0.
      1.92585459e-03 0. 0. 6.25902740e-03 0. 1.92585459e-03 0.
      4.81463649e-04 2.88878195e-03 0. 1.44439097e-03 1.44439097e-03
      4.81463649e-04 2.40731821e-03 4.81463649e-04 9.62927297e-04 0.
      4.81463649e-04 2.40731821e-03 0. 0. 4.81463649e-04 1.44439097e-03
      4.81463649e-04 4.81463649e-04 0. 9.62927297e-04 4.81463649e-04
      1.44439097e-03 1.92585459e-03 0. 0. 0. 9.62927297e-04
      5.77756390e-03 0. 0. 4.81463649e-04 4.81463649e-04 0. 0.
      3.85170919e-03 3.37024545e-03 0. 4.81463649e-04 9.62927297e-04 0.
      0. 1.44439097e-03 2.88878195e-03 0. 4.81463649e-04 1.44439097e-03
      0. 0. 0. 1.92585459e-03 2.40731821e-03 4.81463649e-04
      2.88878195e-03 0. 4.81463643e-03 0. 1.44439097e-03 0.
      4.81463649e-04 4.81463649e-04 0. 0. 0. 4.81463649e-04
      4.81463649e-04 4.81463649e-04 0. 4.81463649e-04 9.62927297e-04 0.
      0. 4.81463649e-04 0. 0. 1.92585459e-03 2.40731821e-03
      9.62927297e-04 0. 0. 0. 4.81463649e-04 0. 4.81463649e-04 0.
      1.44439097e-03 4.81463649e-04 0. 0. 0. 0. 0. 0. 9.62927297e-04
      9.62927297e-04 1.44439097e-03 0. 4.81463649e-04 9.62927297e-04 0.
      2.40731821e-03 0. 9.62927297e-04 0. 0. 1.92585459e-03
      4.81463649e-04 4.81463649e-04 0. 4.81463649e-04 5.29609993e-03
      4.81463649e-04 0. 1.44439097e-03 4.81463649e-04 0. 0.
      1.44439097e-03 0. 0. 4.81463649e-04 9.62927297e-04 2.88878195e-03
      4.81463649e-04 1.44439097e-03 0. 0. 0. 4.81463649e-04
      4.81463649e-04 9.62927297e-04 6.74049091e-03 0. 4.81463649e-04
      4.81463649e-04 0. 0. 4.81463649e-04 4.81463649e-04 0.
      4.81463649e-04 0. 0. 0. 4.81463649e-04 0. 4.81463649e-04
      4.81463649e-04 0. 0. 1.44439097e-03 0. 1.44439097e-03 0. 0.
      4.81463649e-04 0. 0. 0. 4.81463649e-04 4.81463649e-04
      4.81463649e-04 4.81463649e-04 2.40731821e-03 0. 0. 0. 0. 0.
      4.81463649e-04 1.44439097e-03 0. 0. 0. 0. 0. 0. 4.81463649e-04
      4.81463643e-03 0. 0. 4.81463649e-04 0. 2.40731821e-03 0.
      4.81463649e-04 0. 0. 0. 2.88878195e-03 0. 4.81463649e-04
      4.81463649e-04 4.81463649e-04 4.81463649e-04 4.81463649e-04 0. 0.
      0. 2.40731821e-03 0. 0. 0. 0. 9.62927297e-04 9.62927297e-04
      4.81463649e-04 2.88878195e-03 0. 4.33317292e-03 9.62927297e-04
      1.92585459e-03 9.62927297e-04 4.81463649e-04 9.62927297e-04
      9.62927297e-04 4.33317292e-03 9.62927297e-04 5.29609993e-03
      6.74049091e-03 0. 4.81463649e-04 4.33317292e-03 0. 0. 0.
      3.37024545e-03 4.81463649e-04 0. 4.81463649e-04 4.81463649e-04
      1.92585459e-03 0. 1.92585459e-03 0. 9.62927297e-04 9.62927297e-04
      2.88878195e-03 0. 0. 0. 9.62927297e-04 4.81463649e-04
      9.62927297e-04 1.44439097e-03 0. 2.88878195e-03 4.33317292e-03 0.
      4.81463649e-04 0. 4.81463649e-04 0. 0. 0. 2.40731821e-03 0.
      1.44439097e-03 0. 1.44439097e-03 0. 4.81463649e-04 0. 0.
      3.37024545e-03 0. 1.44439097e-03 0. 4.81463649e-04 0. 0.
      4.81463649e-04 0. 0. 0. 0. 4.81463649e-04 6.25902740e-03 0. 0. 0.
      0. 0. 0. 1.92585459e-03 4.81463649e-04 1.44439097e-03
      9.62927297e-04 0. 3.85170919e-03 4.81463649e-04 0. 0.
      4.81463649e-04 0. 0. 3.37024545e-03 0. 0. 0. 4.81463649e-04 0.
      4.81463649e-04 0. 7.22195487e-03 0. 4.81463649e-04 0. 0.
      9.62927297e-04 4.33317292e-03 0. 0. 0. 0. 0. 0. 9.62927297e-04
      4.81463649e-04 9.62927297e-04 9.62927297e-04 4.33317292e-03
      4.81463649e-04 0. 0. 0. 1.44439097e-03 0. 0. 0. 0. 4.81463649e-04
      3.37024545e-03 3.85170919e-03 1.44439097e-03 0. 1.92585459e-03
      1.92585459e-03 4.81463649e-04 0. 1.44439097e-03 2.40731821e-03 0.
      0. 0. 9.62927297e-04 9.62927297e-04 0. 1.92585459e-03 0. 0. 0. 0.
      4.81463649e-04 9.62927297e-04 0. 0. 3.37024545e-03 4.81463649e-04
      6.25902740e-03 0. 9.62927297e-04 9.62927297e-04 9.62927297e-04
      4.81463649e-04 9.62927297e-04 4.81463649e-04 0. 0. 4.81463649e-04
      1.44439097e-03 0. 0. 0. 4.81463649e-04 0. 0. 0. 9.62927297e-04 0.
      4.81463649e-04 4.81463649e-04 0. 0. 0. 0. 1.44439097e-03
      3.85170919e-03 0. 0. 0. 4.81463649e-04 0. 0. 0. 4.81463649e-04 0.
      4.81463649e-04 0. 0. 0. 9.62927297e-04 0. 0. 0. 4.81463649e-04
      1.44439097e-03 0. 0. 7.22195487e-03 0. 0. 9.62927297e-04 0. 0.
      9.62927297e-04 0. 4.81463649e-04 0. 5.29609993e-03 0. 0.
      9.62927297e-04 9.62927297e-04 1.92585459e-03 2.88878195e-03 0.
      4.81463649e-04 4.81463649e-04 4.81463649e-04 4.81463649e-04 0.
      6.74049091e-03 0. 9.62927297e-04 0. 0. 0. 0. 0. 1.44439097e-03
      3.85170919e-03 3.37024545e-03 0. 4.81463649e-04 9.62927297e-04 0.
      3.85170919e-03 0. 4.81463649e-04 0. 1.44439097e-03 9.62927297e-04
      1.44439097e-03 9.62927297e-04 4.81463649e-04 0. 0. 0.
      4.81463649e-04 4.81463649e-04 0. 0. 0. 0. 0. 0. 9.62927297e-04 0.
      1.44439097e-03 0. 2.40731821e-03 0. 0. 0. 0. 0. 1.44439097e-03
      2.88878195e-03 0. 0. 0. 0. 0. 2.88878195e-03 1.44439097e-03 0.
      5.77756390e-03 0. 0. 0. 0. 4.81463649e-04 0. 0. 0. 0. 0. 0. 0.
      4.81463649e-04 0. 0. 1.20365908e-02 4.81463649e-04 0.
      2.88878195e-03 4.33317292e-03 0. 0. 9.62927297e-04 4.81463649e-04
      1.44439097e-03 0. 2.40731821e-03 4.81463649e-04 4.81463649e-04 0.
      0. 0. 0. 0. 0. 4.81463649e-04 0. 0. 1.92585459e-03 0. 0.
      1.44439097e-03 9.62927297e-04 0. 0. 4.81463649e-04 9.62927297e-04
      0. 0. 0. 0. 0. 9.62927297e-04 9.62927297e-04 9.62927297e-04 0.
      7.70341838e-03 4.81463649e-04 7.22195487e-03 0. 0. 0.
      4.81463649e-04 0. 9.62927297e-04 0. 0. 0. 2.40731821e-03 0. 0. 0.
      0. 0. 0. 4.81463649e-04 4.81463649e-04 3.37024545e-03 0. 0.
      9.62927297e-04 1.44439097e-03 2.16658637e-02 7.70341838e-03
      4.81463649e-04 0. 0. 4.81463649e-04 9.62927297e-04 0. 0. 0.
      4.81463649e-04 4.81463649e-04 9.62927297e-04 4.81463649e-04
      9.62927297e-04 3.37024545e-03 0. 0. 0. 2.40731821e-03
      4.81463649e-04 0. 4.81463649e-04 0. 0. 9.62927297e-04 0. 0. 0.
      7.22195487e-03 0. 0. 2.40731821e-03 0. 0. 0. 9.62927297e-04
      1.92585459e-03 0. 0. 0. 1.92585459e-03 0. 0. 0. 0. 0. 0. 0.
      4.81463649e-04 4.81463649e-04 0. 5.77756390e-03 4.81463649e-04
      4.81463649e-04 4.81463649e-04 3.37024545e-03 4.81463649e-04
      9.62927297e-04 0. 0. 1.44439097e-03 0. 2.40731821e-03
      1.44439097e-03 5.29609993e-03 0. 4.81463649e-04 3.85170919e-03 0.
      0. 9.62927297e-04 9.62927297e-04</_>
    <_>
      5.14403277e-04 0. 5.14403277e-04 2.05761311e-03 0. 5.14403277e-04
      0. 5.14403277e-04 4.62962966e-03 0. 2.57201632e-03 3.08641978e-03
      3.60082299e-03 0. 1.54320989e-03 2.05761311e-03 1.02880655e-03 0.
      5.14403277e-04 5.65843610e-03 0. 3.08641978e-03 2.57201632e-03
      5.14403277e-04 1.54320989e-03 0. 1.54320989e-03 1.54320989e-03
      5.14403277e-04 0. 0. 0. 1.54320989e-03 5.14403277e-04 0.
      5.14403277e-04 8.23045243e-03 0. 1.02880655e-03 0. 1.02880655e-03
      0. 0. 0. 1.02880655e-03 2.05761311e-03 1.02880655e-03
      1.02880655e-03 5.14403277e-04 4.11522621e-03 0. 5.14403265e-03
      5.14403277e-04 0. 0. 2.05761311e-03 0. 2.57201632e-03
      4.11522621e-03 1.02880655e-03 6.17283955e-03 5.14403277e-04 0. 0.
      5.14403277e-04 0. 0. 5.14403277e-04 5.14403277e-04 3.08641978e-03
      1.54320989e-03 4.11522621e-03 5.65843610e-03 5.14403277e-04
      3.08641978e-03 2.05761311e-03 0. 0. 1.02880655e-03 0. 0.
      1.02880655e-03 0. 0. 0. 0. 5.14403277e-04 0. 5.14403277e-04
      2.05761311e-03 4.62962966e-03 1.02880655e-03 5.14403277e-04 0. 0.
      2.57201632e-03 5.14403277e-04 1.54320989e-03 3.60082299e-03
      5.14403277e-04 5.14403277e-04 9.77366231e-03 2.05761311e-03 0.
      2.57201632e-03 2.57201632e-03 5.14403277e-04 0. 0. 5.14403277e-04
      1.54320989e-03 0. 1.02880655e-03 1.02880655e-03 1.02880655e-03 0.
      1.02880655e-03 5.14403277e-04 6.17283955e-03 5.14403277e-04
      3.08641978e-03 5.14403277e-04 1.54320989e-03 5.14403277e-04
      5.14403277e-04 2.05761311e-03 1.02880655e-03 0. 5.14403277e-04
      5.14403277e-04 0. 1.02880655e-03 5.14403277e-04 1.02880655e-03
      5.14403277e-04 5.65843610e-03 1.02880655e-03 2.57201632e-03 0.
      7.20164599e-03 0. 5.14403277e-04 0. 5.14403277e-04 0. 0.
      3.60082299e-03 5.14403277e-04 0. 5.14403277e-04 0. 2.05761311e-03
      0. 0. 1.54320989e-03 0. 0. 0. 1.02880655e-03 1.54320989e-03
      5.14403277e-04 2.05761311e-03 3.08641978e-03 1.02880655e-03
      5.14403277e-04 0. 0. 0. 1.54320989e-03 5.14403277e-04
      5.65843610e-03 0. 0. 5.65843610e-03 5.14403277e-04 1.02880655e-03
      1.02880655e-03 0. 0. 1.54320989e-03 3.60082299e-03 0.
      2.57201632e-03 1.02880655e-03 1.54320989e-03 5.14403277e-04
      2.57201632e-03 1.02880655e-03 1.02880655e-03 5.14403277e-04
      3.60082299e-03 3.08641978e-03 0. 1.54320989e-03 0. 2.05761311e-03
      3.08641978e-03 0. 1.54320989e-03 5.65843610e-03 2.57201632e-03
      1.54320989e-03 1.54320989e-03 5.14403277e-04 5.14403277e-04
      1.54320989e-03 0. 2.05761311e-03 0. 1.02880655e-03 0.
      9.77366231e-03 5.14403265e-03 5.14403277e-04 1.54320989e-03
      4.11522621e-03 5.14403277e-04 0. 0. 1.02880655e-03 3.08641978e-03
      0. 1.02880655e-03 1.02880655e-03 1.02880655e-03 2.05761311e-03 0.
      5.14403277e-04 1.54320989e-03 0. 5.14403277e-04 0. 0.
      1.54320989e-03 4.11522621e-03 1.02880655e-03 0. 0. 0.
      5.14403277e-04 1.02880655e-03 3.60082299e-03 0. 0. 1.02880655e-03
      4.62962966e-03 4.11522621e-03 0. 1.02880655e-03 1.02880655e-03
      5.14403277e-04 5.14403277e-04 1.54320989e-03 1.54320989e-03 0.
      1.54320989e-03 1.02880655e-03 0. 0. 0. 0. 0. 5.14403277e-04
      4.11522621e-03 1.02880655e-03 0. 0. 5.14403277e-04 5.14403277e-04
      2.57201632e-03 2.05761311e-03 5.14403277e-04 3.08641978e-03
      1.54320989e-03 5.14403277e-04 0. 3.60082299e-03 0. 5.14403277e-04
      5.14403265e-03 5.14403277e-04 1.02880655e-03 7.20164599e-03 0.
      5.14403277e-04 0. 0. 5.14403277e-04 0. 0. 0. 2.57201632e-03 0. 0.
      0. 0. 3.08641978e-03 5.14403277e-04 0. 0. 0. 1.54320989e-03
      5.14403277e-04 0. 2.05761311e-03 0. 1.54320989e-03 0. 0.
      2.05761311e-03 0. 2.05761311e-03 0. 5.65843610e-03 0.
      5.14403277e-04 1.54320989e-03 0. 0. 8.23045243e-03 1.54320989e-03
      0. 0. 1.02880655e-03 0. 1.54320989e-03 0. 0. 2.57201632e-03 0.
      4.62962966e-03 3.08641978e-03 0. 5.14403277e-04 4.62962966e-03
      3.08641978e-03 5.14403277e-04 0. 0. 2.57201632e-03 1.02880655e-03
      0. 5.14403277e-04 2.05761311e-03 0. 1.54320989e-03 5.14403277e-04
      2.05761311e-03 0. 0. 1.54320989e-03 5.14403277e-04 0. 0.
      5.65843610e-03 0. 2.05761311e-03 5.14403277e-04 0. 5.14403277e-04
      0. 2.05761311e-03 2.57201632e-03 5.14403277e-04 0. 3.08641978e-03
      1.02880655e-03 0. 1.02880655e-03 4.11522621e-03 5.14403277e-04 0.
      5.14403277e-04 5.14403277e-04 5.14403277e-04 5.14403277e-04
      1.54320989e-03 5.14403277e-04 0. 0. 1.54320989e-03 5.14403277e-04
      5.14403277e-04 0. 1.54320989e-03 6.68724254e-03 0. 0.
      5.14403277e-04 0. 0. 0. 9.77366231e-03 1.02880655e-03 0.
      2.05761311e-03 1.54320989e-03 5.14403277e-04 0. 1.54320989e-03
      5.14403265e-03 5.14403277e-04 0. 1.02880655e-03 5.14403277e-04 0.
      0. 0. 2.05761311e-03 0. 4.11522621e-03 0. 7.71604897e-03 0.
      2.05761311e-03 0. 5.14403277e-04 1.02880655e-03 1.02880655e-03
      1.02880655e-03 5.14403277e-04 1.02880655e-03 1.54320989e-03
      5.14403277e-04 0. 0. 5.14403277e-04 0. 1.02880655e-03
      1.02880655e-03 0. 0. 5.14403277e-04 3.60082299e-03 1.02880655e-03
      0. 0. 5.14403277e-04 0. 1.02880655e-03 0. 5.14403277e-04
      2.05761311e-03 5.14403277e-04 0. 5.14403277e-04 0. 0. 0. 0.
      1.54320989e-03 5.14403277e-04 1.02880655e-03 0. 0. 1.02880655e-03
      0. 4.11522621e-03 2.05761311e-03 5.14403277e-04 0. 0. 0.
      1.54320989e-03 0. 5.14403277e-04 0. 1.54320989e-03 1.02880655e-03
      5.14403277e-04 5.14403277e-04 1.54320989e-03 0. 0. 5.14403277e-04
      5.14403277e-04 0. 5.14403277e-04 5.14403277e-04 1.54320989e-03
      2.05761311e-03 1.02880655e-03 0. 0. 5.14403277e-04 0.
      5.14403277e-04 1.02880655e-03 3.60082299e-03 0. 3.08641978e-03
      5.14403277e-04 0. 0. 5.14403277e-04 1.02880655e-03 0.
      2.05761311e-03 0. 0. 0. 0. 0. 0. 0. 1.02880655e-03 0.
      2.57201632e-03 0. 4.62962966e-03 5.14403277e-04 1.54320989e-03 0.
      0. 0. 0. 5.14403277e-04 0. 0. 1.02880655e-03 1.02880655e-03 0. 0.
      0. 5.14403277e-04 1.02880655e-03 0. 0. 0. 1.02880655e-03
      5.14403277e-04 0. 0. 5.14403277e-04 0. 3.60082299e-03
      5.14403277e-04 0. 5.14403277e-04 0. 1.02880655e-03 0.
      1.54320989e-03 0. 0. 5.14403277e-04 0. 0. 5.14403277e-04
      1.02880655e-03 0. 1.02880655e-03 2.05761311e-03 5.14403277e-04 0.
      0. 2.05761311e-03 0. 0. 0. 5.14403277e-04 2.05761311e-03
      2.05761311e-03 5.14403277e-04 5.14403277e-04 0. 5.14403265e-03
      1.54320989e-03 0. 1.54320989e-03 1.02880655e-03 5.14403277e-04 0.
      2.05761311e-03 0. 4.62962966e-03 0. 5.14403277e-04 1.02880655e-03
      3.08641978e-03 0. 5.14403277e-04 5.14403277e-04 3.08641978e-03
      1.54320989e-03 1.02880655e-03 0. 0. 1.54320989e-03 1.02880655e-03
      5.14403277e-04 5.14403277e-04 1.54320989e-03 0. 2.57201632e-03 0.
      0. 0. 1.54320989e-03 1.02880655e-03 0. 1.54320989e-03 0.
      5.14403277e-04 2.57201632e-03 0. 0. 0. 5.14403277e-04
      5.14403277e-04 0. 5.14403277e-04 8.23045243e-03 0. 0. 0.
      5.14403277e-04 0. 0. 0. 0. 3.08641978e-03 0. 5.14403277e-04 0.
      1.02880655e-03 0. 5.14403277e-04 0. 0. 0. 0. 5.14403277e-04
      3.60082299e-03 2.57201632e-03 5.14403277e-04 0. 0. 1.02880655e-03
      5.14403277e-04 0. 0. 5.14403277e-04 0. 5.14403277e-04 0.
      4.11522621e-03 0. 0. 0. 3.08641978e-03 0. 0. 2.57201632e-03
      5.14403277e-04 0. 0. 1.02880655e-03 5.14403277e-04 0.
      3.08641978e-03 3.60082299e-03 0. 0. 0. 0. 0. 3.08641978e-03 0. 0.
      1.02880655e-03 0. 4.11522621e-03 0. 1.54320989e-03 0.
      1.02880655e-03 1.54320989e-03 1.54320989e-03 1.02880655e-03 0.
      5.14403277e-04 1.02880655e-03 2.05761311e-03 5.14403277e-04
      5.14403277e-04 0. 1.54320989e-03 1.02880655e-03 3.08641978e-03
      4.11522621e-03 1.54320989e-03 5.14403277e-04 5.14403277e-04
      2.05761311e-03 5.14403277e-04 0. 1.02880655e-03 1.02880655e-03
      3.60082299e-03 0. 0. 1.54320989e-03 1.02880655e-03 0.
      5.14403277e-04 0. 0. 5.14403277e-04 0. 0. 5.14403277e-04
      5.14403277e-04 0. 5.14403277e-04 1.02880655e-03 5.65843610e-03 0.
      0. 5.14403277e-04 0. 1.02880655e-03 1.54320989e-03 5.14403277e-04
      0. 5.14403277e-04 0. 0. 0. 5.14403277e-04 2.05761311e-03
      5.14403277e-04 0. 5.14403277e-04 0. 7.20164599e-03 5.14403277e-04
      1.02880655e-03 0. 0. 1.02880655e-03 0. 0. 2.05761311e-03
      5.14403265e-03 0. 0. 0. 2.05761311e-03 0. 5.14403277e-04 0. 0. 0.
      5.14403277e-04 5.14403277e-04 0. 0. 0. 0. 0. 0. 1.54320989e-03
      3.08641978e-03 0. 0. 6.68724254e-03 0. 5.14403277e-04
      1.54320989e-03 0. 0. 2.05761311e-03 1.02880655e-03 0. 0.
      6.17283955e-03 1.54320989e-03 5.14403277e-04 1.02880655e-03 0.
      1.54320989e-03 1.54320989e-03 0. 1.54320989e-03 0. 0.
      1.02880655e-03 5.14403277e-04 1.02880655e-03 0. 0. 1.02880655e-03
      0. 0. 0. 0. 5.14403277e-04 3.08641978e-03 3.60082299e-03 0. 0.
      1.02880655e-03 5.14403277e-04 4.11522621e-03 2.05761311e-03
      1.54320989e-03 0. 1.02880655e-03 1.02880655e-03 3.08641978e-03
      1.54320989e-03 0. 0. 0. 1.02880655e-03 1.54320989e-03
      1.02880655e-03 0. 0. 0. 0. 0. 1.02880655e-03 1.02880655e-03 0.
      2.05761311e-03 0. 2.05761311e-03 5.14403277e-04 1.54320989e-03 0.
      5.14403277e-04 1.02880655e-03 2.57201632e-03 5.14403277e-04
      5.14403277e-04 0. 0. 5.14403277e-04 0. 5.14403277e-04
      1.02880655e-03 5.14403277e-04 4.11522621e-03 0. 0. 0. 0. 0. 0.
      5.14403277e-04 5.14403277e-04 5.14403277e-04 0. 0. 0.
      1.54320989e-03 0. 0. 4.11522621e-03 1.02880655e-03 0.
      3.60082299e-03 5.14403277e-04 0. 1.54320989e-03 1.54320989e-03 0.
      5.14403277e-04 0. 1.02880655e-03 0. 5.14403277e-04 0. 0.
      5.14403277e-04 5.14403277e-04 1.02880655e-03 0. 5.14403277e-04 0.
      0. 1.02880655e-03 5.14403277e-04 0. 1.02880655e-03 5.14403277e-04
      5.14403277e-04 0. 5.14403277e-04 0. 0. 0. 0. 0. 0. 0.
      1.02880655e-03 0. 5.14403277e-04 3.08641978e-03 1.54320989e-03
      4.62962966e-03 5.14403277e-04 0. 1.02880655e-03 0. 0. 0.
      5.14403277e-04 0. 0. 1.54320989e-03 0. 0. 0. 0. 1.02880655e-03 0.
      0. 0. 3.60082299e-03 2.05761311e-03 0. 0. 1.54320989e-03
      1.44032920e-02 9.77366231e-03 5.14403277e-04 0. 0. 0.
      1.02880655e-03 0. 0. 0. 0. 5.14403277e-04 5.14403277e-04
      1.54320989e-03 2.57201632e-03 0. 0. 1.02880655e-03 0.
      3.60082299e-03 0. 0. 0. 0. 0. 1.02880655e-03 5.14403277e-04
      5.14403277e-04 5.14403277e-04 7.20164599e-03 0. 0. 6.68724254e-03
      5.14403277e-04 5.14403277e-04 1.02880655e-03 5.14403277e-04
      5.14403277e-04 0. 0. 0. 2.57201632e-03 0. 0. 0. 0. 1.02880655e-03
      0. 1.02880655e-03 0. 0. 5.14403277e-04 7.71604897e-03 0.
      5.14403265e-03 5.14403277e-04 7.71604897e-03 1.54320989e-03
      1.02880655e-03 5.14403277e-04 0. 1.02880655e-03 0. 0.
      5.14403277e-04 2.05761311e-03 0. 5.14403277e-04 3.08641978e-03 0.
      0. 2.57201632e-03 5.14403277e-04</_>
    <_>
      2.10896321e-03 0. 7.02987716e-04 1.12478035e-02 7.02987716e-04 0.
      0. 0. 4.21792641e-03 0. 0. 0. 0. 3.51493858e-04 3.51493858e-04
      2.81195086e-03 3.51493858e-04 7.02987716e-04 0. 3.51493858e-04
      1.05448160e-03 1.05448160e-03 5.62390173e-03 3.51493858e-04
      2.81195086e-03 0. 7.02987716e-04 3.51493858e-04 7.02987716e-04
      7.02987716e-04 0. 2.10896321e-03 3.51493858e-04 1.44112483e-02
      1.75746926e-03 0. 2.10896321e-03 0. 1.40597543e-03 3.51493858e-04
      0. 3.51493858e-04 7.02987716e-04 0. 0. 2.10896321e-03
      3.51493858e-04 1.05448160e-03 0. 1.75746926e-03 0. 1.86291747e-02
      3.51493858e-04 0. 0. 0. 0. 7.02987716e-04 7.02987704e-03
      1.05448160e-03 8.08435865e-03 1.75746926e-03 1.40597543e-03 0. 0.
      0. 7.02987716e-04 0. 2.46045692e-03 0. 0. 2.10896321e-03
      1.65202115e-02 1.40597543e-03 7.02987716e-04 9.84182768e-03 0.
      3.51493858e-04 0. 3.51493858e-04 0. 3.51493858e-04 3.51493858e-04
      0. 0. 1.40597543e-03 6.67838333e-03 0. 0. 2.10896321e-03
      7.02987716e-04 6.32688962e-03 3.51493852e-03 1.05448160e-03
      3.51493858e-04 2.10896321e-03 1.40597543e-03 3.16344481e-03
      1.40597543e-03 7.02987716e-04 0. 3.51493858e-04 7.02987716e-04 0.
      2.46045692e-03 1.05448160e-03 1.75746926e-03 7.02987716e-04
      3.51493858e-04 0. 3.51493858e-04 0. 3.51493858e-04 1.05448160e-03
      1.05448160e-03 0. 0. 1.05448160e-03 7.02987716e-04 3.51493858e-04
      7.02987716e-04 0. 1.40597543e-03 3.51493858e-04 0. 3.51493858e-04
      2.10896321e-03 0. 0. 0. 0. 7.02987704e-03 0. 7.02987716e-04 0.
      3.51493858e-04 0. 3.51493858e-04 1.40597543e-03 7.02987716e-04 0.
      7.02987716e-04 3.51493858e-04 0. 3.51493858e-04 1.05448160e-03
      7.02987716e-04 2.10896321e-03 3.51493858e-04 1.40597543e-03
      5.27240802e-03 0. 3.51493858e-04 1.05448160e-03 1.40597543e-03 0.
      0. 0. 2.10896321e-03 1.75746926e-03 1.40597543e-03 0.
      5.62390173e-03 3.51493858e-04 3.51493858e-04 0. 7.02987716e-04
      3.51493858e-04 5.27240802e-03 0. 3.51493858e-04 0. 1.05448160e-03
      1.75746926e-03 7.02987716e-04 1.05448160e-03 0. 0. 3.51493858e-04
      7.02987716e-04 7.02987716e-04 0. 1.75746926e-03 0. 0. 0.
      7.02987716e-04 0. 2.10896321e-03 3.86643247e-03 2.46045692e-03
      7.02987716e-04 0. 1.75746926e-03 1.05448160e-03 7.02987716e-04
      7.02987716e-04 3.51493858e-04 3.51493858e-04 2.81195086e-03
      1.05448160e-03 2.81195086e-03 7.02987716e-04 0. 1.05448160e-03
      1.05448160e-03 0. 9.49033443e-03 7.02987716e-04 7.02987716e-04
      1.05448160e-03 7.02987704e-03 1.75746926e-03 0. 1.75746926e-03
      1.05448160e-03 1.05448160e-03 0. 0. 0. 7.02987716e-04 0.
      1.05448160e-03 3.51493858e-04 7.02987716e-04 0. 0. 3.51493858e-04
      3.51493858e-04 3.51493858e-04 1.40597543e-03 0. 0. 4.56942013e-03
      1.40597543e-03 2.10896321e-03 1.75746926e-03 0. 0. 2.10896321e-03
      0. 3.51493858e-04 2.46045692e-03 1.05448160e-03 0. 7.38137122e-03
      3.51493852e-03 7.02987716e-04 0. 3.51493858e-04 7.02987716e-04
      3.16344481e-03 3.51493858e-04 2.10896321e-03 0. 0. 0.
      1.05448160e-03 0. 7.02987716e-04 1.05448160e-03 0. 3.51493858e-04
      4.21792641e-03 0. 0. 3.51493858e-04 0. 0. 1.40597543e-03
      3.51493858e-04 0. 3.51493858e-04 1.05448160e-03 7.02987716e-04
      1.05448160e-03 1.05448160e-03 1.40597543e-03 0. 1.40597543e-03
      1.05448160e-03 3.51493858e-04 1.40597543e-03 1.40597543e-03 0.
      3.51493858e-04 0. 0. 0. 7.02987716e-04 3.51493858e-04 0. 0. 0. 0.
      0. 0. 3.51493858e-04 0. 0. 0. 3.51493858e-04 1.05448160e-03 0.
      3.16344481e-03 3.51493858e-04 2.10896321e-03 0. 0. 1.05448160e-03
      7.02987716e-04 1.05448160e-03 0. 6.32688962e-03 1.75746926e-03 0.
      3.51493858e-04 0. 0. 7.02987716e-04 2.81195086e-03 0. 0. 0. 0.
      5.27240802e-03 0. 7.02987716e-04 2.10896321e-03 7.02987716e-04
      3.51493858e-04 7.02987716e-04 0. 1.05448160e-03 1.05448160e-03
      1.40597543e-03 0. 3.51493858e-04 1.75746926e-03 1.40597543e-03 0.
      0. 3.51493858e-04 7.02987716e-04 3.51493858e-04 0. 0.
      7.02987716e-04 0. 0. 1.40597543e-03 1.05448160e-03 3.51493858e-04
      0. 5.97539544e-03 0. 3.16344481e-03 0. 0. 3.51493858e-04
      7.02987716e-04 7.02987716e-04 3.51493852e-03 1.05448160e-03
      4.56942013e-03 0. 3.51493858e-04 0. 5.62390173e-03 1.40597543e-03
      7.02987716e-04 0. 0. 0. 0. 1.40597543e-03 3.51493858e-04 0. 0.
      3.51493858e-04 1.75746926e-03 3.51493858e-04 3.51493858e-04 0. 0.
      2.10896321e-03 7.02987716e-04 0. 7.02987716e-04 7.02987716e-04
      7.02987716e-04 0. 1.05448160e-03 7.02987716e-04 0. 1.05448160e-03
      0. 0. 0. 0. 0. 0. 0. 0. 3.51493858e-04 1.75746926e-03 0. 0.
      2.46045692e-03 3.51493858e-04 5.62390173e-03 0. 1.12478035e-02
      7.02987716e-04 1.40597543e-03 0. 1.40597543e-03 1.05448160e-03
      1.75746926e-03 3.51493858e-04 7.02987716e-04 2.10896321e-03
      1.75746926e-03 0. 0. 7.02987716e-04 3.51493858e-04 0.
      3.51493858e-04 3.86643247e-03 0. 1.40597543e-03 0. 2.46045692e-03
      0. 0. 3.51493858e-04 0. 0. 2.10896321e-03 0. 0. 3.51493858e-04 0.
      3.51493858e-04 3.51493858e-04 0. 0. 0. 0. 7.02987716e-04
      4.21792641e-03 0. 0. 3.51493858e-04 0. 0. 2.46045692e-03 0. 0. 0.
      0. 2.10896321e-03 3.51493858e-04 0. 0. 7.02987716e-04 0.
      2.46045692e-03 7.02987716e-04 0. 3.51493858e-04 0. 1.75746926e-03
      0. 7.02987716e-04 0. 3.51493858e-04 7.02987716e-04 7.02987716e-04
      7.02987716e-04 3.51493858e-04 0. 0. 0. 7.02987716e-04
      7.02987716e-04 3.51493858e-04 3.51493858e-04 3.51493858e-04
      1.05448160e-03 3.51493858e-04 0. 0. 0. 9.49033443e-03 0.
      6.67838333e-03 0. 0. 0. 0. 3.51493858e-04 3.51493858e-04 0. 0.
      7.02987716e-04 6.32688962e-03 0. 4.92091384e-03 1.40597543e-03
      7.02987716e-04 3.51493858e-04 0. 0. 0. 0. 0. 3.51493858e-04 0.
      7.02987716e-04 3.51493858e-04 0. 0. 3.51493858e-04 7.02987716e-04
      0. 1.40597543e-03 3.51493858e-04 0. 0. 0. 3.51493858e-04
      2.81195086e-03 7.02987716e-04 7.02987716e-04 7.02987716e-04 0.
      2.46045692e-03 0. 0. 0. 1.75746926e-03 0. 7.02987716e-04
      1.05448160e-03 3.86643247e-03 0. 7.02987716e-04 3.51493858e-04 0.
      0. 3.51493858e-04 1.40597543e-03 1.05448160e-03 0. 7.02987716e-04
      0. 0. 0. 1.05448160e-03 0. 0. 1.75746926e-03 0. 0. 2.10896321e-03
      0. 1.75746926e-03 0. 0. 0. 3.51493858e-04 4.21792641e-03
      1.40597543e-03 1.05448160e-03 0. 7.02987716e-04 1.40597543e-03
      3.16344481e-03 0. 1.40597543e-03 3.51493858e-04 7.02987716e-04
      2.46045692e-03 0. 0. 3.51493858e-04 3.86643247e-03 1.40597543e-03
      0. 0. 3.51493858e-04 0. 2.10896321e-03 0. 3.51493858e-04
      3.51493858e-04 1.75746926e-03 3.51493858e-04 0. 0. 0. 0.
      1.40597543e-03 0. 0. 0. 3.51493858e-04 1.40597543e-03 0.
      7.02987716e-04 4.56942013e-03 0. 3.51493858e-04 3.51493858e-04 0.
      2.46045692e-03 0. 3.51493858e-04 0. 2.60105450e-02 0.
      3.51493858e-04 0. 1.40597543e-03 0. 0. 0. 3.51493858e-04
      3.51493858e-04 3.51493858e-04 7.02987716e-04 1.75746926e-03
      7.02987716e-04 0. 0. 0. 1.05448160e-03 7.02987716e-04
      2.81195086e-03 1.05448160e-03 0. 0. 7.02987716e-04 0.
      2.00351495e-02 7.02987716e-04 0. 0. 7.02987716e-04 7.02987716e-04
      7.02987716e-04 3.51493858e-04 1.05448160e-03 3.51493858e-04 0. 0.
      3.51493858e-04 2.81195086e-03 1.40597543e-03 0. 0. 0. 0.
      3.51493858e-04 3.51493858e-04 1.75746926e-03 3.51493858e-04 0.
      2.81195086e-03 0. 2.10896321e-03 0. 7.02987716e-04 0.
      3.51493858e-04 0. 4.56942013e-03 3.86643247e-03 0. 3.51493858e-04
      7.02987716e-04 3.16344481e-03 0. 0. 0. 0. 0. 3.51493852e-03 0.
      1.40597543e-03 0. 3.51493858e-04 3.51493858e-04 1.40597543e-03
      1.05448160e-03 1.05448160e-03 0. 5.62390173e-03 0. 0.
      3.16344481e-03 1.75746926e-03 7.02987716e-04 7.02987716e-04 0.
      1.75746926e-03 7.02987716e-04 0. 3.51493858e-04 3.51493858e-04
      1.05448160e-03 3.51493858e-04 1.75746926e-03 3.51493858e-04
      2.10896321e-03 0. 0. 0. 0. 3.51493858e-04 7.02987716e-04
      3.51493858e-04 0. 7.02987716e-04 1.40597543e-03 0. 0.
      1.40597543e-03 7.02987716e-04 1.40597543e-03 3.86643247e-03
      8.08435865e-03 0. 1.75746926e-03 1.40597543e-03 1.75746926e-03
      3.51493858e-04 0. 7.02987716e-04 0. 0. 3.16344481e-03
      3.51493858e-04 3.51493858e-04 0. 7.02987716e-04 5.27240802e-03 0.
      1.40597543e-03 0. 2.81195086e-03 0. 3.51493858e-04 1.05448160e-03
      0. 7.02987716e-04 1.40597543e-03 0. 0. 3.51493858e-04
      3.51493858e-04 3.51493858e-04 0. 0. 4.56942013e-03 0. 0. 0.
      3.51493858e-04 0. 1.05448160e-03 3.51493858e-04 0. 0.
      3.51493858e-04 7.02987716e-04 0. 8.08435865e-03 0. 5.27240802e-03
      1.05448160e-03 0. 0. 0. 0. 2.81195086e-03 7.02987716e-04
      4.21792641e-03 7.02987716e-04 1.05448160e-03 1.05448160e-03 0. 0.
      3.51493858e-04 0. 3.51493858e-04 1.75746926e-03 2.46045692e-03 0.
      0. 3.51493858e-04 3.51493858e-04 2.03866437e-02 3.51493858e-04 0.
      3.51493858e-04 1.19507909e-02 1.75746926e-03 3.51493858e-04
      1.75746926e-03 0. 3.51493858e-04 1.75746926e-03 1.05448160e-03
      3.51493858e-04 3.51493858e-04 0. 3.51493858e-04 0. 0.
      1.05448160e-03 7.02987716e-04 0. 2.46045692e-03 3.51493858e-04 0.
      1.05448160e-03 7.02987716e-04 1.05448160e-03 1.75746926e-03 0. 0.
      1.05448160e-03 7.02987716e-04 3.51493858e-04 0. 0. 0. 0. 0.
      3.51493858e-04 0. 5.27240802e-03 0. 7.02987716e-04 3.51493858e-04
      3.51493858e-04 0. 7.02987716e-04 0. 0. 3.51493858e-04 0. 0. 0. 0.
      0. 0. 2.10896321e-03 3.51493858e-04 3.51493858e-04 3.51493858e-04
      3.16344481e-03 0. 3.51493858e-04 0. 0. 0. 7.02987716e-04 0. 0. 0.
      7.02987716e-04 0. 0. 7.02987716e-04 3.51493858e-04 0.
      1.75746926e-03 0. 0. 0. 1.40597543e-03 3.16344481e-03
      4.21792641e-03 3.51493858e-04 3.51493858e-04 0. 1.05448160e-03
      1.05448160e-03 0. 0. 0. 3.51493858e-04 7.02987716e-04 0. 0.
      1.05448160e-03 0. 7.02987716e-04 3.51493858e-04 1.05448160e-03
      2.10896321e-03 0. 0. 3.51493858e-04 0. 1.40597543e-03 0. 0. 0.
      3.51493858e-04 0. 1.05448160e-03 0. 0. 3.51493858e-04
      1.40597543e-03 0. 7.02987716e-04 7.02987716e-04 5.97539544e-03 0.
      7.02987716e-04 1.05448160e-03 5.27240802e-03 7.02987716e-04
      3.51493858e-04 3.51493858e-04 0. 3.51493858e-04 3.51493858e-04
      1.75746926e-03 7.02987716e-04 7.02987716e-04 0. 3.51493858e-04
      2.46045692e-03 7.02987716e-04 0. 3.51493858e-04 0. 2.46045692e-03
      0. 1.05448160e-03 0. 0. 2.46045692e-03 0. 0. 3.51493858e-04
      3.51493858e-04 3.51493858e-04 7.02987716e-04 3.65553610e-02 0. 0.
      3.86643247e-03 7.02987716e-04 7.02987716e-04 3.51493858e-04 0.
      7.02987716e-04 0. 3.51493858e-04 7.02987716e-04 1.75746926e-03
      1.40597543e-03 0. 0. 3.51493858e-04 1.05448160e-03 0.
      3.51493858e-04 0. 0. 0. 1.75746926e-03 0. 1.05448160e-03
      3.51493858e-04 2.46045692e-03 3.51493858e-04 7.02987716e-04 0. 0.
      3.16344481e-03 0. 7.02987716e-04 0. 1.75746926e-03 1.05448160e-03
      1.05448160e-03 7.02987716e-04 3.51493858e-04 0. 2.10896321e-03
      1.40597543e-03</_>
    <_>
      8.53242259e-03 0. 8.53242294e-04 4.26621147e-04 8.53242294e-04
      8.53242294e-04 0. 2.98634800e-03 8.53242259e-03 4.26621147e-04 0.
      4.26621147e-04 9.38566495e-03 0. 3.41296918e-03 2.55972682e-03 0.
      1.27986341e-03 2.98634800e-03 1.70648459e-03 8.53242294e-04
      4.69283247e-03 8.95904377e-03 0. 1.27986341e-03 0. 1.27986341e-03
      4.26621147e-04 8.53242294e-04 4.26621147e-04 8.53242294e-04 0.
      4.26621147e-04 3.41296918e-03 1.70648459e-03 0. 7.67918071e-03 0.
      1.27986341e-03 0. 0. 1.27986341e-03 2.13310565e-03 8.53242294e-04
      0. 2.98634800e-03 0. 1.27986341e-03 8.53242294e-04 5.54607483e-03
      0. 8.53242294e-04 1.70648459e-03 0. 0. 4.26621147e-04 0.
      1.70648459e-03 8.53242294e-04 0. 1.02389073e-02 0. 2.98634800e-03
      0. 0. 0. 2.55972682e-03 4.26621147e-04 2.98634800e-03 0.
      4.26621147e-04 1.27986341e-03 8.53242294e-04 2.13310565e-03
      2.13310565e-03 2.13310565e-03 0. 1.27986341e-03 0. 8.53242294e-04
      4.26621147e-04 1.27986341e-03 8.53242294e-04 4.26621147e-04
      4.26621147e-04 2.13310565e-03 3.83959035e-03 0. 8.53242294e-04
      8.53242294e-04 0. 8.53242294e-04 1.70648459e-03 8.53242294e-04 0.
      1.70648459e-03 8.53242294e-04 1.27986341e-03 8.53242294e-04
      2.98634800e-03 0. 3.41296918e-03 8.53242294e-04 0. 2.13310565e-03
      2.13310565e-03 4.26621147e-04 4.26621147e-04 0. 2.13310565e-03 0.
      8.53242294e-04 0. 8.53242294e-04 3.41296918e-03 0. 4.26621147e-04
      3.41296918e-03 4.69283247e-03 4.26621147e-04 1.70648459e-03 0.
      3.83959035e-03 0. 1.27986341e-03 2.98634800e-03 8.53242294e-04 0.
      8.53242294e-04 0. 0. 4.26621147e-04 0. 4.26621147e-04
      8.53242294e-04 4.26621147e-04 0. 1.27986341e-03 1.27986341e-03
      8.53242294e-04 8.53242294e-04 0. 8.53242294e-04 0. 0.
      8.53242294e-04 1.27986341e-03 8.53242294e-04 4.26621147e-04 0.
      1.70648459e-03 1.70648459e-03 3.83959035e-03 0. 0. 1.27986341e-03
      0. 0. 8.53242294e-04 2.55972682e-03 0. 0. 5.11945365e-03
      8.53242294e-04 8.53242294e-04 4.26621147e-04 0. 4.26621147e-04 0.
      0. 1.27986341e-03 4.26621147e-04 1.70648459e-03 2.55972682e-03
      8.53242294e-04 4.26621147e-04 8.53242294e-04 4.26621147e-04 0. 0.
      3.41296918e-03 0. 1.27986341e-03 2.55972682e-03 0. 0.
      3.41296918e-03 0. 4.26621130e-03 1.02389073e-02 1.27986341e-03
      4.26621147e-04 0. 0. 1.27986341e-03 3.83959035e-03 1.27986341e-03
      0. 1.27986341e-03 2.55972682e-03 4.69283247e-03 4.26621147e-04 0.
      4.26621147e-04 8.53242294e-04 8.53242294e-04 0. 4.26621147e-04 0.
      1.70648459e-03 4.26621147e-04 8.95904377e-03 4.26621147e-04 0.
      8.53242294e-04 5.11945365e-03 4.26621147e-04 8.53242294e-04
      4.26621147e-04 8.53242294e-04 2.98634800e-03 4.26621147e-04
      4.26621147e-04 0. 4.26621147e-04 8.10580142e-03 4.26621147e-04 0.
      8.53242294e-04 0. 3.83959035e-03 4.26621147e-04 0. 0.
      5.97269600e-03 4.26621147e-04 4.26621147e-04 0. 0. 3.41296918e-03
      0. 1.27986341e-03 2.98634800e-03 8.53242294e-04 8.53242294e-04
      1.27986341e-03 1.27986341e-03 4.26621147e-04 4.26621147e-04 0.
      8.53242294e-04 2.98634800e-03 4.26621147e-04 1.70648459e-03
      4.26621147e-04 0. 2.13310565e-03 1.27986341e-03 0. 0. 0. 0.
      1.27986341e-03 1.70648459e-03 8.53242294e-04 0. 0. 4.26621147e-04
      0. 1.70648459e-03 4.26621147e-04 0. 0. 3.41296918e-03 0.
      1.27986341e-03 8.53242294e-04 4.26621147e-04 0. 9.81228612e-03 0.
      8.53242294e-04 2.55972682e-03 4.26621147e-04 1.27986341e-03
      4.26621147e-04 0. 0. 4.26621147e-04 4.26621147e-04 0.
      8.53242294e-04 4.26621147e-04 0. 1.27986341e-03 0. 0.
      4.26621147e-04 0. 0. 8.53242294e-04 8.53242294e-04 1.70648459e-03
      0. 5.97269600e-03 0. 8.53242294e-04 0. 1.70648459e-03 0. 0.
      1.70648459e-03 0. 1.70648459e-03 4.26621147e-04 0. 1.27986341e-03
      8.53242294e-04 0. 1.70648459e-03 1.70648459e-03 0. 1.27986341e-03
      0. 4.26621147e-04 8.53242294e-04 0. 1.27986341e-03 8.53242259e-03
      4.26621147e-04 1.27986341e-03 2.98634800e-03 0. 3.83959035e-03 0.
      1.27986341e-03 4.26621147e-04 0. 4.26621147e-04 6.82593836e-03
      2.98634800e-03 4.26621147e-04 8.53242294e-04 7.67918071e-03
      4.26621147e-04 0. 0. 2.55972682e-03 0. 0. 2.98634800e-03
      2.13310565e-03 0. 0. 2.55972682e-03 0. 2.55972682e-03
      2.13310565e-03 0. 3.83959035e-03 0. 1.27986341e-03 4.26621147e-04
      8.53242294e-04 4.69283247e-03 4.26621147e-04 1.27986341e-03 0.
      8.53242294e-04 4.26621147e-04 0. 0. 8.53242294e-04 4.26621147e-04
      0. 1.70648459e-03 4.26621147e-04 0. 0. 0. 2.13310565e-03
      4.26621147e-04 0. 0. 0. 8.53242259e-03 2.13310565e-03 0.
      2.55972682e-03 1.27986341e-03 4.26621147e-04 0. 2.55972682e-03
      3.41296918e-03 0. 1.27986341e-03 2.13310565e-03 0. 4.26621147e-04
      0. 1.70648459e-03 0. 0. 0. 0. 0. 4.26621147e-04 1.27986341e-03
      1.27986341e-03 0. 2.98634800e-03 0. 7.67918071e-03 4.26621147e-04
      4.26621147e-04 8.53242294e-04 1.27986341e-03 8.53242294e-04
      1.27986341e-03 4.26621147e-04 4.26621147e-04 2.13310565e-03
      1.27986341e-03 4.26621147e-04 0. 1.70648459e-03 1.27986341e-03
      4.26621147e-04 8.53242294e-04 4.26621147e-04 0. 1.70648459e-03 0.
      1.27986341e-03 0. 0. 1.70648459e-03 2.98634800e-03 8.53242294e-04
      3.83959035e-03 0. 4.26621147e-04 2.13310565e-03 4.26621147e-04
      4.26621147e-04 0. 0. 0. 0. 0. 8.53242294e-04 8.53242294e-04
      4.26621147e-04 8.53242294e-04 8.53242294e-04 0. 0. 1.70648459e-03
      4.26621147e-04 0. 0. 0. 1.27986341e-03 1.70648459e-03
      8.53242294e-04 1.70648459e-03 0. 7.67918071e-03 2.13310565e-03
      8.53242294e-04 4.26621147e-04 1.27986341e-03 0. 4.26621147e-04 0.
      8.53242294e-04 0. 8.53242294e-04 0. 2.98634800e-03 4.26621147e-04
      1.27986341e-03 0. 1.27986341e-03 0. 0. 4.26621147e-04
      4.26621147e-04 8.53242294e-04 0. 2.98634800e-03 4.26621147e-04 0.
      0. 8.53242294e-04 4.26621147e-04 0. 4.26621147e-04 0.
      4.26621147e-04 4.26621147e-04 1.27986341e-03 0. 2.55972682e-03 0.
      0. 1.27986341e-03 2.55972682e-03 0. 1.27986341e-03 0. 0. 0.
      8.53242294e-04 0. 0. 0. 4.26621147e-04 4.26621147e-04
      4.26621147e-04 2.13310565e-03 4.26621147e-04 0. 0. 4.26621147e-04
      0. 0. 0. 0. 7.25255953e-03 0. 8.53242294e-04 2.98634800e-03
      4.26621147e-04 2.13310565e-03 0. 4.26621147e-04 1.27986341e-03
      4.26621147e-04 0. 0. 0. 1.27986341e-03 4.26621147e-04
      4.26621147e-04 0. 1.27986341e-03 0. 8.53242294e-04 0. 0.
      4.26621147e-04 8.53242294e-04 2.13310565e-03 8.53242294e-04 0.
      2.55972682e-03 0. 0. 0. 0. 0. 1.70648459e-03 1.70648459e-03
      4.26621147e-04 0. 2.98634800e-03 8.53242294e-04 5.97269600e-03
      3.83959035e-03 0. 0. 0. 2.98634800e-03 1.70648459e-03
      5.54607483e-03 3.41296918e-03 2.55972682e-03 5.11945365e-03
      4.26621147e-04 0. 1.70648459e-03 0. 2.55972682e-03 3.41296918e-03
      0. 2.13310565e-03 0. 8.53242294e-04 1.27986341e-03 0.
      4.26621147e-04 4.26621147e-04 0. 2.13310565e-03 0. 0. 0. 0.
      4.26621147e-04 0. 2.13310565e-03 4.26621147e-04 2.13310565e-03
      2.98634800e-03 0. 0. 4.26621147e-04 0. 2.98634800e-03 0. 0.
      2.98634800e-03 4.26621147e-04 1.27986341e-03 1.27986341e-03
      4.26621147e-04 3.41296918e-03 1.70648459e-03 8.53242294e-04 0.
      8.53242294e-04 0. 1.27986341e-03 0. 4.26621147e-04 0.
      2.13310565e-03 8.53242294e-04 4.26621147e-04 0. 0. 1.27986341e-03
      1.27986341e-03 2.13310565e-03 4.26621147e-04 0. 8.53242294e-04
      8.53242294e-04 0. 4.26621147e-04 4.26621147e-04 0. 4.26621147e-04
      4.26621130e-03 0. 1.70648459e-03 1.27986341e-03 0. 0.
      4.26621147e-04 2.13310565e-03 8.53242294e-04 0. 4.26621147e-04
      2.13310565e-03 0. 0. 8.53242294e-04 8.53242294e-04 2.55972682e-03
      0. 4.26621147e-04 0. 0. 4.26621147e-04 0. 8.53242294e-04
      8.53242294e-04 0. 4.26621147e-04 0. 2.13310565e-03 0.
      2.13310565e-03 0. 2.55972682e-03 4.26621147e-04 2.13310565e-03 0.
      0. 0. 0. 3.41296918e-03 0. 0. 0. 8.53242294e-04 0. 2.98634800e-03
      3.83959035e-03 1.27986341e-03 4.26621147e-04 1.27986341e-03
      4.26621147e-04 5.54607483e-03 0. 1.70648459e-03 2.98634800e-03
      1.27986341e-03 0. 0. 3.83959035e-03 2.55972682e-03 4.26621147e-04
      2.13310565e-03 0. 0. 0. 0. 8.53242294e-04 0. 1.70648459e-03 0.
      5.11945365e-03 0. 2.98634800e-03 0. 4.26621147e-04 4.26621147e-04
      0. 4.26621147e-04 1.70648459e-03 8.53242294e-04 0. 8.53242294e-04
      1.27986341e-03 8.53242294e-04 0. 0. 8.53242294e-04 1.27986341e-03
      0. 4.26621147e-04 0. 2.55972682e-03 8.53242294e-04 8.53242294e-04
      0. 4.26621147e-04 8.53242294e-04 0. 0. 1.70648459e-03
      4.26621147e-04 0. 0. 0. 8.53242294e-04 0. 4.26621147e-04
      4.26621147e-04 3.41296918e-03 0. 8.53242294e-04 4.26621147e-04 0.
      0. 4.26621147e-04 0. 8.53242294e-04 4.26621147e-04 4.26621147e-04
      2.13310565e-03 0. 0. 2.98634800e-03 0. 0. 8.53242294e-04 0. 0. 0.
      0. 0. 0. 8.53242294e-04 8.53242294e-04 0. 4.26621147e-04 0.
      1.27986341e-03 4.69283247e-03 1.27986341e-03 4.26621147e-04 0.
      4.26621147e-04 1.27986341e-03 8.53242294e-04 4.69283247e-03
      4.26621147e-04 3.83959035e-03 2.98634800e-03 0. 0. 0. 0.
      2.55972682e-03 1.70648459e-03 2.13310565e-03 8.53242294e-04 0.
      4.26621147e-04 4.26621147e-04 2.13310565e-03 8.53242294e-04 0.
      4.26621147e-04 8.53242294e-04 4.26621147e-04 4.26621147e-04
      1.27986341e-03 0. 1.70648459e-03 3.83959035e-03 8.53242294e-04
      1.27986341e-03 1.27986341e-03 8.53242294e-04 4.26621147e-04 0.
      4.26621147e-04 8.53242294e-04 8.53242294e-04 8.53242294e-04
      1.27986341e-03 8.53242294e-04 0. 2.55972682e-03 4.26621147e-04 0.
      1.70648459e-03 4.26621147e-04 1.70648459e-03 2.13310565e-03
      4.26621147e-04 2.55972682e-03 0. 0. 8.53242294e-04 4.26621147e-04
      8.53242294e-04 4.26621147e-04 0. 1.70648459e-03 0. 8.53242294e-04
      4.26621147e-04 0. 0. 1.27986341e-03 0. 4.26621147e-04
      4.26621147e-04 8.53242294e-04 0. 0. 1.70648459e-03 0. 0.
      5.54607483e-03 4.26621147e-04 4.26621147e-04 4.26621147e-04
      4.69283247e-03 0. 4.26621147e-04 0. 4.26621147e-04 4.26621147e-04
      1.70648459e-03 4.26621147e-04 0. 0. 0. 0. 4.26621147e-04 0. 0.
      8.53242294e-04 1.27986341e-03 0. 0. 4.26621147e-04 1.27986341e-03
      4.26621147e-04 1.27986341e-03 1.27986341e-03 2.13310565e-03 0.
      8.53242294e-04 2.13310565e-03 0. 0. 0. 0. 0. 2.55972682e-03 0. 0.
      0. 2.13310565e-03 8.53242294e-04 3.83959035e-03 2.98634800e-03 0.
      0. 4.26621147e-04 4.26621147e-04 1.27986341e-03 0. 4.26621147e-04
      0. 4.26621147e-04 0. 4.26621147e-04 4.26621147e-04 0. 0. 0. 0.
      4.26621147e-04 2.13310565e-03 0. 0. 8.53242294e-04 1.27986341e-03
      0. 2.98634800e-03 4.26621147e-04 4.26621147e-04 0. 0. 0.
      4.26621147e-04 0. 0. 4.26621147e-04 0. 1.27986341e-03
      4.26621147e-04 0. 0. 4.26621147e-04 4.26621147e-04 0.
      2.55972682e-03 0. 8.53242294e-04 1.70648459e-03 0. 4.26621147e-04
      8.53242294e-04 0. 0. 1.27986341e-03 1.70648459e-03 4.26621147e-04
      0. 3.83959035e-03 4.26621147e-04 0. 0. 0. 2.13310565e-03
      4.26621147e-04 4.26621147e-04 2.13310565e-03 1.70648459e-03
      8.53242294e-04 1.27986341e-03 4.26621147e-04 8.53242294e-04
      4.26621147e-04 0. 4.26621147e-04 0. 8.53242294e-04 8.53242294e-04
      3.41296918e-03 0. 1.27986341e-03 1.27986341e-03 0. 1.27986341e-03
      4.26621147e-04 8.53242294e-04 1.27986341e-03 4.26621130e-03
      4.26621147e-04 0. 0. 8.53242294e-04 4.26621147e-04 8.53242294e-04
      0. 8.53242294e-04 0. 2.13310565e-03 8.53242294e-04</_>
    <_>
      4.60299198e-03 0. 7.67165329e-04 7.67165329e-04 7.67165329e-04 0.
      0. 2.30149599e-03 4.21940908e-03 1.53433066e-03 3.83582665e-04
      1.15074799e-03 4.98657487e-03 0. 2.30149599e-03 0. 7.67165329e-04
      0. 1.15074799e-03 1.11238975e-02 0. 2.30149599e-03 5.75373974e-03
      3.83582665e-04 1.53433066e-03 0. 1.91791332e-03 0. 1.53433066e-03
      0. 1.53433066e-03 0. 3.83582665e-04 7.67165329e-03 0. 0.
      6.90448796e-03 0. 0. 3.83582665e-04 7.67165329e-04 3.83582665e-04
      7.67165329e-04 7.67165329e-04 0. 3.06866132e-03 1.53433066e-03 0.
      0. 2.68507865e-03 0. 1.91791332e-03 1.53433066e-03 0.
      7.67165329e-04 3.83582665e-04 0. 2.30149599e-03 3.83582665e-03
      1.15074799e-03 1.18910624e-02 0. 1.53433066e-03 0. 0. 0.
      1.53433066e-03 0. 5.75373974e-03 0. 0. 2.68507865e-03
      1.15074799e-03 2.30149599e-03 3.83582665e-04 3.83582665e-04 0. 0.
      0. 0. 3.83582665e-04 0. 0. 0. 7.67165329e-04 3.83582665e-04
      1.53433066e-03 1.15074799e-03 3.83582665e-04 7.67165329e-04
      3.83582665e-04 0. 3.83582665e-04 0. 3.83582665e-04 7.67165329e-04
      1.15074799e-03 9.58956685e-03 3.83582665e-04 3.83582665e-04 0.
      4.98657487e-03 7.67165329e-04 0. 2.68507865e-03 7.67165329e-04
      3.83582665e-04 1.15074799e-03 0. 1.91791332e-03 0. 7.67165329e-04
      3.83582665e-04 7.67165329e-04 7.67165329e-04 0. 0. 6.90448796e-03
      1.91791332e-03 0. 1.53433066e-03 0. 1.91791332e-03 3.83582665e-04
      0. 1.53433066e-03 3.83582665e-04 0. 3.83582665e-04 0. 0.
      1.53433066e-03 0. 1.91791332e-03 3.83582665e-04 0. 0.
      3.83582665e-04 0. 3.06866132e-03 0. 0. 3.83582665e-04 0.
      3.06866132e-03 1.15074799e-03 0. 0. 0. 0. 1.91791332e-03 0.
      3.83582665e-04 1.53433066e-03 1.15074799e-03 0. 0. 3.83582665e-04
      1.53433066e-03 1.15074799e-03 0. 0. 6.13732263e-03 3.83582665e-04
      0. 3.83582665e-04 3.83582665e-04 3.83582665e-04 1.91791332e-03
      3.83582665e-04 1.15074799e-03 0. 2.68507865e-03 7.67165329e-04
      3.83582665e-04 7.67165329e-04 3.83582665e-04 0. 0. 3.83582665e-04
      3.06866132e-03 7.67165329e-04 1.91791332e-03 2.30149599e-03 0. 0.
      8.43881816e-03 0. 4.21940908e-03 6.52090553e-03 4.98657487e-03
      7.67165329e-04 0. 3.83582665e-04 7.67165329e-04 1.15074799e-03 0.
      0. 7.67165329e-04 8.82240105e-03 2.30149599e-03 1.91791332e-03 0.
      7.67165329e-04 1.15074799e-03 2.68507865e-03 0. 7.67165329e-04 0.
      0. 0. 4.60299198e-03 3.83582665e-04 0. 7.67165329e-04
      1.91791332e-03 2.68507865e-03 3.83582665e-04 3.83582665e-04
      3.83582665e-04 2.68507865e-03 3.83582665e-04 7.67165329e-04 0. 0.
      2.68507865e-03 3.83582665e-04 1.15074799e-03 1.15074799e-03
      1.53433066e-03 1.91791332e-03 3.83582665e-04 0. 0. 1.91791332e-03
      7.67165329e-04 0. 0. 0. 3.06866132e-03 0. 1.15074799e-03
      1.15074799e-03 0. 3.83582665e-04 1.91791332e-03 7.67165329e-04 0.
      1.15074799e-03 7.67165329e-04 1.91791332e-03 7.28807040e-03
      3.83582665e-04 1.53433066e-03 0. 0. 2.68507865e-03 3.83582665e-04
      0. 1.53433066e-03 0. 0. 1.15074799e-03 1.91791332e-03
      1.53433066e-03 0. 1.15074799e-03 1.53433066e-03 0. 1.53433066e-03
      7.67165329e-04 0. 0. 3.06866132e-03 1.15074799e-03 7.67165329e-04
      7.67165329e-04 0. 0. 3.45224398e-03 3.83582665e-04 0.
      6.90448796e-03 0. 1.91791332e-03 3.83582665e-04 1.15074799e-03 0.
      1.53433066e-03 3.83582665e-04 0. 0. 0. 0. 3.83582665e-04 0. 0.
      1.15074799e-03 0. 0. 7.67165329e-04 7.67165329e-04 7.67165329e-04
      0. 4.98657487e-03 0. 1.53433066e-03 3.83582665e-04 7.67165329e-04
      3.83582665e-04 0. 1.91791332e-03 0. 2.68507865e-03 7.67165329e-04
      0. 1.15074799e-03 3.83582665e-04 0. 3.83582665e-03 4.60299198e-03
      3.83582665e-04 3.83582665e-04 1.91791332e-03 1.15074799e-03
      1.53433066e-03 0. 1.15074799e-03 6.52090553e-03 0. 2.68507865e-03
      3.06866132e-03 0. 3.83582665e-03 3.83582665e-04 0. 7.67165329e-04
      0. 1.91791332e-03 5.37015731e-03 1.15074799e-03 3.83582665e-04
      3.83582665e-04 3.83582665e-03 3.83582665e-04 0. 0. 1.15074799e-03
      7.67165329e-04 0. 2.30149599e-03 4.21940908e-03 0. 0.
      1.15074799e-03 0. 1.15074799e-03 3.83582665e-04 0. 1.91791332e-03
      0. 3.06866132e-03 1.53433066e-03 0. 7.67165329e-03 3.83582665e-04
      7.67165329e-04 0. 7.67165329e-04 4.98657487e-03 0. 0.
      1.15074799e-03 0. 0. 0. 7.67165329e-04 0. 0. 1.15074799e-03
      4.21940908e-03 0. 1.15074799e-03 0. 0. 9.97314975e-03
      1.91791332e-03 0. 3.83582665e-04 1.53433066e-03 7.67165329e-04
      3.83582665e-04 8.82240105e-03 2.68507865e-03 0. 3.83582665e-04
      7.67165329e-04 0. 0. 0. 6.13732263e-03 3.83582665e-04 0. 0.
      3.83582665e-04 0. 3.83582665e-04 1.91791332e-03 3.06866132e-03 0.
      2.30149599e-03 7.67165329e-04 1.91791332e-03 0. 0. 0.
      1.53433066e-03 0. 7.67165329e-04 7.67165329e-04 3.83582665e-04
      2.30149599e-03 1.53433066e-03 0. 0. 1.15074799e-03 3.83582665e-04
      3.83582665e-04 1.15074799e-03 0. 0. 1.15074799e-03 1.15074799e-03
      2.68507865e-03 3.83582665e-04 0. 3.83582665e-04 3.83582665e-04 0.
      2.30149599e-03 7.67165329e-04 3.83582665e-04 1.15074799e-03
      7.67165329e-04 2.30149599e-03 0. 0. 0. 0. 3.83582665e-04
      3.83582665e-04 3.06866132e-03 0. 0. 7.67165329e-04 3.83582665e-04
      0. 5.37015731e-03 7.67165329e-04 0. 0. 0. 2.30149599e-03
      1.15074799e-03 0. 7.67165329e-04 0. 4.21940908e-03 2.68507865e-03
      1.53433066e-03 0. 3.83582665e-04 0. 7.67165329e-04 3.83582665e-04
      0. 0. 0. 0. 4.60299198e-03 3.83582665e-04 7.67165329e-04 0.
      7.67165329e-04 0. 0. 0. 1.15074799e-03 4.21940908e-03 0.
      1.91791332e-03 0. 0. 0. 1.53433066e-03 3.83582665e-04 0.
      7.67165329e-04 0. 0. 3.83582665e-04 0. 0. 1.53433066e-03 0.
      3.83582665e-04 0. 1.15074799e-03 0. 7.67165329e-04 2.68507865e-03
      0. 7.67165329e-04 0. 0. 0. 0. 3.83582665e-04 0. 3.83582665e-04
      2.30149599e-03 0. 3.83582665e-04 0. 0. 0. 0. 2.30149599e-03 0.
      3.45224398e-03 0. 0. 3.83582665e-04 7.67165329e-04 1.53433066e-03
      3.83582665e-04 3.83582665e-04 0. 3.45224398e-03 0. 0. 0.
      3.06866132e-03 7.67165329e-04 0. 3.83582665e-04 2.30149599e-03
      3.83582665e-04 1.53433066e-03 0. 0. 3.83582665e-04 3.83582665e-04
      7.67165329e-04 0. 0. 3.83582665e-04 0. 0. 0. 3.83582665e-04 0.
      1.15074799e-03 2.68507865e-03 3.83582665e-04 0. 2.30149599e-03
      2.30149599e-03 6.90448796e-03 2.30149599e-03 0. 2.30149599e-03
      7.67165329e-04 8.82240105e-03 1.15074799e-03 4.60299198e-03
      1.91791332e-03 1.53433066e-03 1.53433066e-03 3.06866132e-03
      7.67165329e-04 3.83582665e-04 3.83582665e-04 2.30149599e-03
      2.30149599e-03 0. 3.83582665e-04 0. 3.83582665e-03 0. 0. 0. 0.
      7.67165329e-04 1.15074799e-03 0. 3.83582665e-04 0. 2.30149599e-03
      0. 0. 7.67165329e-04 0. 3.83582665e-04 5.37015731e-03 0. 0.
      3.83582665e-04 0. 1.91791332e-03 0. 0. 1.53433066e-03
      1.91791332e-03 7.67165329e-04 3.83582665e-04 1.15074799e-03
      1.91791332e-03 1.53433066e-03 3.83582665e-04 0. 7.67165329e-04 0.
      7.67165329e-04 0. 7.67165329e-04 3.83582665e-04 1.15074799e-03 0.
      0. 0. 3.83582665e-04 2.68507865e-03 7.67165329e-04 1.15074799e-03
      1.15074799e-03 0. 0. 3.83582665e-04 7.67165329e-04 1.53433066e-03
      3.83582665e-04 0. 7.67165329e-04 1.91791332e-03 0. 1.91791332e-03
      2.30149599e-03 0. 0. 3.83582665e-04 0. 7.67165329e-04 0. 0.
      2.68507865e-03 0. 0. 7.67165329e-04 7.67165329e-04 1.53433066e-03
      7.67165329e-04 3.83582665e-04 7.67165329e-04 0. 3.83582665e-04 0.
      4.98657487e-03 3.83582665e-04 0. 0. 7.67165329e-04 0. 0.
      1.53433066e-03 3.83582665e-04 1.91791332e-03 0. 4.21940908e-03
      1.91791332e-03 0. 7.67165329e-04 7.67165329e-04 2.68507865e-03
      1.15074799e-03 3.83582665e-04 0. 7.67165329e-04 0. 2.30149599e-03
      7.67165329e-04 3.83582665e-04 0. 2.30149599e-03 1.15074799e-03
      2.68507865e-03 3.83582665e-04 1.15074799e-03 7.67165329e-04
      1.53433066e-03 0. 0. 1.15074799e-03 2.30149599e-03 1.15074799e-03
      7.67165329e-04 0. 0. 3.83582665e-04 0. 7.67165329e-04 0.
      2.68507865e-03 0. 3.83582665e-03 0. 9.58956685e-03 0.
      7.67165329e-04 2.68507865e-03 0. 0. 1.53433066e-03 7.67165329e-04
      0. 1.15074799e-03 3.83582665e-04 0. 0. 0. 7.67165329e-04
      2.30149599e-03 0. 1.53433066e-03 7.67165329e-04 7.67165329e-04
      1.91791332e-03 7.67165329e-04 0. 0. 2.30149599e-03 0. 0. 0.
      3.45224398e-03 0. 0. 3.83582665e-04 2.30149599e-03 0.
      1.15074799e-03 0. 1.91791332e-03 3.83582665e-04 0. 0. 0.
      3.83582665e-04 1.15074799e-03 0. 0. 3.83582665e-04 0.
      1.15074799e-03 7.67165329e-04 0. 2.68507865e-03 7.67165329e-04 0.
      3.83582665e-04 1.15074799e-03 0. 7.67165329e-04 0. 3.83582665e-04
      0. 1.91791332e-03 7.67165329e-04 0. 0. 0. 3.83582665e-03
      3.06866132e-03 3.83582665e-04 0. 0. 0. 1.15074799e-03 0.
      6.90448796e-03 1.15074799e-03 3.83582665e-04 7.67165329e-04 0.
      7.67165329e-04 0. 0. 2.68507865e-03 1.53433066e-03 4.60299198e-03
      0. 0. 0. 0. 1.15074799e-03 0. 0. 1.15074799e-03 0. 1.53433066e-03
      1.15074799e-03 1.15074799e-03 0. 7.67165329e-04 3.45224398e-03
      7.67165329e-04 1.53433066e-03 7.67165329e-04 3.83582665e-04
      7.67165329e-04 0. 0. 1.15074799e-03 0. 1.15074799e-03
      3.83582665e-04 3.83582665e-04 0. 3.83582665e-03 1.53433066e-03
      7.67165329e-04 3.06866132e-03 0. 3.83582665e-04 7.67165329e-04
      1.91791332e-03 7.67165329e-04 0. 3.83582665e-04 0. 3.06866132e-03
      3.83582665e-04 1.15074799e-03 1.15074799e-03 6.13732263e-03 0. 0.
      0. 0. 0. 7.67165329e-04 3.83582665e-04 0. 0. 0. 0. 0.
      7.67165329e-04 0. 0. 2.30149599e-03 0. 3.83582665e-04
      2.68507865e-03 2.30149599e-03 0. 2.68507865e-03 0. 1.15074799e-03
      0. 1.15074799e-03 0. 3.83582665e-04 7.67165329e-04 0. 0.
      3.83582665e-04 3.83582665e-04 0. 3.83582665e-04 3.83582665e-04 0.
      0. 0. 1.53433066e-03 0. 7.67165329e-04 7.67165329e-04
      1.15074799e-03 0. 7.67165329e-04 7.67165329e-04 0. 0. 0.
      3.83582665e-04 3.83582665e-04 1.15074799e-03 0. 3.83582665e-04 0.
      4.98657487e-03 3.83582665e-04 5.37015731e-03 1.91791332e-03 0.
      3.83582665e-04 1.15074799e-03 0. 3.83582665e-04 0. 0. 0.
      2.68507865e-03 0. 0. 0. 0. 0. 1.91791332e-03 0. 0. 2.68507865e-03
      0. 0. 7.67165329e-04 2.30149599e-03 1.07403146e-02 4.60299198e-03
      0. 7.67165329e-04 0. 0. 3.83582665e-04 3.83582665e-04
      7.67165329e-04 0. 3.83582665e-04 7.67165329e-04 1.15074799e-03 0.
      0. 1.53433066e-03 0. 0. 0. 3.83582665e-03 0. 0. 1.53433066e-03 0.
      0. 3.83582665e-04 3.83582665e-04 0. 4.60299198e-03 7.67165329e-04
      7.67165329e-04 0. 4.60299198e-03 3.83582665e-04 3.83582665e-04
      7.67165329e-04 1.53433066e-03 2.30149599e-03 3.83582665e-04
      2.30149599e-03 2.30149599e-03 1.53433066e-03 3.83582665e-04 0.
      3.83582665e-04 3.83582665e-04 0. 0. 3.83582665e-04 3.83582665e-04
      0. 1.53433066e-03 3.45224398e-03 0. 7.67165329e-04 1.15074799e-03
      3.83582665e-03 0. 0. 7.67165329e-04 0. 3.45224398e-03 0. 0. 0.
      3.83582665e-03 3.83582665e-04 1.15074799e-03 1.53433066e-03
      7.67165329e-04 0. 6.13732263e-03 1.15074799e-03</_>
    <_>
      3.89863551e-03 0. 1.55945425e-03 8.96686222e-03 2.33918149e-03 0.
      0. 0. 1.55945425e-03 3.89863562e-04 7.79727125e-04 7.79727125e-04
      0. 1.16959075e-03 1.16959075e-03 3.89863551e-03 3.89863562e-04 0.
      3.89863562e-04 1.94931775e-03 7.79727125e-04 3.11890850e-03
      2.33918149e-03 0. 2.33918149e-03 0. 1.16959075e-03 0.
      3.89863562e-04 1.16959075e-03 0. 3.89863551e-03 0. 1.20857703e-02
      3.50877200e-03 0. 2.33918149e-03 0. 0. 1.55945425e-03
      3.89863562e-04 0. 3.89863562e-04 3.89863562e-04 7.79727125e-04
      2.33918149e-03 7.79727125e-04 7.79727125e-04 3.89863562e-04
      4.28849924e-03 0. 1.24756340e-02 1.16959075e-03 0. 0. 0. 0.
      1.16959075e-03 5.06822625e-03 0. 1.01364525e-02 1.16959075e-03
      1.16959075e-03 0. 3.89863562e-04 1.55945425e-03 3.89863562e-04 0.
      2.33918149e-03 0. 3.89863562e-04 1.16959075e-03 9.74658877e-03
      1.94931775e-03 7.79727125e-04 7.01754401e-03 0. 3.89863562e-04
      3.89863562e-04 0. 0. 0. 3.89863562e-04 3.89863562e-04 0.
      1.16959075e-03 5.84795326e-03 0. 0. 1.55945425e-03 0.
      5.45808999e-03 4.67836298e-03 7.79727125e-04 0. 1.55945425e-03
      1.16959075e-03 3.11890850e-03 0. 3.89863562e-04 0. 0. 0. 0.
      3.50877200e-03 3.89863562e-04 1.55945425e-03 3.89863562e-04
      3.89863562e-04 3.89863562e-04 0. 7.79727125e-04 0. 3.89863562e-04
      1.55945425e-03 0. 7.79727125e-04 7.79727125e-04 1.55945425e-03 0.
      3.89863562e-04 3.89863562e-04 7.79727125e-04 7.79727125e-04 0.
      1.55945425e-03 3.89863562e-04 0. 0. 7.79727125e-04 0.
      3.50877200e-03 0. 1.94931775e-03 3.89863562e-04 0. 0.
      7.79727125e-04 3.89863562e-04 7.79727125e-04 0. 0. 3.89863562e-04
      0. 0. 1.16959075e-03 3.11890850e-03 2.33918149e-03 3.89863562e-04
      1.94931775e-03 1.94931775e-03 7.79727125e-04 3.89863562e-04
      7.79727125e-04 7.79727125e-04 0. 0. 0. 7.79727125e-04
      2.33918149e-03 7.79727125e-04 0. 5.45808999e-03 3.89863562e-04
      1.16959075e-03 0. 1.55945425e-03 3.89863562e-04 4.67836298e-03
      4.28849924e-03 1.55945425e-03 0. 3.89863562e-04 1.55945425e-03
      7.79727125e-04 0. 3.89863562e-04 7.79727125e-04 3.89863562e-04
      1.16959075e-03 3.11890850e-03 0. 3.89863562e-04 3.89863562e-04 0.
      3.89863562e-04 2.72904499e-03 0. 4.28849924e-03 3.50877200e-03
      5.45808999e-03 1.16959075e-03 0. 1.16959075e-03 7.79727125e-04
      7.79727125e-04 0. 3.89863562e-04 1.16959075e-03 3.89863562e-04
      3.50877200e-03 0. 0. 3.89863562e-04 1.55945425e-03 1.94931775e-03
      0. 8.57699849e-03 7.79727125e-04 0. 3.89863562e-04 6.62768073e-03
      1.16959075e-03 0. 2.72904499e-03 1.94931775e-03 1.55945425e-03 0.
      3.89863562e-04 0. 2.33918149e-03 0. 1.94931775e-03 1.16959075e-03
      7.79727125e-04 0. 0. 7.79727125e-04 1.55945425e-03 3.89863562e-04
      1.16959075e-03 3.89863562e-04 0. 3.50877200e-03 3.89863562e-04
      7.79727125e-04 2.72904499e-03 0. 0. 2.72904499e-03 0.
      1.16959075e-03 7.79727125e-04 3.89863562e-04 3.89863562e-04
      1.24756340e-02 1.16959075e-03 3.89863562e-04 3.89863562e-04
      1.16959075e-03 3.89863562e-04 5.06822625e-03 3.89863562e-04
      1.55945425e-03 0. 0. 0. 0. 0. 3.89863562e-04 3.89863562e-04
      1.16959075e-03 7.79727125e-04 1.94931775e-03 1.16959075e-03 0.
      1.16959075e-03 3.89863562e-04 0. 2.72904499e-03 7.79727125e-04 0.
      7.79727125e-04 1.55945425e-03 1.16959075e-03 0. 1.55945425e-03
      3.89863562e-04 3.89863562e-04 5.06822625e-03 1.94931775e-03
      1.16959075e-03 1.94931775e-03 2.33918149e-03 1.55945425e-03
      3.89863562e-04 0. 0. 0. 7.79727125e-04 3.89863562e-04
      3.89863562e-04 7.79727125e-04 0. 0. 0. 0. 2.33918149e-03 0. 0.
      3.89863562e-04 7.79727125e-04 7.79727125e-04 0. 5.06822625e-03 0.
      7.79727125e-04 0. 0. 7.79727125e-04 0. 3.89863562e-04 0.
      8.96686222e-03 1.94931775e-03 0. 1.55945425e-03 3.89863562e-04
      3.89863562e-04 3.89863562e-04 2.33918149e-03 3.89863562e-04
      3.89863562e-04 3.89863562e-04 0. 7.40740774e-03 0. 3.89863562e-04
      2.72904499e-03 3.89863562e-04 2.33918149e-03 3.89863562e-04 0.
      1.16959075e-03 0. 7.79727125e-04 7.79727125e-04 0. 2.72904499e-03
      2.72904499e-03 0. 3.89863562e-04 3.89863562e-04 3.89863562e-04
      3.89863562e-04 0. 0. 1.55945425e-03 0. 0. 0. 7.79727125e-04 0. 0.
      2.33918149e-03 0. 7.40740774e-03 3.89863562e-04 0. 0. 0.
      7.79727125e-04 1.55945425e-03 7.79727125e-04 5.84795326e-03 0. 0.
      3.89863562e-04 4.67836298e-03 1.55945425e-03 3.89863562e-04 0. 0.
      0. 0. 1.94931775e-03 0. 0. 0. 3.89863562e-04 1.94931775e-03 0. 0.
      0. 0. 1.16959075e-03 1.16959075e-03 0. 1.16959075e-03
      7.79727125e-04 1.55945425e-03 0. 0. 0. 3.89863562e-04 0.
      7.79727125e-04 0. 0. 0. 3.89863562e-04 3.89863562e-04 0. 0.
      1.16959075e-03 3.89863562e-04 3.89863562e-04 7.79727125e-04
      7.79727125e-04 3.89863562e-04 8.18713475e-03 0. 8.96686222e-03 0.
      1.55945425e-03 3.89863562e-04 1.16959075e-03 7.79727125e-04
      7.79727125e-04 7.79727125e-04 0. 7.79727125e-04 1.94931775e-03 0.
      0. 0. 3.89863562e-04 1.94931775e-03 7.79727125e-04 4.67836298e-03
      0. 1.55945425e-03 0. 3.11890850e-03 0. 3.89863562e-04 0. 0. 0.
      1.55945425e-03 7.79727125e-04 7.79727125e-04 3.89863562e-04
      3.89863562e-04 3.89863562e-04 3.89863562e-04 7.79727125e-04 0. 0.
      3.89863562e-04 3.89863562e-04 2.72904499e-03 3.89863562e-04 0. 0.
      0. 0. 2.72904499e-03 3.89863562e-04 0. 0. 0. 1.55945425e-03
      3.89863562e-04 7.79727125e-04 0. 1.16959075e-03 7.79727125e-04
      2.33918149e-03 1.16959075e-03 0. 7.79727125e-04 0. 3.89863562e-04
      0. 7.79727125e-04 0. 3.89863562e-04 0. 1.16959075e-03
      3.89863562e-04 1.55945425e-03 0. 0. 0. 3.89863562e-04 0.
      1.16959075e-03 1.55945425e-03 0. 1.55945425e-03 0. 0. 0. 0.
      3.50877200e-03 0. 6.23781700e-03 0. 0. 0. 1.55945425e-03 0.
      3.89863562e-04 0. 3.89863562e-04 3.89863562e-04 3.50877200e-03 0.
      2.72904499e-03 1.16959075e-03 1.55945425e-03 0. 0. 0.
      3.89863562e-04 0. 0. 0. 1.16959075e-03 1.16959075e-03
      7.79727125e-04 0. 0. 3.89863562e-04 1.55945425e-03 7.79727125e-04
      7.79727125e-04 3.89863562e-04 7.79727125e-04 0. 0. 0.
      7.79727125e-04 3.89863562e-04 0. 7.79727125e-04 3.89863562e-04
      7.79727125e-04 0. 0. 0. 2.72904499e-03 0. 3.89863562e-04
      3.89863562e-04 3.50877200e-03 0. 7.79727125e-04 1.55945425e-03 0.
      0. 3.89863562e-04 3.89863562e-04 0. 0. 0. 0. 0. 0. 7.79727125e-04
      3.89863562e-04 0. 6.23781700e-03 0. 0. 5.45808999e-03 0.
      1.94931775e-03 7.79727125e-04 3.89863562e-04 0. 0. 2.72904499e-03
      1.16959075e-03 3.50877200e-03 3.89863562e-04 1.55945425e-03
      7.79727125e-04 9.35672596e-03 7.79727125e-04 1.16959075e-03 0.
      1.55945425e-03 5.06822625e-03 0. 0. 0. 5.45808999e-03
      3.89863562e-04 0. 7.79727125e-04 1.94931775e-03 0. 3.89863562e-04
      0. 0. 0. 2.72904499e-03 3.89863562e-04 0. 1.55945425e-03 0.
      1.55945425e-03 5.45808999e-03 0. 0. 3.89863562e-04 0.
      1.94931775e-03 0. 3.89863562e-04 3.11890850e-03 3.89863562e-04
      3.89863562e-04 0. 1.55945425e-03 1.16959075e-03 1.55945425e-03
      1.16959075e-03 0. 2.10526325e-02 0. 0. 3.89863562e-04
      7.79727125e-04 0. 3.89863562e-04 3.89863562e-04 7.79727125e-04
      3.89863562e-04 3.89863562e-04 7.79727125e-04 1.55945425e-03 0. 0.
      0. 0. 0. 0. 1.55945425e-03 0. 0. 7.79727125e-04 1.16959075e-03 0.
      1.87134519e-02 3.89863562e-04 0. 0. 1.55945425e-03 3.89863562e-04
      7.79727125e-04 0. 1.55945425e-03 1.55945425e-03 0. 7.79727125e-04
      0. 3.89863562e-04 3.11890850e-03 3.89863562e-04 1.16959075e-03 0.
      0. 0. 0. 3.89863562e-04 3.89863562e-04 0. 2.72904499e-03 0.
      3.11890850e-03 0. 3.89863562e-04 0. 1.16959075e-03 0.
      2.72904499e-03 1.94931775e-03 0. 7.79727125e-04 2.72904499e-03
      4.67836298e-03 0. 0. 0. 0. 0. 3.89863551e-03 3.89863562e-04
      3.89863562e-04 0. 3.89863562e-04 0. 7.79727125e-04 7.79727125e-04
      0. 0. 6.62768073e-03 0. 0. 3.11890850e-03 7.79727125e-04
      1.16959075e-03 0. 0. 0. 0. 0. 0. 3.89863562e-04 1.16959075e-03 0.
      1.94931775e-03 3.89863562e-04 5.06822625e-03 0. 3.89863562e-04 0.
      0. 0. 3.50877200e-03 0. 0. 1.16959075e-03 0. 3.89863562e-04 0.
      1.94931775e-03 7.79727125e-04 1.16959075e-03 3.50877200e-03
      1.16959065e-02 0. 0. 1.55945425e-03 7.79727125e-04 0. 0.
      1.55945425e-03 0. 0. 2.72904499e-03 0. 3.89863562e-04 0. 0.
      5.06822625e-03 0. 1.55945425e-03 0. 3.89863562e-04 0.
      3.89863562e-04 0. 0. 7.79727125e-04 3.89863562e-04 0. 0.
      3.89863562e-04 0. 2.33918149e-03 0. 0. 4.28849924e-03 0. 0.
      3.89863562e-04 0. 0. 0. 0. 7.79727125e-04 0. 0. 7.79727125e-04 0.
      7.01754401e-03 0. 4.67836298e-03 3.89863562e-04 0. 1.16959075e-03
      0. 0. 3.89863562e-04 1.55945425e-03 2.72904499e-03 1.16959075e-03
      1.16959075e-03 1.16959075e-03 0. 3.89863562e-04 3.89863562e-04 0.
      3.89863562e-04 3.89863562e-04 1.94931775e-03 3.89863562e-04 0. 0.
      0. 1.52046792e-02 3.89863562e-04 7.79727125e-04 7.79727125e-04
      9.74658877e-03 1.94931775e-03 7.79727125e-04 3.89863551e-03 0. 0.
      1.94931775e-03 1.16959075e-03 1.16959075e-03 0. 0. 3.89863562e-04
      0. 0. 1.94931775e-03 0. 7.79727125e-04 1.55945425e-03
      3.89863562e-04 3.89863562e-04 3.89863551e-03 0. 0. 0.
      3.89863562e-04 0. 7.79727125e-04 3.89863562e-04 0. 0.
      3.89863562e-04 0. 3.89863562e-04 0. 7.79727125e-04 0.
      2.33918149e-03 7.79727125e-04 3.89863562e-04 0. 0. 0.
      7.79727125e-04 0. 0. 1.55945425e-03 0. 0. 0. 0. 0. 3.89863562e-04
      2.72904499e-03 0. 0. 7.79727125e-04 2.33918149e-03 3.89863562e-04
      0. 0. 7.79727125e-04 0. 0. 0. 0. 3.89863562e-04 7.79727125e-04 0.
      0. 0. 0. 0. 3.89863562e-04 0. 3.89863562e-04 0. 3.89863562e-04
      3.89863562e-04 1.55945425e-03 7.79727125e-04 7.79727125e-04
      3.89863562e-04 1.55945425e-03 2.33918149e-03 0. 0. 0. 0. 0.
      1.16959075e-03 0. 1.55945425e-03 0. 3.89863562e-04 0.
      7.79727125e-04 2.33918149e-03 0. 0. 3.89863562e-04 0.
      3.89863562e-04 7.79727125e-04 0. 0. 3.89863562e-04 3.89863562e-04
      0. 0. 0. 1.16959075e-03 0. 0. 0. 3.89863562e-04 2.72904499e-03 0.
      3.89863562e-04 7.79727125e-04 3.11890850e-03 7.79727125e-04
      3.89863562e-04 3.89863562e-04 0. 0. 0. 3.89863562e-04 0.
      3.89863562e-04 7.79727125e-04 3.89863562e-04 7.79727125e-04
      3.89863562e-04 0. 7.79727125e-04 0. 1.16959075e-03 0.
      3.11890850e-03 0. 3.89863562e-04 2.33918149e-03 0. 0.
      3.89863562e-04 0. 0. 3.89863562e-04 2.33918130e-02 3.89863562e-04
      0. 3.89863551e-03 1.55945425e-03 1.16959075e-03 1.16959075e-03
      7.79727125e-04 7.79727125e-04 3.89863562e-04 3.89863562e-04
      1.55945425e-03 3.89863562e-04 0. 0. 0. 1.55945425e-03
      3.89863562e-04 0. 0. 0. 7.79727125e-04 3.89863562e-04
      2.33918149e-03 0. 1.94931775e-03 3.89863562e-04 1.94931775e-03
      3.89863562e-04 7.79727125e-04 7.79727125e-04 0. 2.33918149e-03 0.
      7.79727125e-04 0. 4.28849924e-03 3.89863562e-04 3.89863562e-04
      1.16959075e-03 1.16959075e-03 0. 1.94931775e-03 1.16959075e-03</_>
    <_>
      1.08991831e-03 1.08991831e-03 1.08991831e-03 2.17983662e-03 0. 0.
      1.63487741e-03 5.44959155e-04 2.72479584e-03 4.90463246e-03 0.
      2.17983662e-03 5.44959155e-04 0. 5.44959155e-04 5.44959155e-04
      1.63487741e-03 0. 5.44959155e-04 1.52588561e-02 0. 5.44959155e-04
      8.71934649e-03 1.08991831e-03 1.08991831e-03 0. 0. 0.
      1.08991831e-03 1.08991831e-03 0. 5.44959155e-04 0. 4.90463246e-03
      1.08991831e-03 0. 2.72479584e-03 1.08991831e-03 1.08991831e-03 0.
      0. 0. 0. 0. 0. 5.44959155e-04 5.44959155e-04 5.44959155e-04
      2.17983662e-03 0. 5.44959155e-04 4.90463246e-03 0. 1.08991831e-03
      2.17983662e-03 0. 0. 3.81471403e-03 5.44959155e-04 1.08991831e-03
      2.99727544e-02 5.44959155e-04 0. 5.44959155e-04 0. 0.
      5.44959155e-04 0. 3.26975482e-03 1.63487741e-03 0. 1.08991831e-03
      1.08991831e-03 5.44959155e-04 0. 2.17983662e-03 0. 1.63487741e-03
      0. 0. 2.72479584e-03 0. 0. 0. 0. 5.44959155e-04 1.08991831e-03
      1.63487741e-03 1.63487741e-03 1.63487741e-03 0. 1.08991831e-03 0.
      0. 0. 3.26975482e-03 0. 3.81471403e-03 0. 0. 5.44959155e-04
      1.52588561e-02 5.44959155e-04 2.72479584e-03 5.44959155e-04
      3.81471403e-03 5.44959155e-04 0. 0. 1.63487741e-03 0. 0.
      5.44959155e-04 1.63487741e-03 1.08991831e-03 5.44959155e-04 0.
      4.90463246e-03 5.44959155e-04 0. 1.08991831e-03 1.08991831e-03 0.
      0. 0. 3.26975482e-03 5.44959155e-04 0. 1.08991831e-03 0. 0.
      2.17983662e-03 0. 1.08991831e-03 1.08991831e-03 0. 0.
      2.17983662e-03 5.44959155e-04 2.72479584e-03 1.08991831e-03 0.
      1.08991831e-03 0. 2.72479584e-03 5.44959155e-04 5.44959155e-04 0.
      5.44959155e-04 2.17983662e-03 0. 5.44959155e-04 2.17983662e-03 0.
      2.72479584e-03 1.08991831e-03 0. 1.08991831e-03 5.44959155e-04 0.
      1.63487741e-03 0. 2.17983662e-03 2.72479584e-03 0. 5.44959155e-04
      1.08991831e-03 0. 1.08991831e-03 5.44959155e-04 1.63487741e-03
      5.44959155e-04 0. 3.81471403e-03 0. 1.08991831e-03 5.44959155e-04
      0. 0. 0. 9.26430523e-03 0. 1.63487741e-03 1.63487741e-03 0. 0.
      2.72479584e-03 0. 5.44959155e-04 5.44959155e-04 2.72479584e-03 0.
      0. 1.63487741e-03 1.63487741e-03 0. 1.08991831e-03 1.63487741e-03
      5.44959155e-04 4.35967324e-03 5.44959155e-04 1.63487741e-03 0.
      3.81471403e-03 0. 1.08991831e-03 5.44959155e-04 1.63487741e-03
      1.08991831e-03 2.17983662e-03 5.44959155e-04 2.39782035e-02
      1.63487741e-03 1.08991831e-03 5.44959155e-04 1.08991831e-03
      5.44959155e-04 0. 0. 2.72479584e-03 3.26975482e-03 5.44959155e-04
      0. 0. 0. 1.08991831e-03 5.44959155e-04 0. 3.26975482e-03 0.
      2.17983662e-03 0. 0. 1.08991831e-03 2.17983662e-03 0. 0.
      5.44959155e-04 0. 1.08991831e-03 0. 4.35967324e-03 0.
      5.44959155e-04 3.26975482e-03 2.72479584e-03 1.63487741e-03 0. 0.
      0. 0. 1.08991831e-03 0. 2.17983662e-03 0. 0. 2.17983662e-03
      5.44959155e-04 1.63487741e-03 0. 5.44959155e-04 1.08991831e-03
      1.63487741e-03 3.26975482e-03 1.63487741e-03 0. 0. 1.08991831e-03
      2.17983662e-03 5.44959155e-04 0. 1.63487741e-03 0. 0. 0.
      1.08991831e-03 1.63487741e-03 1.63487741e-03 0. 7.08446885e-03 0.
      0. 1.63487741e-03 5.44959155e-04 0. 5.44959155e-04 2.72479584e-03
      2.17983662e-03 0. 5.44959155e-04 1.08991831e-03 1.08991831e-03
      5.44959155e-04 0. 0. 0. 0. 0. 5.44959155e-04 0. 1.08991831e-03
      5.44959155e-04 0. 1.63487741e-03 3.81471403e-03 0. 5.44959155e-04
      0. 0. 0. 0. 0. 0. 5.99455088e-03 1.08991831e-03 0. 1.08991831e-03
      1.63487741e-03 0. 3.26975482e-03 0. 0. 0. 1.08991831e-03
      5.44959155e-04 1.08991831e-03 0. 1.08991831e-03 5.99455088e-03 0.
      2.17983662e-03 0. 1.08991831e-03 1.08991831e-03 5.44959155e-04
      1.63487741e-03 0. 0. 5.99455088e-03 1.08991831e-03 0. 0.
      5.44959155e-04 1.08991831e-03 0. 0. 1.08991831e-03 0.
      5.44959155e-04 0. 2.17983662e-03 0. 0. 5.44959155e-04
      3.26975482e-03 0. 3.26975482e-03 5.44959155e-04 5.44959155e-04 0.
      0. 5.44959155e-04 3.81471403e-03 0. 1.68937333e-02 0. 0. 0.
      1.63487741e-03 5.44959155e-04 0. 0. 5.99455088e-03 5.44959155e-04
      0. 0. 0. 5.44959155e-04 0. 5.44959155e-04 4.90463246e-03 0.
      2.17983662e-03 1.08991831e-03 0. 1.58038158e-02 5.44959155e-04 0.
      1.63487741e-03 1.08991831e-03 0. 1.08991831e-03 1.41689377e-02
      1.08991831e-03 1.63487741e-03 0. 1.63487741e-03 0. 0. 0.
      5.44959155e-04 0. 0. 0. 0. 0. 0. 5.44959155e-04 1.41689377e-02
      1.63487741e-03 3.81471403e-03 0. 3.81471403e-03 2.72479584e-03
      5.44959155e-04 5.44959155e-04 1.08991831e-03 0. 2.17983662e-03
      1.08991831e-03 0. 5.44959155e-04 5.44959155e-04 5.44959155e-04
      1.08991831e-03 5.44959155e-04 0. 0. 0. 2.72479584e-03
      5.44959155e-04 5.44959155e-04 0. 5.44959155e-04 0. 5.44959155e-04
      0. 0. 0. 5.44959155e-04 0. 0. 5.44959155e-04 1.08991831e-03
      5.44959155e-04 0. 1.08991831e-03 1.08991831e-03 0. 0. 0.
      5.44959155e-04 0. 0. 0. 5.44959155e-04 0. 2.72479584e-03 0.
      5.44959155e-04 0. 5.44959155e-04 4.35967324e-03 0. 5.44959155e-04
      1.08991831e-03 0. 1.63487741e-03 0. 0. 1.63487741e-03 0. 0.
      2.17983662e-03 0. 1.08991831e-03 0. 0. 0. 2.17983662e-03
      1.08991831e-03 5.44959155e-04 0. 2.17983662e-03 0. 0. 0. 0.
      8.71934649e-03 0. 4.90463246e-03 0. 0. 0. 0. 2.17983662e-03
      5.44959155e-04 1.08991831e-03 5.44959155e-04 2.17983662e-03
      5.44959155e-04 5.44959155e-04 5.44959155e-04 5.44959155e-04
      5.44959155e-04 0. 0. 5.44959155e-04 0. 5.44959155e-04
      5.44959155e-04 5.44959155e-04 3.81471403e-03 0. 0. 0. 0. 0. 0. 0.
      0. 5.44959155e-04 0. 5.44959155e-04 0. 5.44959155e-04 0. 0. 0. 0.
      0. 0. 5.44959155e-04 5.44959155e-04 0. 0. 0. 0. 0. 0. 0.
      5.44959155e-04 0. 5.44959155e-04 0. 0. 5.44959155e-04
      5.44959155e-04 5.44959155e-04 5.44959155e-04 0. 0. 2.17983662e-03
      0. 0. 1.08991831e-03 5.44959155e-04 0. 0. 0. 0. 0. 2.17983662e-03
      1.08991831e-03 5.44959155e-04 3.81471403e-03 3.26975482e-03 0.
      2.72479584e-03 2.17983662e-03 0. 5.44959155e-04 0. 2.17983662e-03
      0. 1.63487741e-03 1.08991831e-03 2.17983662e-03 5.44959155e-04
      1.08991831e-03 0. 1.08991831e-03 0. 0. 1.08991831e-03 0. 0.
      5.44959155e-04 8.71934649e-03 1.08991831e-03 0. 5.44959155e-04
      1.08991831e-03 1.63487741e-03 1.08991831e-03 0. 0. 0.
      1.63487741e-03 5.44959155e-04 0. 0. 0. 1.08991831e-03
      2.17983662e-03 0. 0. 0. 0. 5.44959155e-04 0. 0. 2.17983662e-03 0.
      0. 5.44959155e-04 0. 0. 1.08991831e-03 0. 0. 5.44959167e-03
      1.08991831e-03 0. 0. 5.44959155e-04 1.63487741e-03 5.44959155e-04
      1.63487741e-03 0. 0. 0. 1.08991831e-03 2.72479584e-03
      6.53950963e-03 5.44959155e-04 0. 0. 1.08991831e-03 0.
      5.44959155e-04 0. 0. 5.44959155e-04 1.08991831e-03 0.
      8.71934649e-03 1.08991831e-03 0. 0. 1.08991831e-03 0.
      1.63487741e-03 1.08991831e-03 0. 0. 0. 5.44959155e-04 0. 0.
      5.44959155e-04 1.63487741e-03 0. 0. 0. 0. 0. 0. 5.44959155e-04 0.
      5.44959155e-04 0. 5.44959155e-04 0. 0. 0. 0. 5.44959155e-04
      1.41689377e-02 4.90463246e-03 1.08991831e-03 0. 5.44959155e-04
      1.08991831e-03 0. 0. 5.44959155e-04 0. 0. 2.17983662e-03
      1.08991831e-03 5.44959155e-04 0. 0. 0. 0. 0. 6.53950963e-03
      1.63487741e-03 5.44959155e-04 0. 0. 5.44959155e-04 1.08991831e-03
      0. 1.63487741e-03 0. 0. 0. 0. 5.44959155e-04 0. 5.44959155e-04
      5.44959155e-04 1.63487741e-03 0. 1.14441421e-02 0. 0.
      1.63487741e-03 0. 0. 5.44959155e-04 0. 0. 0. 3.26975482e-03 0.
      5.44959155e-04 5.44959155e-04 5.44959155e-04 1.63487741e-03
      5.44959155e-04 2.17983662e-03 0. 5.44959155e-04 3.81471403e-03 0.
      1.08991831e-03 0. 0. 1.08991831e-03 5.44959155e-04 4.35967324e-03
      2.17983662e-03 1.08991831e-03 0. 5.44959155e-04 1.08991831e-03 0.
      0. 0. 0. 5.44959155e-04 5.44959155e-04 5.44959155e-04 0. 0. 0.
      5.44959155e-04 2.17983662e-03 1.63487741e-03 1.63487741e-03 0. 0.
      0. 2.72479584e-03 0. 0. 0. 0. 0. 0. 0. 0. 0. 5.44959155e-04
      5.44959155e-04 0. 5.44959155e-04 0. 3.81471403e-03 3.26975482e-03
      0. 5.44959155e-04 0. 5.44959155e-04 1.63487741e-03 0.
      3.81471403e-03 0. 1.08991831e-03 0. 0. 1.63487741e-03 0.
      5.44959155e-04 5.44959155e-04 0. 5.44959155e-04 0. 0. 0. 0.
      4.35967324e-03 5.44959155e-04 0. 0. 5.44959155e-04 5.44959155e-04
      5.44959155e-04 2.17983662e-03 5.44959155e-04 0. 0. 0.
      5.44959155e-04 0. 0. 0. 0. 1.08991831e-03 0. 0. 0. 5.44959155e-04
      2.17983662e-03 5.44959155e-04 5.44959155e-04 5.44959155e-04
      2.17983662e-03 1.08991831e-03 0. 0. 3.81471403e-03 5.44959155e-04
      0. 0. 1.08991831e-03 0. 2.17983662e-03 0. 2.17983662e-03
      5.44959155e-04 7.08446885e-03 3.26975482e-03 5.44959155e-04 0. 0.
      0. 0. 0. 1.08991831e-03 0. 5.44959155e-04 5.44959155e-04 0.
      1.08991831e-03 0. 0. 2.17983662e-03 0. 0. 3.81471403e-03
      2.72479584e-03 1.63487741e-03 0. 1.63487741e-03 0. 5.44959167e-03
      0. 0. 0. 5.44959155e-04 0. 0. 0. 5.44959155e-04 0. 4.35967324e-03
      0. 0. 5.44959155e-04 0. 5.44959155e-04 0. 2.17983662e-03
      1.08991831e-03 0. 0. 0. 0. 0. 5.44959155e-04 5.44959155e-04
      5.44959155e-04 0. 2.17983662e-03 0. 5.44959155e-04 0.
      2.72479584e-03 1.63487741e-03 1.08991833e-02 0. 0. 0.
      1.63487741e-03 5.44959155e-04 0. 0. 0. 0. 1.08991831e-03 0. 0.
      1.08991831e-03 0. 0. 0. 5.44959155e-04 5.44959155e-04
      1.08991831e-03 5.44959155e-04 0. 1.08991831e-03 1.63487741e-03
      9.80926491e-03 1.08991831e-03 0. 0. 2.17983662e-03 0. 0. 0.
      1.08991831e-03 0. 5.44959155e-04 0. 0. 0. 5.44959155e-04
      1.63487741e-03 0. 5.44959155e-04 0. 2.17983662e-03 5.44959155e-04
      1.63487741e-03 0. 0. 5.44959155e-04 1.63487741e-03 1.08991831e-03
      0. 1.08991831e-03 7.62942806e-03 1.08991831e-03 0. 5.44959167e-03
      0. 0. 0. 0. 5.44959155e-04 0. 0. 5.44959155e-04 2.72479584e-03
      5.44959155e-04 1.63487741e-03 0. 1.63487741e-03 0. 5.99455088e-03
      5.44959155e-04 0. 5.44959155e-04 1.08991831e-03 5.44959155e-04 0.
      2.72479584e-03 0. 7.62942806e-03 0. 2.72479584e-03 0. 0.
      1.08991831e-03 5.44959155e-04 5.44959155e-04 0. 3.81471403e-03
      5.44959155e-04 0. 0. 5.44959155e-04 0. 0. 5.44959155e-04</_>
    <_>
      4.53514745e-04 0. 1.36054424e-03 4.98866197e-03 4.53514745e-04 0.
      4.53514745e-04 0. 2.26757373e-03 3.62811796e-03 0. 1.81405898e-03
      4.53514745e-04 0. 1.36054424e-03 4.53514745e-04 2.26757373e-03 0.
      4.53514745e-04 8.61677993e-03 9.07029491e-04 9.07029491e-04
      1.36054424e-03 0. 2.72108847e-03 0. 9.07029491e-04 0.
      2.72108847e-03 0. 0. 0. 0. 1.36054424e-03 9.07029491e-04 0.
      2.72108847e-03 3.62811796e-03 0. 0. 0. 4.53514745e-04 0. 0. 0. 0.
      4.53514745e-04 0. 2.26757373e-03 5.89569192e-03 4.53514745e-04
      9.52380989e-03 0. 1.36054424e-03 4.53514745e-04 0. 0.
      9.07029491e-04 2.26757373e-03 4.53514745e-04 2.63038557e-02
      1.36054424e-03 4.53514745e-04 0. 0. 0. 2.26757373e-03 0.
      3.62811796e-03 2.26757373e-03 0. 2.26757373e-03 9.07029491e-03 0.
      0. 1.81405898e-03 0. 1.81405898e-03 4.53514745e-04 4.53514745e-04
      6.80272095e-03 0. 0. 2.72108847e-03 0. 9.07029491e-04 0.
      1.36054424e-03 0. 1.81405898e-03 0. 5.89569192e-03 1.36054424e-03
      0. 0. 1.81405898e-03 9.07029491e-04 1.36054424e-03 4.53514745e-04
      0. 1.36054424e-03 1.04308389e-02 0. 4.53514745e-04 1.81405898e-03
      5.89569192e-03 3.62811796e-03 9.07029491e-04 0. 1.36054424e-03 0.
      9.07029491e-04 0. 3.17460322e-03 1.36054424e-03 9.07029491e-04 0.
      1.36054424e-03 9.07029491e-04 4.53514745e-04 9.07029491e-04
      9.07029491e-04 9.07029491e-04 0. 0. 1.81405898e-03 0. 0.
      4.53514745e-04 0. 0. 5.89569192e-03 4.53514745e-04 1.36054424e-03
      9.07029491e-04 1.81405898e-03 0. 4.53514745e-04 9.07029491e-04
      1.81405898e-03 4.53514745e-04 4.53514745e-04 0. 0. 1.81405898e-03
      0. 4.98866197e-03 4.53514745e-04 0. 9.07029491e-04 4.53514745e-04
      4.53514745e-04 1.81405898e-03 0. 2.35827677e-02 0. 0. 0.
      4.53514745e-04 1.36054424e-03 9.07029491e-04 4.53514745e-04
      2.72108847e-03 1.36054424e-03 9.07029491e-04 0. 9.07029491e-04 0.
      1.36054424e-03 4.53514745e-04 3.62811796e-03 9.07029491e-04 0.
      7.70975091e-03 0. 9.07029491e-04 4.53514745e-04 0. 4.53514745e-04
      0. 6.34920644e-03 0. 3.62811796e-03 1.36054424e-03 0. 0.
      2.72108847e-03 0. 9.07029491e-04 0. 1.36054424e-03 0. 0.
      9.07029491e-04 1.36054424e-03 1.81405898e-03 3.17460322e-03 0. 0.
      1.81405898e-03 4.53514745e-04 3.62811796e-03 0. 4.98866197e-03 0.
      2.26757373e-03 9.07029491e-04 4.53514745e-03 4.53514745e-04
      1.81405898e-03 0. 2.81179138e-02 0. 4.53514745e-04 4.53514745e-04
      1.36054424e-03 4.53514745e-04 0. 4.53514745e-04 3.62811796e-03
      3.17460322e-03 9.07029491e-04 0. 4.53514745e-04 0. 4.53514745e-04
      4.53514745e-04 4.53514745e-04 1.36054424e-03 4.53514745e-04
      1.36054424e-03 4.53514745e-04 2.26757373e-03 1.36054424e-03
      3.17460322e-03 0. 4.53514745e-04 0. 0. 1.81405898e-03 0.
      1.81405898e-03 0. 4.53514745e-04 1.36054424e-03 4.98866197e-03
      1.36054424e-03 0. 1.81405898e-03 9.07029491e-04 0. 1.81405898e-03
      0. 3.17460322e-03 0. 0. 0. 9.07029491e-04 4.53514745e-04 0.
      1.81405898e-03 0. 1.36054424e-03 4.53514745e-04 9.07029491e-04 0.
      4.53514745e-04 4.53514745e-04 4.53514745e-04 1.81405898e-03 0.
      4.53514745e-04 1.81405898e-03 1.36054424e-03 0. 0. 0.
      9.07029491e-04 4.53514745e-04 9.07029491e-04 0. 4.53514745e-04
      1.81405898e-03 4.53514745e-04 0. 0. 4.53514745e-04 1.81405898e-03
      4.53514745e-04 1.36054424e-03 4.53514745e-04 4.53514745e-04 0. 0.
      4.53514745e-04 4.53514745e-04 0. 1.36054424e-03 1.36054424e-03 0.
      4.53514745e-04 1.36054424e-03 1.36054424e-03 9.07029491e-04
      2.72108847e-03 0. 9.07029491e-04 0. 0. 1.36054424e-03 0.
      9.07029491e-04 0. 3.62811796e-03 9.07029491e-04 0. 4.53514745e-04
      4.53514745e-04 0. 1.36054424e-03 0. 9.07029491e-04 0.
      4.53514745e-04 9.07029491e-04 1.36054424e-03 0. 4.53514745e-04
      2.72108847e-03 4.53514745e-04 1.81405898e-03 1.81405898e-03
      1.36054424e-03 9.07029491e-04 4.53514745e-04 4.53514745e-04
      4.53514745e-04 4.53514745e-04 4.08163294e-03 1.81405898e-03
      4.53514745e-04 4.53514745e-04 0. 4.53514745e-04 0. 0.
      9.07029491e-04 4.53514745e-04 0. 0. 4.53514745e-04 4.53514745e-04
      0. 4.53514745e-04 5.89569192e-03 9.07029491e-04 1.36054424e-03
      1.36054424e-03 1.81405898e-03 0. 4.53514745e-04 0. 2.72108847e-03
      4.53514745e-04 1.08843539e-02 0. 0. 2.26757373e-03 0.
      9.07029491e-04 0. 0. 4.53514745e-03 0. 0. 0. 0. 0. 2.26757373e-03
      4.53514745e-04 1.81405898e-03 0. 9.07029491e-04 3.17460322e-03 0.
      4.98866197e-03 4.53514745e-04 0. 4.53514745e-04 0. 0.
      4.53514745e-04 1.17913838e-02 3.62811796e-03 1.81405898e-03 0.
      3.17460322e-03 0. 0. 0. 0. 0. 0. 0. 0. 0. 0. 1.81405898e-03
      4.08163294e-03 0. 1.36054424e-03 0. 3.17460322e-03 4.08163294e-03
      9.07029491e-04 4.53514745e-04 2.72108847e-03 0. 4.53514745e-04
      4.53514745e-04 0. 0. 0. 0. 9.07029491e-04 4.53514745e-04
      4.53514745e-04 0. 0. 3.62811796e-03 0. 4.53514745e-04 0. 0.
      1.36054424e-03 0. 0. 0. 0. 9.07029491e-04 0. 0. 0. 0.
      4.53514745e-04 0. 4.53514745e-04 4.53514745e-04 0. 0. 0.
      4.53514745e-04 0. 0. 0. 1.36054424e-03 0. 4.53514745e-04 0. 0.
      4.53514745e-04 1.36054424e-03 9.07029491e-04 9.07029491e-04
      4.53514745e-04 1.81405898e-03 0. 3.17460322e-03 9.07029491e-04 0.
      9.07029491e-04 4.53514745e-04 0. 1.36054424e-03 4.53514745e-04 0.
      0. 0. 0. 1.36054424e-03 9.07029491e-04 0. 0. 3.17460322e-03
      9.07029491e-04 0. 0. 0. 7.25623593e-03 0. 4.53514745e-03
      4.53514745e-04 0. 0. 4.53514745e-04 5.44217695e-03 0.
      9.07029491e-04 4.53514745e-04 4.08163294e-03 2.26757373e-03
      4.53514745e-04 0. 1.36054424e-03 1.36054424e-03 9.07029491e-04 0.
      9.07029491e-04 4.53514745e-04 2.26757373e-03 1.36054424e-03 0.
      2.72108847e-03 9.07029491e-04 4.53514745e-04 0. 0. 0.
      4.53514745e-04 0. 4.53514745e-04 0. 0. 4.53514745e-04
      1.36054424e-03 4.53514745e-04 0. 0. 0. 0. 0. 0. 0. 0.
      4.53514745e-04 0. 0. 0. 4.53514745e-04 0. 0. 0. 4.53514745e-04
      4.53514745e-04 9.07029491e-04 0. 3.62811796e-03 4.53514745e-04 0.
      4.53514745e-04 0. 0. 4.53514745e-04 1.81405898e-03 0.
      1.81405898e-03 0. 0. 0. 0. 0. 0. 1.36054424e-03 1.81405898e-03
      4.53514745e-04 2.26757373e-03 2.72108847e-03 4.53514745e-04
      9.07029491e-04 9.07029491e-04 4.53514745e-04 0. 0. 2.72108847e-03
      4.53514745e-04 5.89569192e-03 0. 0. 1.81405898e-03 3.62811796e-03
      0. 4.53514745e-04 0. 9.07029491e-04 1.81405898e-03 4.53514745e-04
      0. 4.53514745e-04 2.72108847e-03 1.36054424e-03 0. 0.
      4.53514745e-04 9.07029491e-04 9.07029491e-04 0. 0. 0.
      2.26757373e-03 0. 4.53514745e-04 1.36054424e-03 0. 4.53514745e-04
      1.81405898e-03 0. 1.36054424e-03 4.53514745e-04 0. 1.36054424e-03
      0. 0. 4.98866197e-03 0. 0. 9.07029491e-04 0. 0. 9.07029491e-04 0.
      0. 7.25623593e-03 4.53514745e-04 4.53514745e-04 0. 0.
      1.36054424e-03 1.36054424e-03 9.07029491e-04 0. 0. 4.53514745e-04
      9.07029491e-04 3.62811796e-03 4.08163294e-03 9.07029491e-04 0. 0.
      1.81405898e-03 0. 0. 4.53514745e-04 0. 1.81405898e-03 0. 0.
      1.81405898e-02 9.07029491e-04 0. 9.07029491e-04 4.53514745e-04
      4.53514745e-04 0. 0. 9.07029491e-04 4.53514745e-04 0. 0. 0.
      1.45124719e-02 4.53514745e-04 0. 0. 4.53514745e-04 0. 0. 0.
      4.53514745e-04 4.53514745e-04 0. 3.17460322e-03 4.53514745e-04
      2.26757373e-03 0. 0. 0. 0. 0. 4.08163294e-03 5.44217695e-03
      4.53514745e-04 9.07029491e-04 4.53514745e-04 2.26757373e-03
      4.53514745e-04 0. 9.07029491e-04 4.53514745e-04 0. 3.17460322e-03
      9.07029491e-04 9.07029491e-04 4.53514745e-04 0. 0. 0. 0.
      5.44217695e-03 3.17460322e-03 4.53514745e-04 0. 9.07029491e-04
      2.26757373e-03 4.53514745e-04 0. 1.81405898e-03 0. 4.53514745e-04
      0. 0. 4.53514745e-04 0. 4.53514745e-04 4.53514745e-04
      1.36054424e-03 0. 9.52380989e-03 0. 0. 9.07029491e-04 0. 0.
      9.07029491e-04 0. 0. 4.53514745e-04 9.07029491e-04 0.
      1.81405898e-03 9.07029491e-04 0. 9.07029491e-04 0. 1.81405898e-03
      0. 1.36054424e-03 4.53514745e-04 0. 0. 0. 1.36054424e-03
      9.07029491e-04 4.53514745e-04 1.36054424e-03 5.89569192e-03
      1.36054424e-03 0. 1.36054424e-03 2.72108847e-03 4.53514745e-04
      4.53514745e-04 0. 0. 4.53514745e-04 1.36054424e-03 4.53514745e-04
      0. 0. 0. 4.53514745e-04 2.72108847e-03 0. 4.53514745e-04 0. 0. 0.
      2.26757373e-03 0. 0. 0. 0. 0. 4.53514745e-04 4.53514745e-04 0. 0.
      4.53514745e-04 9.07029491e-04 0. 4.08163294e-03 0. 2.72108847e-03
      2.72108847e-03 0. 0. 0. 9.07029491e-04 9.07029491e-04 0.
      9.07029491e-04 0. 0. 0. 0. 1.81405898e-03 0. 0. 4.53514745e-04
      1.36054424e-03 1.81405898e-03 0. 9.07029491e-04 0. 0.
      4.98866197e-03 9.07029491e-04 0. 9.07029491e-04 3.17460322e-03
      9.07029491e-04 0. 1.36054424e-03 0. 0. 0. 0. 9.07029491e-04 0. 0.
      0. 0. 0. 0. 1.36054424e-03 4.53514745e-04 0. 2.72108847e-03 0.
      4.53514745e-04 0. 9.07029491e-04 9.07029491e-04 0. 0.
      2.72108847e-03 3.62811796e-03 0. 0. 9.07029491e-04 0.
      4.08163294e-03 0. 3.62811796e-03 0. 2.26757373e-03 4.53514745e-04
      0. 0. 9.07029491e-04 0. 4.53514745e-04 0. 4.53514745e-04 0.
      4.53514745e-04 9.07029491e-04 0. 4.53514745e-04 0. 0.
      4.53514745e-03 0. 0. 4.98866197e-03 2.26757373e-03 9.07029491e-04
      4.53514745e-04 1.36054424e-03 4.53514745e-04 2.26757373e-03
      4.53514745e-04 0. 0. 0. 0. 0. 0. 4.53514745e-04 0. 2.72108847e-03
      0. 0. 4.53514745e-04 0. 0. 0. 0. 4.53514745e-04 4.53514745e-04
      1.36054424e-03 1.36054424e-03 9.07029491e-04 4.53514745e-04
      4.53514745e-04 4.53514745e-04 0. 0. 0. 0. 1.36054424e-03 0.
      2.26757373e-03 4.53514745e-04 2.26757373e-03 0. 1.36054424e-03 0.
      1.36054424e-03 0. 0. 0. 0. 0. 9.07029491e-04 0. 4.53514745e-04
      2.26757373e-03 0. 9.07029491e-04 0. 0. 0. 9.07029491e-04
      4.53514745e-04 0. 0. 0. 1.54195018e-02 4.53514745e-04 0. 0. 0. 0.
      0. 0. 1.36054424e-03 0. 0. 0. 9.07029491e-04 0. 4.53514745e-04
      4.53514745e-04 9.07029491e-04 4.53514745e-04 0. 1.81405898e-03
      4.53514745e-04 2.26757373e-03 0. 0. 4.53514745e-04 9.07029491e-04
      4.53514745e-04 0. 9.07029491e-04 1.08843539e-02 4.53514745e-04 0.
      2.72108847e-03 4.53514745e-04 0. 4.53514745e-04 0. 9.07029491e-04
      0. 0. 0. 9.07029491e-04 0. 9.07029491e-04 0. 9.07029491e-04
      4.53514745e-04 3.62811796e-03 9.07029491e-04 0. 4.53514745e-04
      4.53514745e-04 9.07029491e-04 0. 1.36054424e-03 0. 6.80272095e-03
      0. 4.53514745e-04 0. 0. 1.36054424e-03 4.53514745e-04
      4.53514745e-04 0. 5.44217695e-03 0. 0. 0. 0. 0. 4.53514745e-04 0.</_>
    <_>
      2.56016385e-03 5.12032770e-04 1.02406554e-03 1.02406554e-03
      5.12032770e-04 0. 5.12032770e-04 5.12032770e-04 6.14439324e-03
      7.16845877e-03 0. 3.58422939e-03 2.56016385e-03 0. 1.02406554e-03
      5.12032770e-04 9.21658985e-03 0. 1.02406554e-03 1.02406554e-02
      1.02406554e-03 0. 7.16845877e-03 5.12032770e-04 1.02406554e-03 0.
      4.60829493e-03 0. 3.07219662e-03 5.12032770e-04 0. 0. 0.
      6.14439324e-03 1.02406554e-03 0. 2.04813108e-03 3.58422939e-03 0.
      0. 5.12032770e-04 5.12032770e-04 0. 0. 5.12032770e-04
      1.02406554e-03 1.02406554e-03 5.12032770e-04 1.02406554e-03
      2.04813108e-03 5.12032770e-04 8.19252431e-03 0. 5.12032770e-04
      1.02406554e-03 0. 5.12032770e-04 1.53609831e-03 3.58422939e-03 0.
      1.58730149e-02 1.02406554e-03 0. 1.02406554e-03 0. 5.12032770e-04
      5.12032770e-04 0. 2.56016385e-03 5.12032770e-04 0. 1.02406554e-03
      3.07219662e-03 2.04813108e-03 0. 1.02406554e-03 5.12032770e-04
      1.02406554e-03 0. 0. 3.58422939e-03 0. 0. 5.12032770e-03 0. 0.
      2.04813108e-03 2.04813108e-03 1.02406554e-03 1.02406554e-03 0.
      5.12032770e-04 0. 0. 0. 3.58422939e-03 1.02406554e-03
      3.58422939e-03 1.02406554e-03 0. 0. 4.55709174e-02 0.
      5.12032770e-04 1.02406554e-03 1.02406554e-03 1.53609831e-03 0. 0.
      5.12032770e-04 0. 5.12032770e-04 5.12032770e-04 1.53609831e-03
      2.04813108e-03 5.12032770e-04 0. 2.56016385e-03 1.53609831e-03
      1.53609831e-03 0. 5.12032770e-04 1.53609831e-03 0. 5.12032770e-04
      2.04813108e-03 0. 0. 0. 0. 0. 1.02406554e-03 1.02406554e-03 0.
      5.12032770e-04 0. 0. 1.53609831e-03 5.12032770e-04 1.53609831e-03
      1.53609831e-03 0. 5.12032770e-04 0. 5.12032770e-03 5.12032770e-04
      3.07219662e-03 5.12032770e-04 0. 1.53609831e-03 0. 5.12032770e-04
      1.02406554e-03 5.12032770e-04 1.02406554e-03 5.12032770e-04 0.
      5.12032770e-04 5.12032770e-04 1.02406554e-03 1.02406554e-03 0.
      3.07219662e-03 1.53609831e-03 0. 0. 0. 0. 0. 1.02406554e-03
