<?xml version="1.0"?>
<opencv_storage>
<my_svm type_id="opencv-ml-svm">
  <svm_type>C_SVC</svm_type>
  <kernel><type>RBF</type>
    <gamma>5.0625000000000009e-01</gamma></kernel>
  <C>3.1250000000000000e+02</C>
  <term_criteria><epsilon>1.1920928955078125e-07</epsilon>
    <iterations>1000</iterations></term_criteria>
  <var_all>500</var_all>
  <var_count>500</var_count>
  <class_count>2</class_count>
  <class_labels type_id="opencv-matrix">
    <rows>1</rows>
    <cols>2</cols>
    <dt>i</dt>
    <data>
      -1 1</data></class_labels>
  <sv_total>7</sv_total>
  <support_vectors>
    <_>
      0. 1.02880655e-03 8.23045243e-03 1.54320989e-03 7.20164599e-03
      5.14403277e-04 5.14403277e-04 5.14403277e-04 2.57201632e-03
      5.14403265e-03 5.14403277e-04 4.62962966e-03 1.02880655e-03
      2.05761311e-03 3.60082299e-03 2.57201632e-03 1.02880655e-03 0.
      1.54320989e-03 5.14403277e-04 0. 5.14403277e-04 1.02880655e-03
      3.08641978e-03 5.14403277e-04 1.54320989e-03 0. 5.65843610e-03 0.
      0. 0. 0. 2.05761311e-03 2.05761311e-03 5.65843610e-03
      2.57201632e-03 1.13168722e-02 1.54320989e-03 3.60082299e-03
      5.14403277e-04 1.54320989e-03 5.14403277e-04 5.14403277e-04
      5.14403277e-04 3.60082299e-03 0. 0. 0. 7.71604897e-03
      2.05761311e-03 1.02880655e-03 4.11522621e-03 0. 1.02880655e-03
      3.08641978e-03 5.14403277e-04 1.54320989e-03 0. 5.14403277e-04
      2.57201632e-03 9.77366231e-03 9.77366231e-03 0. 2.05761311e-03
      2.05761311e-03 5.14403277e-04 1.54320989e-03 0. 5.14403277e-04
      3.08641978e-03 6.17283955e-03 9.25925933e-03 6.17283955e-03
      5.14403265e-03 0. 5.14403277e-04 2.57201632e-03 4.11522621e-03 0.
      1.54320989e-03 5.14403265e-03 2.57201632e-03 1.02880655e-03
      1.02880655e-03 0. 6.17283955e-03 0. 0. 1.54320989e-03
      6.68724254e-03 5.14403277e-04 1.02880655e-03 0. 0. 0.
      1.02880655e-03 0. 5.14403277e-04 1.54320989e-03 4.62962966e-03
      4.62962966e-03 0. 0. 5.14403277e-04 0. 1.54320989e-03
      1.02880655e-03 5.14403277e-04 5.14403277e-04 2.57201632e-03
      2.05761311e-03 1.02880655e-03 4.11522621e-03 1.02880655e-03
      5.14403277e-04 0. 8.74485541e-03 5.14403277e-04 0. 1.02880655e-03
      5.14403277e-04 4.62962966e-03 1.02880655e-03 5.65843610e-03 0. 0.
      1.54320989e-03 2.05761311e-03 1.54320989e-03 7.20164599e-03
      2.05761311e-03 5.14403277e-04 3.60082299e-03 1.54320989e-03
      1.02880655e-03 5.14403277e-04 1.02880655e-03 0. 3.60082299e-03 0.
      5.14403277e-04 3.60082299e-03 5.65843610e-03 5.14403277e-04 0.
      8.23045243e-03 1.59465019e-02 0. 6.68724254e-03 2.57201632e-03
      5.14403265e-03 5.14403277e-04 0. 8.23045243e-03 4.11522621e-03
      1.54320989e-03 2.57201632e-03 4.11522621e-03 3.08641978e-03 0.
      1.02880655e-03 2.05761311e-03 1.54320989e-03 4.62962966e-03 0.
      5.14403277e-04 6.17283955e-03 1.18312752e-02 2.57201632e-03
      5.14403277e-04 3.08641978e-03 5.14403277e-04 5.14403277e-04
      7.20164599e-03 0. 1.02880655e-03 5.14403277e-04 7.71604897e-03
      1.02880655e-03 5.14403277e-04 0. 0. 0. 0. 1.02880655e-03
      2.05761311e-03 1.02880655e-03 5.14403277e-04 5.14403277e-04
      5.14403277e-04 2.57201632e-03 2.57201632e-03 3.60082299e-03
      1.02880655e-03 1.02880653e-02 5.14403277e-04 3.08641978e-03
      1.54320989e-03 5.14403277e-04 4.11522621e-03 5.14403277e-04 0.
      1.54320989e-03 6.17283955e-03 5.14403277e-04 0. 5.14403277e-04 0.
      4.62962966e-03 5.14403277e-04 1.13168722e-02 0. 1.54320989e-03 0.
      6.68724254e-03 0. 0. 5.14403277e-04 2.57201632e-03 3.08641978e-03
      5.14403277e-04 0. 2.05761311e-03 3.60082299e-03 0. 5.14403277e-04
      0. 5.14403277e-04 5.14403277e-04 0. 2.05761311e-03 5.14403277e-04
      0. 8.23045243e-03 0. 1.02880655e-03 2.05761311e-03 5.14403277e-04
      0. 2.57201632e-03 1.02880655e-03 1.74897108e-02 2.05761311e-03 0.
      5.14403277e-04 2.57201632e-03 0. 0. 5.14403277e-04 7.20164599e-03
      1.02880655e-03 3.08641978e-03 1.02880655e-03 4.62962966e-03
      5.14403277e-04 0. 1.02880655e-03 3.08641978e-03 0. 7.20164599e-03
      1.18312752e-02 5.14403277e-04 1.02880655e-03 3.08641978e-03 0. 0.
      1.54320989e-03 8.23045243e-03 1.02880655e-03 0. 1.54320979e-02
      5.14403277e-04 1.02880655e-03 0. 2.05761311e-03 0. 1.64609049e-02
      1.02880655e-03 3.60082299e-03 1.02880655e-03 0. 1.02880655e-03 0.
      0. 5.14403277e-04 0. 1.54320989e-03 1.02880655e-03 0.
      2.05761311e-03 1.54320989e-03 1.02880655e-03 1.54320989e-03
      3.60082299e-03 1.02880655e-03 4.62962966e-03 0. 5.14403277e-04
      5.14403277e-04 0. 5.14403277e-04 5.14403277e-04 5.14403277e-04
      4.62962966e-03 0. 1.64609049e-02 1.02880655e-03 1.02880655e-03
      1.02880655e-03 0. 1.02880655e-03 0. 1.02880655e-03 2.05761311e-03
      2.57201632e-03 7.20164599e-03 3.08641978e-03 0. 1.02880655e-03
      1.54320989e-03 5.14403277e-04 2.05761311e-03 4.62962966e-03
      5.14403277e-04 5.14403277e-04 1.02880655e-03 0. 3.08641978e-03
      5.65843610e-03 0. 3.60082299e-03 0. 4.62962966e-03 3.60082299e-03
      2.05761311e-03 0. 0. 0. 3.08641978e-03 1.02880655e-03 0.
      5.14403265e-03 5.14403277e-04 1.02880655e-03 0. 8.23045243e-03 0.
      3.08641978e-03 1.02880655e-03 1.02880655e-03 4.11522621e-03
      2.57201632e-03 1.13168722e-02 2.57201632e-03 5.14403277e-04
      2.05761311e-03 5.14403277e-04 2.57201632e-03 5.14403277e-04 0. 0.
      0. 0. 5.14403277e-04 5.14403277e-04 1.02880655e-03 5.65843610e-03
      2.05761311e-03 0. 1.54320989e-03 8.23045243e-03 2.57201632e-03 0.
      5.14403277e-04 1.54320989e-03 0. 0. 0. 2.05761311e-03
      3.08641978e-03 0. 0. 1.54320989e-03 1.02880655e-03 5.14403277e-04
      1.02880655e-03 5.14403277e-04 5.14403277e-04 6.17283955e-03 0. 0.
      4.62962966e-03 5.14403277e-04 1.54320989e-03 0. 2.05761311e-03
      5.14403277e-04 0. 5.14403277e-04 5.14403277e-04 2.57201632e-03
      1.54320989e-03 1.02880655e-03 4.11522621e-03 1.02880655e-03 0.
      5.14403277e-04 0. 5.14403277e-04 0. 0. 2.57201632e-03
      1.02880655e-03 2.57201632e-03 5.65843610e-03 0. 4.11522621e-03
      5.14403277e-04 1.02880655e-03 0. 1.54320989e-03 1.02880655e-03
      5.14403277e-04 0. 3.08641978e-03 1.02880655e-03 0. 9.77366231e-03
      1.44032920e-02 1.54320989e-03 0. 2.05761311e-03 5.14403265e-03 0.
      2.05761311e-03 0. 2.05761311e-03 2.57201632e-03 0. 5.14403277e-04
      2.05761311e-03 5.14403277e-04 0. 5.14403277e-04 0. 1.54320989e-03
      1.02880655e-03 0. 1.02880655e-03 2.05761311e-03 0. 0.
      1.54320989e-03 7.71604897e-03 5.14403277e-04 0. 0. 1.02880655e-03
      5.14403277e-04 1.54320989e-03 0. 2.57201632e-03 1.54320989e-03
      2.05761311e-03 0. 5.14403277e-04 2.57201632e-03 5.14403277e-04
      1.02880655e-03 5.14403277e-04 4.62962966e-03 1.54320989e-03
      2.05761311e-03 1.02880655e-03 2.57201632e-03 1.54320979e-02 0.
      3.60082299e-03 2.05761311e-03 0. 1.54320989e-03 5.14403277e-04
      3.60082299e-03 2.57201632e-03 5.14403277e-04 1.02880655e-03
      5.14403277e-04 2.05761311e-03 3.08641978e-03 1.02880655e-03
      2.05761311e-03 1.54320989e-03 0. 0. 5.14403277e-04 1.02880655e-03
      1.02880655e-03 3.08641978e-03 5.14403277e-04 5.14403277e-04</_>
    <_>
      0. 1.36054424e-03 2.72108847e-03 4.08163294e-03 4.08163294e-03 0.
      4.53514745e-04 2.26757373e-03 0. 6.80272095e-03 3.62811796e-03
      3.17460322e-03 9.07029491e-04 1.81405898e-03 5.89569192e-03
      3.62811796e-03 0. 0. 7.25623593e-03 0. 0. 9.07029491e-04
      1.81405898e-03 3.62811796e-03 4.53514745e-04 0. 0. 6.34920644e-03
      4.53514745e-04 0. 0. 0. 1.81405898e-03 1.36054424e-03
      3.62811796e-03 9.07029491e-03 2.44897958e-02 9.07029491e-04
      6.34920644e-03 9.07029491e-04 2.72108847e-03 3.62811796e-03
      4.53514745e-04 1.81405898e-03 2.72108847e-03 4.53514745e-04 0.
      1.36054424e-03 4.53514745e-03 1.36054424e-03 0. 3.62811796e-03 0.
      1.81405898e-03 3.62811796e-03 2.72108847e-03 4.53514745e-04 0.
      4.53514745e-04 2.26757373e-03 6.34920644e-03 3.17460322e-03 0.
      4.53514745e-04 1.36054424e-03 4.53514745e-04 0. 0. 9.07029491e-04
      0. 1.22448979e-02 6.80272095e-03 3.17460322e-03 4.98866197e-03 0.
      1.49659868e-02 0. 1.36054424e-03 4.53514745e-04 9.07029491e-04
      3.17460322e-03 4.53514745e-04 0. 0. 1.36054424e-03 1.36054424e-03
      0. 4.53514745e-04 0. 1.17913838e-02 0. 0. 9.07029491e-04 0.
      1.36054419e-02 4.53514745e-04 0. 1.36054424e-03 9.07029491e-04
      5.89569192e-03 3.62811796e-03 0. 0. 3.62811796e-03 0.
      9.07029491e-04 9.07029491e-04 1.36054424e-03 0. 4.53514745e-04
      1.81405898e-03 1.36054424e-03 7.25623593e-03 9.07029491e-04 0. 0.
      9.07029491e-03 4.53514745e-04 0. 2.26757373e-03 0. 5.44217695e-03
      9.07029491e-04 5.44217695e-03 0. 0. 9.07029491e-04 1.36054424e-03
      1.36054424e-03 3.17460322e-03 1.81405898e-03 4.53514745e-04 0.
      2.26757373e-03 0. 2.26757373e-03 4.53514745e-04 9.07029491e-04
      1.36054424e-03 4.53514745e-04 0. 4.53514745e-04 2.72108847e-03 0.
      0. 1.13378689e-02 1.36054419e-02 0. 3.17460322e-03 0.
      1.31519279e-02 1.36054424e-03 0. 4.98866197e-03 1.36054424e-03
      1.81405898e-03 5.89569192e-03 7.25623593e-03 2.26757373e-03
      2.72108847e-03 0. 1.36054424e-03 1.81405898e-03 2.26757373e-03
      2.26757373e-03 0. 4.08163294e-03 3.62811796e-02 5.44217695e-03
      4.53514745e-04 1.36054424e-03 9.07029491e-04 4.53514745e-04
      2.72108847e-03 0. 0. 4.53514745e-04 4.98866197e-03 0.
      1.36054424e-03 0. 0. 4.53514745e-04 0. 0. 1.36054424e-03 0. 0. 0.
      1.36054424e-03 4.53514745e-04 2.26757373e-03 1.81405898e-03
      9.07029491e-04 2.26757373e-03 4.53514745e-04 9.07029491e-04
      2.26757373e-03 4.53514745e-04 1.36054419e-02 1.36054424e-03 0.
      9.07029491e-04 1.26984129e-02 4.53514745e-04 0. 0. 0.
      1.36054424e-03 9.07029491e-04 2.72108847e-03 0. 2.72108847e-03
      9.07029491e-04 3.17460322e-03 0. 0. 0. 2.72108847e-03
      6.80272095e-03 0. 0. 5.44217695e-03 1.81405898e-03 9.07029491e-04
      1.81405898e-03 0. 1.36054424e-03 4.53514745e-04 4.53514745e-04
      9.07029491e-04 2.26757373e-03 4.53514745e-04 3.17460322e-03
      4.53514745e-04 9.07029491e-04 9.07029491e-04 9.07029491e-04
      3.17460322e-03 4.98866197e-03 2.26757373e-03 2.31292527e-02
      9.07029491e-04 0. 2.26757373e-03 0. 0. 9.07029491e-04 0.
      4.53514745e-03 4.53514745e-04 1.40589569e-02 1.81405898e-03
      3.17460322e-03 4.53514745e-04 0. 9.07029491e-04 2.72108847e-03 0.
      9.07029491e-03 7.25623593e-03 0. 0. 3.17460322e-03 0. 0.
      1.36054424e-03 3.62811796e-03 0. 0. 1.26984129e-02 0.
      9.07029491e-04 4.53514745e-04 4.53514745e-03 0. 1.54195018e-02
      4.08163294e-03 1.81405898e-03 1.22448979e-02 0. 1.36054424e-03
      9.07029491e-04 4.53514745e-04 4.53514745e-04 0. 1.36054424e-03
      4.53514745e-04 0. 9.07029491e-04 4.53514745e-04 1.36054424e-03
      4.98866197e-03 1.81405898e-03 2.26757373e-03 2.72108847e-03 0.
      1.36054424e-03 1.36054424e-03 0. 1.81405898e-03 2.26757373e-03 0.
      5.44217695e-03 4.53514745e-04 1.40589569e-02 2.72108847e-03
      4.53514745e-04 1.81405898e-03 0. 4.53514745e-04 0. 1.81405898e-03
      1.81405898e-03 1.81405898e-03 7.70975091e-03 9.07029491e-04
      4.53514745e-04 2.26757373e-03 1.81405898e-03 0. 1.36054424e-03
      1.81405898e-03 0. 4.53514745e-04 1.36054424e-03 4.53514745e-04
      3.17460322e-03 1.81405898e-03 0. 2.26757373e-03 0. 1.36054424e-03
      4.08163294e-03 2.26757373e-03 0. 0. 0. 4.53514745e-04
      4.53514745e-04 4.53514745e-04 9.07029491e-04 4.53514745e-04
      2.26757373e-03 0. 2.40362808e-02 1.36054424e-03 1.81405898e-03
      9.07029491e-04 0. 1.81405898e-03 9.07029491e-04 1.13378689e-02
      4.98866197e-03 0. 1.81405898e-03 4.53514745e-04 3.62811796e-03
      4.53514745e-04 4.53514745e-04 0. 0. 0. 9.07029491e-04 0. 0.
      7.70975091e-03 1.81405898e-03 0. 9.07029491e-04 4.08163294e-03
      9.07029491e-04 0. 1.81405898e-03 9.07029491e-04 0. 4.53514745e-04
      0. 2.26757373e-03 2.72108847e-03 0. 4.53514745e-04 2.72108847e-03
      0. 0. 0. 0. 9.07029491e-04 4.08163294e-03 4.53514745e-03 0.
      3.17460322e-03 9.07029491e-04 4.53514745e-04 0. 1.36054424e-03
      4.53514745e-04 4.53514745e-04 9.07029491e-04 1.36054424e-03
      9.07029491e-04 2.26757373e-03 2.72108847e-03 1.36054424e-03
      3.62811796e-03 4.53514745e-04 4.53514745e-04 0. 1.36054424e-03 0.
      9.07029491e-04 5.44217695e-03 2.26757373e-03 2.26757373e-03
      1.81405898e-03 0. 9.07029491e-04 1.36054424e-03 0. 0.
      9.07029491e-04 9.07029491e-04 0. 0. 4.53514745e-04 4.53514745e-04
      0. 1.81405898e-03 1.67800449e-02 9.07029491e-04 4.53514745e-04
      9.07029491e-04 9.07029491e-04 0. 0. 0. 9.07029491e-04
      4.08163294e-03 0. 9.07029491e-04 9.07029491e-04 0. 4.53514745e-04
      1.36054424e-03 0. 4.53514745e-04 4.53514745e-04 9.07029491e-04
      2.72108847e-03 2.26757373e-03 9.07029491e-04 0. 4.53514745e-04
      5.44217695e-03 0. 0. 0. 0. 9.07029491e-04 1.81405898e-03
      9.07029491e-04 0. 9.07029491e-04 4.53514745e-04 9.07029491e-04
      9.07029491e-04 2.26757373e-03 0. 0. 0. 4.53514745e-03
      1.36054424e-03 2.26757373e-03 0. 7.70975091e-03 4.08163294e-03
      9.07029491e-04 9.07029491e-04 4.53514745e-04 0. 4.53514745e-04
      4.53514745e-04 1.81405898e-03 1.36054424e-03 4.53514745e-04
      4.53514745e-04 9.07029491e-04 4.53514745e-04 2.72108847e-03
      1.36054424e-03 4.98866197e-03 9.07029491e-04 0. 4.53514745e-04
      9.07029491e-04 9.07029491e-04 4.53514745e-04 1.36054424e-03
      1.81405898e-03 1.36054424e-03</_>
    <_>
      0. 5.80832548e-03 2.90416274e-03 1.93610846e-03 1.45208137e-03 0.
      2.90416274e-03 1.45208137e-03 5.32429805e-03 9.19651520e-03
      8.71248823e-03 4.84027114e-04 1.45208137e-03 0. 1.93610846e-03
      5.80832548e-03 0. 0. 1.45208137e-03 0. 1.93610846e-03
      1.45208137e-03 1.45208137e-03 4.84027114e-04 4.84027114e-04
      3.38818971e-03 0. 3.38818971e-03 0. 0. 0. 0. 3.38818971e-03
      5.32429805e-03 4.84027108e-03 0. 2.51694098e-02 0. 2.90416274e-03
      4.84027114e-04 3.87221691e-03 9.68054228e-04 9.68054228e-04
      9.68054228e-04 5.32429805e-03 0. 0. 4.84027114e-04 8.71248823e-03
      3.87221691e-03 3.87221691e-03 3.87221691e-03 0. 9.68054228e-04 0.
      2.42013554e-03 2.90416274e-03 0. 9.68054228e-04 4.35624411e-03
      1.93610846e-03 9.68054228e-04 0. 4.35624411e-03 1.93610846e-03
      1.93610846e-03 1.93610846e-03 9.68054228e-04 4.84027114e-04
      9.68054228e-04 5.32429805e-03 9.68054228e-04 2.90416274e-03
      3.38818971e-03 0. 4.84027108e-03 9.68054228e-04 1.93610846e-03
      2.90416274e-03 0. 8.71248823e-03 1.45208137e-03 3.87221691e-03
      2.90416274e-03 1.45208137e-03 7.26040686e-03 0. 4.84027114e-04
      9.68054228e-04 4.35624411e-03 0. 9.68054228e-04 2.90416274e-03 0.
      4.84027108e-03 4.84027114e-04 0. 1.45208137e-03 1.93610846e-03
      5.32429805e-03 2.90416274e-03 4.84027114e-04 2.90416274e-03
      9.68054228e-04 0. 9.68054228e-04 0. 4.84027114e-04 3.38818971e-03
      3.87221691e-03 2.42013554e-03 1.93610846e-03 1.30687319e-02
      1.93610846e-03 0. 0. 4.35624411e-03 4.84027114e-04 4.84027114e-04
      3.38818971e-03 4.84027114e-04 2.90416274e-03 1.93610846e-03
      5.32429805e-03 2.90416274e-03 0. 3.38818971e-03 4.84027114e-04 0.
      5.32429805e-03 1.93610846e-03 0. 0. 9.68054228e-04 9.68054228e-04
      4.84027114e-04 1.45208137e-03 1.45208137e-03 1.93610846e-03 0. 0.
      1.93610846e-03 4.84027114e-04 2.42013554e-03 4.84027114e-04
      6.29235245e-03 3.04937083e-02 0. 0. 4.84027114e-04 4.84027108e-03
      4.84027114e-04 0. 7.74443382e-03 9.68054228e-04 2.90416274e-03
      1.01645691e-02 1.93610846e-03 5.32429805e-03 4.84027114e-04 0.
      1.93610846e-03 9.68054228e-04 3.38818971e-03 0. 0. 1.93610846e-03
      1.35527588e-02 2.42013554e-03 4.84027114e-04 9.68054228e-04
      9.68054228e-04 1.45208137e-03 2.42013554e-03 4.84027114e-04 0.
      4.84027114e-04 3.38818971e-03 1.45208137e-03 1.45208137e-03 0. 0.
      0. 0. 9.68054228e-04 6.77637942e-03 9.68054228e-04 4.84027114e-04
      0. 1.45208137e-03 1.45208137e-03 9.68054228e-04 1.45208137e-03
      1.93610846e-03 3.38818971e-03 4.84027114e-04 2.90416274e-03
      4.35624411e-03 9.68054228e-04 1.06485961e-02 4.84027114e-04 0.
      1.45208137e-03 1.64569225e-02 4.84027114e-04 4.84027114e-04
      1.45208137e-03 4.84027114e-04 1.45208137e-03 9.68054228e-04
      3.38818971e-03 0. 1.45208137e-03 4.84027114e-04 4.35624411e-03 0.
      0. 0. 2.42013554e-03 1.45208137e-03 4.84027114e-04 0.
      4.84027114e-04 0. 1.45208137e-03 4.84027114e-04 0. 5.32429805e-03
      4.84027114e-04 0. 4.84027114e-04 2.42013554e-03 4.84027114e-04
      7.26040686e-03 2.90416274e-03 8.22846126e-03 1.45208137e-03
      9.68054228e-04 5.32429805e-03 5.80832548e-03 9.68054228e-04
      2.22652480e-02 9.68054228e-04 0. 1.45208137e-03 0. 1.45208137e-03
      9.68054228e-04 4.84027114e-04 4.84027108e-03 2.90416274e-03
      2.17812210e-02 9.68054228e-04 1.93610846e-03 9.68054228e-04 0. 0.
      2.90416274e-03 1.45208137e-03 1.25847049e-02 8.71248823e-03 0.
      4.84027114e-04 9.68054228e-04 4.84027114e-04 0. 3.87221691e-03
      9.68054228e-04 0. 0. 2.90416274e-03 0. 1.45208137e-03 0.
      5.80832548e-03 0. 4.84027108e-03 4.84027114e-04 9.68054228e-04
      6.29235245e-03 0. 1.45208137e-03 4.84027114e-04 0. 1.45208137e-03
      0. 0. 0. 0. 2.42013554e-03 4.84027114e-04 1.45208137e-03
      1.45208137e-03 9.68054228e-04 5.80832548e-03 9.68054228e-04 0.
      1.93610846e-03 2.90416274e-03 0. 1.93610846e-03 2.90416274e-03 0.
      9.19651520e-03 9.68054228e-04 6.29235245e-03 4.84027108e-03 0.
      9.68054228e-04 0. 0. 0. 9.68054228e-04 4.35624411e-03
      9.68054228e-04 7.74443382e-03 2.90416274e-03 0. 2.90416274e-03 0.
      0. 1.45208137e-03 4.84027114e-04 4.84027114e-04 0. 0.
      1.93610846e-03 1.93610846e-03 2.42013554e-03 0. 6.77637942e-03 0.
      2.42013554e-03 4.84027114e-04 9.68054216e-03 0. 0. 0.
      9.68054228e-04 0. 0. 4.84027114e-04 9.68054228e-04 2.42013554e-03
      0. 1.35527588e-02 4.84027114e-04 4.35624411e-03 1.45208137e-03
      4.84027114e-04 1.93610846e-03 2.42013554e-03 1.21006779e-02
      9.68054228e-04 1.93610846e-03 1.93610846e-03 0. 2.42013554e-03
      1.93610846e-03 0. 4.84027114e-04 0. 0. 0. 0. 4.84027114e-04
      2.42013554e-03 2.90416274e-03 0. 9.68054228e-04 3.87221691e-03
      2.42013554e-03 0. 1.45208137e-03 4.84027114e-04 0. 4.84027114e-04
      4.84027114e-04 4.84027114e-04 4.84027108e-03 0. 0. 3.38818971e-03
      1.45208137e-03 9.68054228e-04 0. 4.84027114e-04 4.84027114e-04
      2.90416274e-03 4.84027108e-03 4.84027114e-04 2.42013554e-03
      4.84027114e-04 0. 0. 1.93610846e-03 1.93610846e-03 0.
      2.42013554e-03 4.84027114e-04 2.42013554e-03 1.45208137e-03
      1.45208137e-03 9.68054228e-04 4.35624411e-03 0. 4.84027114e-04
      1.45208137e-03 3.87221691e-03 0. 4.84027114e-04 4.84027108e-03
      3.87221691e-03 9.68054228e-04 0. 0. 0. 4.84027114e-04 0.
      4.84027114e-04 4.84027114e-04 0. 4.84027114e-04 4.84027114e-04
      1.45208137e-03 0. 0. 4.84027114e-04 1.06485961e-02 1.45208137e-03
      4.84027114e-04 2.90416274e-03 3.38818971e-03 3.38818971e-03
      9.68054228e-04 0. 1.45208137e-03 3.38818971e-03 4.84027114e-04
      1.93610846e-03 4.84027114e-04 0. 4.84027114e-04 9.68054228e-04
      4.84027114e-04 9.68054228e-04 1.45208137e-03 2.42013554e-03
      4.84027114e-04 4.84027114e-04 0. 0. 2.90416274e-03 7.74443382e-03
      0. 0. 0. 1.45208137e-03 0. 4.84027114e-04 9.68054228e-04
      1.45208137e-03 4.84027114e-04 4.84027114e-04 0. 9.68054228e-04
      4.84027108e-03 0. 4.84027114e-04 1.45208137e-03 2.90416274e-03
      9.68054228e-04 1.93610846e-03 9.68054228e-04 2.42013554e-03
      3.38818971e-03 1.45208137e-03 1.45208137e-03 0. 4.84027114e-04
      2.90416274e-03 0. 1.45208137e-03 9.68054228e-04 0. 4.84027114e-04
      4.84027114e-04 9.68054228e-04 4.35624411e-03 9.68054228e-04
      5.80832548e-03 1.93610846e-03 0. 4.84027114e-04 3.87221691e-03
      4.84027114e-04 1.45208137e-03 0. 2.90416274e-03 0.</_>
    <_>
      4.81463649e-04 9.62927297e-04 4.33317292e-03 3.37024545e-03
      7.70341838e-03 4.81463649e-04 1.44439097e-03 0. 2.40731821e-03
      6.74049091e-03 4.81463643e-03 9.62927297e-04 2.88878195e-03
      9.62927297e-04 5.77756390e-03 3.85170919e-03 0. 0. 7.70341838e-03
      4.81463649e-04 0. 9.62927297e-04 1.44439097e-03 4.33317292e-03
      9.62927297e-04 3.37024545e-03 9.62927297e-04 9.62927286e-03 0. 0.
      0. 0. 2.40731821e-03 4.81463649e-04 1.92585459e-03 7.22195487e-03
      2.35917196e-02 2.88878195e-03 6.25902740e-03 0. 2.88878195e-03
      2.88878195e-03 1.44439097e-03 9.62927297e-04 5.29609993e-03 0. 0.
      0. 3.85170919e-03 1.92585459e-03 9.62927297e-04 4.33317292e-03 0.
      9.62927297e-04 6.25902740e-03 1.44439097e-03 1.44439097e-03 0.
      4.81463649e-04 3.37024545e-03 6.25902740e-03 3.37024545e-03 0.
      4.81463649e-04 1.44439097e-03 9.62927297e-04 0. 0. 1.92585459e-03
      4.81463649e-04 1.49253728e-02 4.33317292e-03 2.88878195e-03
      2.40731821e-03 0. 9.62927297e-04 9.62927297e-04 2.40731821e-03
      9.62927297e-04 9.62927297e-04 4.33317292e-03 1.92585459e-03
      9.62927297e-04 0. 0. 4.81463643e-03 0. 0. 0. 1.01107368e-02 0.
      1.44439097e-03 9.62927297e-04 0. 7.22195487e-03 4.81463649e-04 0.
      4.81463649e-04 4.81463649e-04 3.85170919e-03 1.92585459e-03
      4.81463649e-04 4.81463649e-04 5.77756390e-03 0. 1.92585459e-03 0.
      4.81463649e-04 0. 0. 1.44439097e-03 1.44439097e-03 6.25902740e-03
      2.88878195e-03 4.81463649e-04 0. 7.22195487e-03 4.81463649e-04 0.
      1.44439097e-03 4.81463649e-04 5.29609993e-03 9.62927297e-04
      5.29609993e-03 0. 0. 9.62927297e-04 9.62927297e-04 0.
      4.81463643e-03 9.62927297e-04 4.81463649e-04 0. 1.92585459e-03
      4.81463649e-04 4.81463649e-04 9.62927297e-04 9.62927297e-04
      2.40731821e-03 0. 0. 0. 2.40731821e-03 4.81463649e-04
      4.81463649e-04 8.66634585e-03 2.02214736e-02 4.81463649e-04
      9.62927297e-04 4.81463649e-04 1.58882998e-02 3.37024545e-03 0.
      6.25902740e-03 2.88878195e-03 1.44439097e-03 2.88878195e-03
      1.01107368e-02 1.92585459e-03 4.81463649e-04 4.81463649e-04
      1.44439097e-03 1.92585459e-03 4.33317292e-03 4.81463649e-04
      1.92585459e-03 7.70341838e-03 2.79248916e-02 4.33317292e-03 0.
      1.44439097e-03 0. 0. 1.92585459e-03 0. 0. 0. 2.40731821e-03
      4.81463649e-04 1.44439097e-03 4.81463649e-04 0. 0. 0.
      9.62927297e-04 4.81463649e-04 4.81463649e-04 9.62927297e-04 0.
      4.81463649e-04 0. 4.81463649e-04 3.37024545e-03 1.44439097e-03
      1.92585459e-03 4.81463649e-04 2.40731821e-03 1.92585459e-03
      4.81463649e-04 3.37024545e-03 1.92585459e-03 0. 9.62927297e-04
      9.14780889e-03 4.81463649e-04 0. 0. 0. 3.85170919e-03
      4.81463649e-04 1.44439097e-03 0. 4.81463649e-04 0. 3.85170919e-03
      0. 0. 4.81463649e-04 2.40731821e-03 7.22195487e-03 0. 0.
      5.77756390e-03 1.44439097e-03 4.81463649e-04 1.44439097e-03 0.
      1.44439097e-03 9.62927297e-04 0. 4.81463649e-04 9.62927297e-04
      4.81463649e-04 9.14780889e-03 0. 1.44439097e-03 4.81463649e-04 0.
      1.92585459e-03 6.74049091e-03 9.62927297e-04 4.09244113e-02
      4.81463649e-04 0. 1.44439097e-03 9.62927297e-04 0. 4.81463649e-04
      0. 4.81463643e-03 1.92585459e-03 6.74049091e-03 9.62927297e-04
      2.88878195e-03 4.81463649e-04 0. 0. 1.44439097e-03 0.
      1.78141557e-02 8.18488188e-03 0. 4.81463649e-04 9.62927297e-04 0.
      0. 9.62927297e-04 4.33317292e-03 0. 0. 1.39624458e-02 0.
      1.92585459e-03 9.62927297e-04 5.29609993e-03 0. 1.34809818e-02
      3.37024545e-03 0. 9.62927297e-04 0. 0. 0. 0. 0. 0. 0.
      9.62927297e-04 0. 1.44439097e-03 2.88878195e-03 9.62927297e-04
      2.40731821e-03 9.62927297e-04 1.44439097e-03 1.44439097e-03 0.
      2.88878195e-03 9.62927297e-04 0. 1.44439097e-03 2.40731821e-03
      4.81463649e-04 4.81463643e-03 9.62927297e-04 1.15551278e-02
      2.40731821e-03 0. 1.44439097e-03 0. 4.81463649e-04 0. 0.
      2.40731821e-03 1.92585459e-03 6.25902740e-03 9.62927297e-04
      9.62927297e-04 4.81463649e-04 4.81463649e-04 0. 1.92585459e-03
      3.85170919e-03 0. 9.62927297e-04 4.81463649e-04 9.62927297e-04
      2.88878195e-03 5.77756390e-03 0. 2.88878195e-03 0. 2.40731821e-03
      3.85170919e-03 4.81463649e-04 0. 0. 0. 9.62927297e-04 0.
      4.81463649e-04 4.81463649e-04 0. 9.62927297e-04 0. 8.66634585e-03
      0. 3.37024545e-03 9.62927297e-04 0. 1.44439097e-03 4.81463643e-03
      1.25180548e-02 4.81463649e-04 0. 1.92585459e-03 4.81463649e-04
      7.70341838e-03 0. 0. 0. 0. 0. 4.81463649e-04 4.81463649e-04 0.
      1.20365908e-02 2.88878195e-03 0. 2.40731821e-03 2.88878195e-03
      2.40731821e-03 9.62927297e-04 4.81463649e-04 4.81463649e-04
      4.81463649e-04 1.44439097e-03 0. 2.40731821e-03 2.88878195e-03 0.
      0. 2.88878195e-03 4.81463649e-04 4.81463649e-04 0. 0. 0.
      7.22195487e-03 2.88878195e-03 0. 2.40731821e-03 0. 0. 0.
      4.81463649e-04 1.92585459e-03 0. 4.81463649e-04 9.62927297e-04
      4.81463649e-04 9.62927297e-04 3.37024545e-03 2.88878195e-03
      1.92585459e-03 0. 0. 4.81463649e-04 9.62927297e-04 0. 0.
      3.37024545e-03 1.92585459e-03 2.88878195e-03 9.62927297e-04 0.
      1.44439097e-03 9.62927297e-04 4.81463649e-04 4.81463649e-04 0.
      4.81463649e-04 0. 0. 1.44439097e-03 1.44439097e-03 0.
      1.92585459e-03 3.37024555e-02 9.62927297e-04 0. 2.88878195e-03
      2.40731821e-03 0. 2.88878195e-03 0. 4.81463649e-04 3.85170919e-03
      0. 0. 1.44439097e-03 0. 0. 3.85170919e-03 4.81463649e-04 0.
      9.62927297e-04 1.44439097e-03 0. 9.62927297e-04 4.81463649e-04 0.
      9.62927297e-04 5.77756390e-03 0. 0. 0. 1.44439097e-03
      9.62927297e-04 1.44439097e-03 9.62927297e-04 9.62927297e-04
      9.62927297e-04 0. 1.44439097e-03 4.81463649e-04 3.85170919e-03 0.
      4.81463649e-04 4.81463649e-04 2.40731821e-03 4.81463649e-04
      2.88878195e-03 0. 3.37024545e-03 7.22195487e-03 4.81463649e-04
      2.40731821e-03 4.81463649e-04 0. 2.40731821e-03 0. 2.88878195e-03
      1.44439097e-03 0. 1.44439097e-03 1.44439097e-03 9.62927297e-04
      6.25902740e-03 9.62927297e-04 3.37024545e-03 0. 0. 4.81463649e-04
      4.81463649e-04 1.44439097e-03 4.81463649e-04 3.37024545e-03
      2.40731821e-03 0.</_>
    <_>
      3.81471403e-03 1.08991831e-03 7.08446885e-03 4.35967324e-03
      7.08446885e-03 0. 0. 5.44959155e-04 0. 1.14441421e-02 0.
      5.44959155e-04 5.44959155e-04 5.44959167e-03 3.26975482e-03
      5.44959155e-04 5.44959155e-04 1.08991831e-03 2.72479584e-03
      5.44959155e-04 1.08991831e-03 2.17983662e-03 0. 3.26975482e-03
      3.81471403e-03 0. 5.44959155e-04 1.30790193e-02 2.17983662e-03 0.
      7.08446885e-03 5.44959167e-03 0. 0. 3.81471403e-03 1.30790193e-02
      3.97820175e-02 1.08991831e-03 2.17983662e-03 0. 5.44959155e-04 0.
      0. 0. 2.72479584e-03 5.44959155e-04 1.63487741e-03 5.44959155e-04
      9.80926491e-03 0. 5.44959155e-04 1.08991831e-03 5.44959155e-04
      5.44959155e-04 1.08991831e-03 0. 0. 5.44959155e-04 5.44959155e-04
      1.08991831e-03 2.07084473e-02 5.44959167e-03 5.44959155e-04
      5.44959155e-04 1.08991831e-03 2.17983662e-03 5.44959155e-04
      1.08991831e-03 8.17438774e-03 5.44959155e-04 6.53950963e-03
      7.08446885e-03 4.90463246e-03 5.44959155e-04 2.17983662e-03
      2.72479584e-03 1.63487741e-03 2.17983662e-03 0. 2.17983662e-03
      1.52588561e-02 1.08991831e-03 5.44959155e-04 5.44959155e-04
      5.44959155e-04 5.44959155e-04 1.08991831e-03 1.08991831e-03 0.
      1.08991833e-02 2.17983662e-03 5.44959155e-04 0. 5.44959155e-04
      3.81471403e-03 1.08991831e-03 0. 2.72479584e-03 5.44959155e-04
      2.17983662e-03 6.53950963e-03 0. 0. 9.80926491e-03 5.44959155e-04
      1.63487741e-03 5.44959155e-04 1.63487741e-03 0. 5.44959155e-04 0.
      0. 5.44959155e-04 1.63487741e-03 1.08991831e-03 3.26975482e-03
      5.44959167e-03 0. 5.44959155e-04 1.08991831e-03 1.08991831e-03
      2.72479584e-03 0. 3.81471403e-03 0. 1.08991831e-03 5.44959155e-04
      0. 5.44959155e-04 2.17983662e-03 2.17983662e-03 1.63487741e-03
      1.63487741e-03 3.26975482e-03 1.08991831e-03 0. 0. 1.08991831e-03
      2.17983662e-03 1.08991831e-03 0. 1.63487741e-03 7.08446885e-03
      1.63487741e-03 2.17983662e-03 5.44959167e-03 1.52588561e-02
      5.44959155e-04 2.17983662e-03 0. 9.80926491e-03 5.44959155e-04
      5.44959167e-03 2.17983662e-03 5.44959155e-04 5.44959155e-04
      2.72479584e-03 1.03542237e-02 5.44959155e-04 0. 5.44959155e-04
      2.72479584e-03 0. 1.63487741e-03 5.44959155e-04 5.44959155e-04
      1.08991831e-03 2.61580385e-02 3.81471403e-03 0. 2.17983662e-03
      5.44959155e-04 0. 2.17983662e-03 1.08991831e-03 1.63487741e-03 0.
      3.26975482e-03 0. 5.44959155e-04 5.44959155e-04 1.08991831e-03
      1.08991831e-03 0. 3.26975482e-03 0. 1.63487741e-03 0.
      3.26975482e-03 1.08991831e-03 1.63487741e-03 5.44959155e-04
      4.90463246e-03 0. 3.81471403e-03 1.63487741e-03 5.44959155e-04
      2.17983662e-03 0. 6.53950963e-03 2.17983662e-03 0. 1.63487741e-03
      7.08446885e-03 1.08991831e-03 0. 0. 2.72479584e-03 3.26975482e-03
      5.44959155e-04 1.08991831e-03 0. 2.72479584e-03 1.08991831e-03
      9.26430523e-03 4.35967324e-03 5.44959155e-04 2.17983662e-03 0.
      2.17983662e-03 5.44959155e-04 0. 1.30790193e-02 2.17983662e-03 0.
      1.63487741e-03 0. 0. 5.44959155e-04 0. 1.63487741e-03 0. 0.
      4.35967324e-03 5.44959155e-04 5.44959155e-04 0. 5.44959155e-04
      1.08991831e-03 3.81471403e-03 1.63487741e-03 3.10626719e-02
      1.63487741e-03 1.08991831e-03 0. 1.63487741e-03 0. 5.44959155e-04
      0. 5.44959155e-04 0. 6.53950963e-03 0. 3.81471403e-03 0.
      1.08991831e-03 4.35967324e-03 2.17983662e-03 5.44959155e-04
      4.90463246e-03 2.01634895e-02 5.44959155e-04 5.44959155e-04
      1.08991831e-03 0. 0. 0. 5.44959167e-03 5.44959155e-04
      1.63487741e-03 1.52588561e-02 0. 1.63487741e-03 5.44959155e-04
      5.44959155e-04 5.44959155e-04 1.08991831e-03 1.63487741e-03
      1.08991831e-03 2.17983662e-03 0. 2.17983662e-03 0. 0.
      1.08991831e-03 5.44959155e-04 1.63487741e-03 5.44959155e-04
      5.44959155e-04 4.35967324e-03 1.08991831e-03 6.53950963e-03
      2.72479584e-03 3.26975482e-03 1.08991831e-03 4.90463246e-03 0. 0.
      1.08991831e-03 0. 1.63487741e-03 0. 0. 0. 0. 4.35967324e-03 0.
      1.08991831e-03 0. 1.08991831e-03 0. 0. 0. 0. 1.08991831e-03
      2.72479584e-03 0. 5.44959155e-04 1.63487741e-03 4.90463246e-03
      1.08991831e-03 0. 3.81471403e-03 0. 0. 3.26975482e-03 0.
      2.72479584e-03 3.81471403e-03 1.08991831e-03 3.26975482e-03 0.
      1.63487741e-03 3.26975482e-03 2.72479584e-03 5.44959155e-04
      5.44959155e-04 5.44959155e-04 0. 1.63487741e-03 0. 1.63487741e-03
      1.08991831e-03 2.17983662e-03 2.17983662e-03 7.62942806e-03
      5.44959155e-04 2.17983662e-03 1.63487741e-03 0. 1.08991831e-03
      2.72479584e-03 7.08446885e-03 2.72479584e-03 0. 2.17983662e-03
      5.44959155e-04 1.08991831e-03 0. 0. 0. 2.17983662e-03
      5.44959155e-04 5.44959155e-04 1.08991831e-03 5.44959155e-04
      1.79836527e-02 5.44959155e-04 0. 0. 4.90463246e-03 0. 0.
      5.44959155e-04 0. 1.08991831e-03 0. 0. 5.44959155e-04
      1.08991831e-03 5.44959155e-04 2.17983662e-03 1.08991831e-03 0.
      5.44959155e-04 5.44959155e-04 2.17983662e-03 2.17983662e-03
      1.63487741e-03 1.58038158e-02 1.08991831e-03 5.44959155e-04
      1.08991831e-03 1.63487741e-03 0. 0. 0. 5.44959155e-04 0.
      5.44959155e-04 6.53950963e-03 1.08991831e-03 1.63487741e-03
      5.44959155e-04 2.72479584e-03 5.44959155e-04 0. 0. 0.
      5.44959155e-04 0. 0. 1.08991831e-03 1.08991831e-03 5.44959155e-04
      2.17983662e-03 2.17983662e-03 2.17983662e-03 0. 0. 0.
      5.44959155e-04 5.44959155e-04 0. 3.26975482e-03 1.08991831e-03
      5.44959155e-04 2.17983662e-03 1.19891018e-02 6.53950963e-03 0. 0.
      5.44959155e-04 0. 1.63487741e-03 0. 1.08991831e-03 0. 0. 0.
      2.72479584e-03 0. 0. 5.44959155e-04 5.44959155e-04 3.26975482e-03
      5.44959155e-04 0. 5.44959155e-04 0. 1.08991831e-03 0. 0.
      5.99455088e-03 0. 5.44959155e-04 5.44959155e-04 3.81471403e-03
      2.72479584e-03 1.63487741e-03 5.44959155e-04 1.63487741e-03
      5.44959155e-04 1.08991831e-03 0. 0. 0. 5.44959155e-04
      1.08991831e-03 0. 6.53950963e-03 2.17983662e-03 1.08991831e-03 0.
      1.08991833e-02 3.81471403e-03 2.72479584e-03 1.08991831e-03 0.
      5.44959155e-04 1.08991831e-03 1.08991831e-03 2.17983662e-03 0.
      1.08991831e-03 0. 2.17983662e-03 5.44959155e-04 0. 0. 0. 0.
      2.17983662e-03 0. 0. 5.44959155e-04 0. 5.44959167e-03
      2.17983662e-03 1.08991831e-03</_>
    <_>
      2.26757373e-03 3.17460322e-03 3.17460322e-03 1.36054424e-03
      1.08843539e-02 0. 4.53514745e-04 1.81405898e-03 0. 1.08843539e-02
      9.07029491e-04 9.07029491e-04 4.53514745e-04 8.16326588e-03
      2.72108847e-03 4.53514745e-04 4.53514745e-04 9.07029491e-04
      9.07029491e-04 1.36054424e-03 0. 0. 0. 2.26757373e-03
      6.34920644e-03 0. 1.36054424e-03 9.52380989e-03 6.80272095e-03
      4.53514745e-04 4.53514745e-03 4.08163294e-03 0. 0. 2.72108847e-03
      5.44217695e-03 2.72108838e-02 0. 2.72108847e-03 0. 9.07029491e-04
      1.36054424e-03 0. 0. 4.53514745e-03 1.36054424e-03 0.
      1.36054424e-03 7.70975091e-03 0. 0. 4.53514745e-04 0.
      2.72108838e-02 9.07029491e-04 0. 4.53514745e-04 1.36054424e-03 0.
      9.07029491e-04 1.17913838e-02 5.89569192e-03 0. 4.53514745e-04 0.
      1.36054424e-03 0. 1.36054424e-03 3.62811796e-03 4.53514745e-04
      9.07029491e-04 4.98866197e-03 9.97732393e-03 0. 2.72108847e-03 0.
      9.07029491e-04 1.36054424e-03 0. 3.17460322e-03 4.08163294e-03
      3.62811796e-03 0. 4.53514745e-04 4.53514745e-04 9.07029491e-04
      1.81405898e-03 4.53514745e-04 1.36054424e-03 6.80272095e-03
      1.36054424e-03 9.07029491e-04 0. 1.36054424e-03 9.07029491e-04
      9.07029491e-04 0. 4.98866197e-03 2.26757373e-03 4.08163294e-03
      1.81405898e-03 9.07029491e-04 0. 7.25623593e-03 4.53514745e-04
      1.81405898e-03 4.53514745e-04 4.53514745e-04 0. 4.53514745e-04
      4.53514745e-04 0. 4.53514745e-04 4.53514745e-04 1.36054424e-03 0.
      6.34920644e-03 0. 0. 0. 9.07029491e-04 1.36054424e-03
      4.53514745e-04 7.25623593e-03 0. 4.53514745e-04 0. 9.07029491e-04
      1.36054424e-03 9.07029491e-04 2.26757373e-03 4.53514745e-04
      1.36054424e-03 8.16326588e-03 4.53514745e-04 0. 0. 2.26757373e-03
      3.17460322e-03 9.07029491e-04 0. 4.53514745e-04 4.53514745e-04
      9.07029491e-04 1.36054424e-03 9.52380989e-03 1.67800449e-02
      3.17460322e-03 9.07029491e-04 1.36054424e-03 6.80272095e-03 0.
      5.44217695e-03 5.89569192e-03 2.72108847e-03 4.53514745e-04
      1.81405898e-03 9.52380989e-03 4.53514745e-04 0. 9.07029491e-04
      4.08163294e-03 0. 9.07029491e-04 3.62811796e-03 4.53514745e-04
      1.81405898e-03 1.17913838e-02 4.98866197e-03 0. 5.89569192e-03
      1.36054424e-03 9.07029491e-04 1.36054424e-03 1.36054424e-03
      4.53514745e-04 0. 6.80272095e-03 0. 0. 4.53514745e-04
      9.07029491e-04 4.53514745e-04 4.53514745e-04 4.53514745e-04 0.
      1.81405898e-03 1.81405898e-03 5.44217695e-03 9.07029491e-04
      1.36054424e-03 6.80272095e-03 8.16326588e-03 0. 4.08163294e-03
      9.07029491e-04 3.17460322e-03 2.72108847e-03 0. 5.44217695e-03
      9.07029491e-04 0. 4.53514745e-03 4.53514745e-03 0. 0. 0.
      1.36054424e-03 3.17460322e-03 9.07029491e-04 1.81405898e-03
      4.53514745e-04 5.44217695e-03 4.53514745e-04 6.80272095e-03
      8.61677993e-03 0. 4.53514745e-04 0. 1.36054424e-03 9.07029491e-04
      4.53514745e-04 7.70975091e-03 3.17460322e-03 0. 9.07029491e-04
      4.53514745e-04 0. 3.17460322e-03 0. 9.07029491e-04 4.53514745e-04
      0. 2.26757373e-03 1.36054424e-03 4.53514745e-04 1.36054424e-03
      9.07029491e-04 9.07029491e-04 4.98866197e-03 1.81405898e-03
      3.26530635e-02 2.72108847e-03 4.53514745e-04 0. 2.26757373e-03 0.
      9.07029491e-04 9.07029491e-04 4.98866197e-03 0. 4.53514745e-03 0.
      3.62811796e-03 0. 9.07029491e-04 4.53514745e-03 2.72108847e-03
      4.53514745e-04 5.89569192e-03 1.67800449e-02 9.07029491e-04
      4.53514745e-04 1.36054424e-03 9.07029491e-04 1.81405898e-03 0.
      1.49659868e-02 0. 9.07029491e-04 3.17460336e-02 4.53514745e-04
      4.53514745e-04 4.53514745e-04 4.53514745e-04 1.36054424e-03
      2.72108847e-03 2.26757373e-03 4.98866197e-03 1.81405898e-03 0.
      4.53514745e-04 4.53514745e-04 0. 9.07029491e-04 3.17460322e-03
      1.36054424e-03 1.81405898e-03 4.53514745e-04 5.44217695e-03
      2.72108847e-03 4.98866197e-03 0. 1.17913838e-02 4.53514745e-04
      2.26757373e-03 0. 0. 0. 9.07029491e-04 1.81405898e-03 0. 0. 0.
      9.07029491e-04 2.26757373e-03 0. 4.53514745e-04 0. 4.53514745e-04
      9.07029491e-04 0. 1.81405898e-03 0. 1.36054424e-03 6.80272095e-03
      0. 9.07029491e-04 3.62811796e-03 3.62811796e-03 0. 0.
      2.72108847e-03 4.53514745e-04 0. 3.17460322e-03 0. 4.08163294e-03
      2.72108847e-03 9.07029491e-04 3.17460322e-03 4.53514745e-04
      9.07029491e-04 3.62811796e-03 2.72108847e-03 1.81405898e-03 0.
      9.07029491e-04 0. 9.07029491e-04 9.07029491e-04 1.36054424e-03
      9.07029491e-04 2.26757373e-03 4.98866197e-03 6.34920644e-03
      2.72108847e-03 3.62811796e-03 4.53514745e-04 4.53514745e-04
      9.07029491e-04 5.44217695e-03 8.16326588e-03 1.81405898e-03
      4.53514745e-04 1.81405898e-03 9.07029491e-04 3.17460322e-03 0. 0.
      0. 0. 0. 1.81405898e-03 0. 4.53514745e-04 1.54195018e-02 0.
      9.07029491e-04 0. 3.17460322e-03 0. 0. 0. 9.07029491e-04
      9.07029491e-04 9.07029491e-04 0. 0. 1.36054424e-03 0.
      2.26757373e-03 9.07029491e-04 0. 1.81405898e-03 9.07029491e-04
      4.53514745e-04 9.07029491e-04 4.53514745e-04 5.44217695e-03
      4.53514745e-04 1.36054424e-03 4.53514745e-04 9.07029491e-04 0.
      4.53514745e-04 0. 4.53514745e-04 0. 2.72108847e-03 4.53514745e-04
      9.07029491e-04 2.26757373e-03 1.81405898e-03 1.36054424e-03
      1.36054424e-03 0. 0. 0. 2.26757373e-03 0. 9.07029491e-04
      4.53514745e-04 1.36054424e-03 4.53514745e-04 4.53514745e-04
      2.72108847e-03 9.07029491e-04 0. 4.53514745e-04 0. 4.53514745e-04
      0. 9.07029491e-04 2.26757373e-03 9.07029491e-04 0. 4.53514745e-03
      8.61677993e-03 5.89569192e-03 0. 4.53514745e-04 0. 0.
      1.36054424e-03 0. 1.36054424e-03 0. 4.53514745e-04 0.
      1.36054424e-03 0. 9.07029491e-04 2.26757373e-03 4.53514745e-04
      2.72108847e-03 1.36054424e-03 0. 9.07029491e-04 4.53514745e-04 0.
      0. 4.53514745e-04 5.44217695e-03 0. 4.53514745e-04 4.53514745e-04
      1.36054424e-03 4.98866197e-03 1.36054424e-03 4.53514745e-04
      1.36054424e-03 0. 1.36054424e-03 0. 0. 0. 0. 4.53514745e-04
      4.53514745e-04 4.08163294e-03 5.44217695e-03 1.36054424e-03 0.
      3.62811796e-03 6.80272095e-03 2.26757373e-03 0. 0. 0.
      1.81405898e-03 4.53514745e-04 2.72108847e-03 0. 2.26757373e-03 0.
      2.26757373e-03 9.07029491e-04 0. 0. 4.53514745e-04 0.
      1.81405898e-03 0. 0. 0. 0. 3.17460322e-03 2.72108847e-03
      4.53514745e-04</_>
    <_>
      3.07219662e-03 2.56016385e-03 4.09626216e-03 4.09626216e-03
      4.60829493e-03 0. 1.02406554e-03 2.04813108e-03 0. 4.09626216e-03
      1.53609831e-03 2.04813108e-03 1.53609831e-03 4.60829493e-03
      5.12032770e-04 0. 5.12032770e-04 0. 4.09626216e-03 1.02406554e-03
      0. 1.02406554e-03 0. 2.56016385e-03 0. 0. 0. 1.33128520e-02
      3.58422939e-03 5.12032770e-04 6.65642601e-03 7.68049154e-03 0.
      5.12032770e-04 2.04813108e-03 7.16845877e-03 1.79211460e-02 0.
      1.53609831e-03 0. 1.02406554e-03 0. 0. 1.02406554e-03
      1.02406554e-03 0. 1.02406554e-03 0. 1.33128520e-02 0. 0.
      3.07219662e-03 0. 5.12032770e-04 5.12032770e-04 5.12032770e-04 0.
      1.53609831e-03 0. 2.56016385e-03 1.22887865e-02 6.65642601e-03 0.
      0. 1.02406554e-03 0. 5.12032770e-04 1.02406554e-03 5.63236047e-03
      2.04813108e-03 5.63236047e-03 7.16845877e-03 4.60829493e-03
      2.04813108e-03 1.02406554e-03 5.12032770e-04 1.02406554e-03
      2.04813108e-03 0. 2.04813108e-03 5.12032770e-03 1.02406554e-03 0.
      5.12032770e-04 1.53609831e-03 0. 5.12032770e-04 5.12032770e-04
      5.12032770e-04 2.04813108e-03 2.04813108e-03 1.02406554e-03 0.
      2.04813108e-03 1.53609831e-03 5.12032770e-04 0. 4.60829493e-03
      1.53609831e-03 6.14439324e-03 1.53609831e-03 0. 0. 1.02406554e-02
      0. 2.04813108e-03 5.12032770e-04 1.02406554e-03 0. 5.12032770e-04
      0. 0. 4.09626216e-03 1.02406554e-03 5.12032770e-04 2.04813108e-03
      7.68049154e-03 0. 5.12032770e-04 0. 5.12032770e-04 5.12032770e-03
      0. 4.09626216e-03 0. 1.02406554e-03 5.12032770e-04 1.53609831e-03
      1.53609831e-03 3.07219662e-03 1.53609831e-03 1.02406554e-03
      1.53609831e-03 1.53609831e-03 0. 5.12032770e-04 0. 2.04813108e-03
      3.58422939e-03 2.04813108e-03 5.12032770e-04 0. 4.09626216e-03
      5.12032770e-04 1.02406554e-03 4.09626216e-03 5.63236047e-03 0.
      5.12032770e-03 0. 1.58730149e-02 0. 4.09626216e-03 5.12032770e-03
      1.02406554e-03 5.12032770e-04 2.04813108e-03 9.21658985e-03 0. 0.
      1.53609831e-03 0. 0. 5.12032770e-04 4.60829493e-03 1.02406554e-03
      3.07219662e-03 1.48489503e-02 3.07219662e-03 0. 3.07219662e-03
      1.02406554e-03 0. 2.04813108e-03 2.56016385e-03 5.12032770e-04 0.
      3.07219662e-03 0. 0. 0. 5.12032770e-04 0. 5.12032770e-04
      1.53609831e-03 0. 1.53609831e-03 1.02406554e-03 7.68049154e-03
      3.58422939e-03 2.04813108e-03 4.60829493e-03 2.56016385e-03 0.
      5.12032770e-03 1.02406554e-03 1.02406554e-03 5.12032770e-04
      5.12032770e-04 2.04813108e-03 4.09626216e-03 0. 5.12032770e-03
      1.12647209e-02 0. 0. 0. 2.04813108e-03 3.07219662e-03
      1.02406554e-03 4.09626216e-03 0. 1.53609831e-03 0. 7.16845877e-03
      4.09626216e-03 0. 1.53609831e-03 5.12032770e-04 4.09626216e-03
      2.04813108e-03 0. 8.70455708e-03 5.12032770e-04 0. 1.53609831e-03
      0. 0. 2.04813108e-03 1.02406554e-03 1.02406554e-03 2.04813108e-03
      0. 2.56016385e-03 1.02406554e-03 2.04813108e-03 5.12032770e-04 0.
      1.53609831e-03 3.07219662e-03 4.09626216e-03 5.52995391e-02
      5.12032770e-04 5.12032770e-04 5.12032770e-04 1.02406554e-03 0.
      1.53609831e-03 0. 3.07219662e-03 0. 6.14439324e-03 0.
      1.53609831e-03 5.12032770e-04 1.53609831e-03 5.63236047e-03
      2.04813108e-03 0. 3.58422939e-03 1.84331797e-02 5.12032770e-04
      1.53609831e-03 3.58422939e-03 5.12032770e-04 0. 0. 4.60829493e-03
      1.02406554e-03 0. 8.19252431e-03 0. 1.53609831e-03 5.12032770e-04
      0. 5.12032770e-04 2.56016385e-03 3.58422939e-03 3.58422939e-03
      1.07526882e-02 0. 1.53609831e-03 5.12032770e-04 0. 5.12032770e-04
      0. 1.53609831e-03 1.02406554e-03 5.12032770e-04 4.60829493e-03
      8.19252431e-03 7.16845877e-03 2.04813108e-03 1.53609831e-03
      3.58422939e-03 3.07219662e-03 0. 0. 0. 1.02406554e-03
      2.56016385e-03 0. 0. 0. 5.12032770e-04 5.12032770e-03 0.
      2.04813108e-03 0. 5.12032770e-04 5.12032770e-04 0. 5.12032770e-04
      0. 1.53609831e-03 4.60829493e-03 0. 5.12032770e-04 4.09626216e-03
      5.63236047e-03 5.12032770e-04 0. 2.04813108e-03 0. 0.
      2.56016385e-03 0. 3.58422939e-03 4.60829493e-03 1.53609831e-03
      2.56016385e-03 1.53609831e-03 1.02406554e-03 3.58422939e-03
      2.04813108e-03 1.02406554e-03 1.53609831e-03 1.53609831e-03
      1.02406554e-03 2.04813108e-03 5.12032770e-04 1.53609831e-03
      1.02406554e-03 2.04813108e-03 5.63236047e-03 3.58422939e-03
      1.02406554e-03 4.09626216e-03 0. 1.02406554e-03 5.12032770e-04
      1.53609831e-03 1.33128520e-02 5.12032770e-04 5.12032770e-04
      5.63236047e-03 5.12032770e-04 2.04813108e-03 0. 5.12032770e-04
      5.12032770e-04 5.12032770e-04 0. 1.53609831e-03 5.12032770e-04
      5.12032770e-04 2.35535074e-02 1.02406554e-03 1.02406554e-03
      5.12032770e-04 1.02406554e-03 0. 0. 0. 2.04813108e-03
      1.53609831e-03 0. 0. 0. 5.12032770e-04 5.12032770e-04
      1.02406554e-03 2.04813108e-03 0. 3.07219662e-03 5.12032770e-04
      1.53609831e-03 4.60829493e-03 2.56016385e-03 2.04813108e-03
      5.12032770e-04 1.53609831e-03 2.04813108e-03 5.12032770e-04 0. 0.
      5.12032770e-04 0. 0. 1.02406554e-03 5.63236047e-03 5.12032770e-04
      5.12032770e-04 3.07219662e-03 2.56016385e-03 1.02406554e-03 0. 0.
      0. 0. 0. 1.02406554e-03 2.04813108e-03 1.02406554e-03
      1.02406554e-03 2.04813108e-03 1.02406554e-03 2.04813108e-03 0. 0.
      5.12032770e-04 1.02406554e-03 0. 0. 2.56016385e-03 0. 0.
      5.12032770e-03 7.16845877e-03 9.72862262e-03 5.12032770e-04 0. 0.
      0. 5.12032770e-04 5.12032770e-04 1.02406554e-03 1.02406554e-03 0.
      0. 0. 0. 2.56016385e-03 4.60829493e-03 1.02406554e-03
      2.56016385e-03 5.12032770e-04 0. 1.53609831e-03 1.02406554e-03
      5.12032770e-04 0. 5.12032770e-04 4.60829493e-03 0. 0. 0.
      4.60829493e-03 3.07219662e-03 1.02406554e-03 1.53609831e-03
      1.02406554e-03 5.12032770e-04 1.53609831e-03 0. 0. 0.
      5.12032770e-04 5.12032770e-04 0. 8.19252431e-03 2.56016385e-03
      2.04813108e-03 0. 2.09933445e-02 4.60829493e-03 3.58422939e-03
      1.53609831e-03 0. 1.02406554e-03 1.02406554e-03 1.02406554e-03
      3.58422939e-03 0. 1.02406554e-03 0. 1.02406554e-03 5.12032770e-04
      0. 1.02406554e-03 2.04813108e-03 0. 1.02406554e-03 0. 0.
      1.02406554e-03 0. 4.60829493e-03 1.02406554e-03 1.53609831e-03</_></support_vectors>
  <decision_functions>
    <_>
      <sv_count>7</sv_count>
      <rho>-5.4344355091075778e-03</rho>
      <alpha>
        2.7364206957884647e+02 1.6094429401795560e+02
        4.4850164643080198e+01 2.8198422913637216e+02
        -3.1250000000000000e+02 -2.4158074195079448e+02
        -2.0734001542545985e+02</alpha>
      <index>
        0 1 2 3 4 5 6</index></_></decision_functions></my_svm>
</opencv_storage>
